tree
version=v3
num_class=3
num_tree_per_iteration=3
label_index=0
max_feature_idx=3
objective=multiclass num_class:3
feature_names=qp 0 1 2
feature_infos=[23:46] [0.0001144447451224:0.87984132766723633] [0.0025247880257665998:0.972331702709198] [0.0001015519519569:0.84682971239089966]
tree_sizes=3308 3375 3295 3377 3418 3349 3385 3413 3357 3401 3420 3384 3410 3435 3382 3414 3420 3379 3388 3405 3368 3406 3419 3363 3393 3423 3362 3403 3437 3379 3393 3420 3385 3396 3416 3373 3398 3433 3394 3417 3426 3366 3421 3425 3375 3429 3419 3391 3416 3426 3382 3416 3409 3385

Tree=0
num_leaves=31
num_cat=0
split_feature=1 2 0 2 2 2 0 2 3 3 0 1 2 0 3 2 3 3 1 1 1 3 1 1 1 1 1 3 2 1
split_gain=148.32 75.5987 39.6173 37.6075 26.1754 24.9762 16.2024 15.1431 13.1037 12.0171 11.4914 13.4908 10.1753 14.0418 11.8387 9.85289 9.66368 14.0816 9.28058 11.7067 8.90128 13.8544 8.49246 8.16113 9.31971 7.91467 13.3467 7.48948 7.27348 9.90896
threshold=0.099950168281793567 0.57044738531112682 24.500000000000004 0.80612754821777355 0.3695750385522843 0.25781510770320898 26.500000000000004 0.6640804409980775 0.014407302252948251 0.24745351076126096 30.500000000000004 0.077089939266443266 0.4710421115159989 24.500000000000004 0.14392251521348953 0.49267858266830444 0.066366009414196014 0.057836404070258057 0.19057324528694147 0.11922719329595562 0.12667010724544528 0.13478103280067444 0.16142622381448743 0.24919664859771729 0.28651621937751776 0.045813227072358055 0.078768346458673463 0.10780009999871251 0.75875896215438854 0.17761015146970746
decision_type=2 2 2 2 2 2 2 2 2 2 2 2 2 2 2 2 2 2 2 2 2 2 2 2 2 2 2 2 2 2
left_child=2 12 4 6 -1 -4 7 9 -7 -3 -10 -12 -2 14 -14 -15 17 -8 19 -9 -21 27 -18 -5 -25 -6 -27 -22 29 -24
right_child=1 3 5 23 25 8 16 18 10 -11 11 -13 13 15 -16 -17 22 -19 -20 20 21 -23 28 24 -26 26 -28 -29 -30 -31
leaf_value=-2.8754570358227194 -2.8706301150542366 -2.7799264933867693 -2.9187788597061344 -2.9112971735386237 -2.8488481386036013 -2.9455331689721374 -2.7882643675555272 -2.7504435987059908 -2.8923621569208984 -2.53120613374892 -2.8678384884084034 -2.7369548293279919 -2.6231317890972092 -2.7562558326656159 -2.8265658538380536 -2.8682326714934847 -2.8211418336485536 -2.4263534331172778 -2.7109536205460212 -2.3215007324856352 -2.5911219626812869 -2.4870576282198078 -2.6150882942542344 -2.573147214001577 -2.8432068527016119 -2.687976191003997 -2.8211987457815768 -2.8907011073431224 -2.630727341128106 -2.7966560087657362
leaf_weight=71.84682160615921 176.27903796732426 20.504955723881725 477.4157714471221 17.802752256393436 10.808813869953154 39.340903423726559 2.4637737497687331 3.4969691932201412 564.76052470505238 2.1458674594759932 120.80439031124115 8.4245166927576047 5.8017897978425008 9.7756184265017492 5.6428366526961327 40.056192576885223 30.121621005237103 1.907437741756439 11.683056168258188 1.5895314514636982 1.6690080240368828 6.0402195155620575 3.5764457657933297 1.5895314514636973 6.5170789510011673 16.372173950076107 13.908400200307367 1.6690080240368841 4.6891177818179122 18.835947699844837
leaf_count=904 2218 258 6007 224 136 495 31 44 7106 27 1520 106 73 123 71 504 379 24 147 20 21 76 45 20 82 206 175 21 59 237
internal_value=-2.87999 -2.82437 -2.89569 -2.765 -2.83905 -2.90098 -2.73955 -2.69651 -2.88939 -2.75636 -2.88621 -2.85931 -2.85843 -2.82332 -2.72344 -2.84627 -2.77365 -2.63034 -2.64466 -2.59112 -2.54032 -2.57741 -2.7846 -2.87342 -2.79025 -2.77539 -2.74917 -2.74091 -2.74399 -2.76768
internal_weight=0 373.858 1323.68 136.302 112.936 1210.75 110.393 48.7986 733.33 22.6508 693.989 129.229 237.555 61.2764 11.4446 49.8318 61.5943 4.37121 26.1478 14.4647 10.9678 9.37824 57.2231 25.9094 8.10661 41.0894 30.2806 3.33802 27.1015 22.4124
internal_count=21359 4704 16655 1715 1421 15234 1389 614 9227 285 8732 1626 2989 771 144 627 775 55 329 182 138 118 720 326 102 517 381 42 341 282
is_linear=0
shrinkage=1


Tree=1
num_leaves=31
num_cat=0
split_feature=1 1 2 2 0 0 0 2 3 0 3 2 1 2 2 2 1 3 1 3 2 2 3 2 2 3 3 3 0 2
split_gain=313.894 91.5488 63.0159 56.1145 44.7859 29.4392 24.4538 21.6473 15.5994 15.348 14.644 22.5666 14.5964 18.8662 13.7757 13.7372 12.3193 12.2236 11.448 11.0495 10.2854 16.7593 10.2522 9.88161 9.49516 9.35049 9.1225 9.46659 11.0748 9.00971
threshold=0.15152409672737124 0.058264968916773761 0.53471446037292492 0.40923205018043524 26.500000000000004 26.500000000000004 30.500000000000004 0.24119172245264053 0.42684286832809454 24.500000000000004 0.24745351076126096 0.82321602106094371 0.11922719329595562 0.45629504323005682 0.85602253675460827 0.42974846065044403 0.19057324528694147 0.049300098791718462 0.077089939266443266 0.014407302252948251 0.80612754821777355 0.72942581772804271 0.13748887181282043 0.74093589186668407 0.63272929191589367 0.11147811263799666 0.2673915326595307 0.3484412282705307 24.500000000000004 0.4710421115159989
decision_type=2 2 2 2 2 2 2 2 2 2 2 2 2 2 2 2 2 2 2 2 2 2 2 2 2 2 2 2 2 2
left_child=1 7 -2 -3 12 10 15 -1 14 -9 11 16 17 -14 -7 -6 22 -5 -8 -11 21 25 -4 -18 -24 -15 -12 28 -28 -20
right_child=2 3 5 4 6 8 18 9 -10 19 26 -13 13 20 -16 -17 23 -19 29 -21 -22 -23 24 -25 -26 -27 27 -29 -30 -31
leaf_value=-0.043546588670468261 -0.13823887519973038 -0.078859445691437949 -0.24615729315436513 -0.28791992957405543 -0.16925887442265983 -0.20801990947609739 -0.11650237744275438 -0.1262829091355136 -0.38993884390489986 -0.027203553020253603 -0.51849527953388386 -0.040367650344216799 -0.094746601195528288 -0.32836659783964961 -0.048217223496542866 -0.086797394652143561 -0.20167637862451737 -0.14327898379637516 -0.35334544816775398 -0.070912198987188993 -0.058225429265758591 -0.49673311167250717 -0.25141412850789263 -0.37070385383793863 -0.4748296310328094 -0.20257263585758151 -0.34446011426532858 -0.42226127749753484 -0.093709067902068913 -0.19500424144504025
leaf_weight=554.19907078891993 81.048875965178013 614.03458519279957 5.1880503818392745 6.2256604582071295 22.020391620695591 53.840433962643147 14.757121086120604 45.77013336867094 4.2657303139567366 64.792984768748283 3.5739902630448368 3.9198602885007849 8.7620406448841077 9.569070704281339 5.9950804412364951 244.64539800584316 14.987701103091242 94.998966991901398 4.7268903478980091 538.75020965188742 2.3058001697063437 3.1128302291035643 2.5363801866769773 4.4963103309273711 7.6091405600309372 15.448861137032507 5.7645004242658597 7.6091405600309363 2.5363801866769791 14.987701103091238
leaf_count=4807 703 5326 45 54 191 467 128 397 37 562 31 34 76 83 52 2122 130 824 41 4673 20 27 22 39 66 134 50 66 22 130
internal_value=-0.0876287 -0.0769164 -0.206624 -0.0984113 -0.1256 -0.251934 -0.103852 -0.0580634 -0.20518 -0.0704537 -0.30341 -0.267842 -0.172238 -0.224048 -0.192009 -0.0936068 -0.293451 -0.152175 -0.18311 -0.0662199 -0.261271 -0.277914 -0.360503 -0.240683 -0.418976 -0.250687 -0.374125 -0.341695 -0.267842 -0.232969
internal_weight=0 2259.11 203.372 1055.6 441.561 122.323 301.138 1203.51 64.1012 649.313 58.2215 38.7374 140.423 39.1986 59.8355 266.666 34.8176 101.225 34.4717 603.543 30.4366 28.1308 15.3336 19.484 10.1455 25.0179 19.484 15.91 8.30088 19.7146
internal_count=21359 19595 1764 9156 3830 1061 2612 10439 556 5632 505 336 1218 340 519 2313 302 878 299 5235 264 244 133 169 88 217 169 138 72 171
is_linear=0
shrinkage=1


Tree=2
num_leaves=31
num_cat=0
split_feature=1 1 1 0 3 2 2 1 2 0 0 2 3 3 3 0 1 2 2 1 0 1 1 2 1 3 3 2 2 2
split_gain=252.131 47.7652 34.1167 39.7535 31.1562 48.5499 17.8885 39.1533 13.8615 14.7633 16.4929 13.8318 17.0436 13.178 10.0693 9.31115 10.1318 8.71417 8.44129 7.9526 12.8668 7.93082 7.79648 7.7657 6.38754 10.2054 10.6164 8.54405 10.6602 23.2553
threshold=0.17302039265632627 0.059050614014267859 0.26429583132267004 24.500000000000004 0.42684286832809454 0.70160871744155895 0.70160871744155895 0.32225501537323004 0.40923205018043524 28.500000000000004 27.500000000000004 0.49898178875446325 0.14696057140827176 0.11286754906177517 0.055580817162990563 30.500000000000004 0.086475796997547164 0.3860514760017395 0.87578400969505321 0.11430798470973967 26.500000000000004 0.10571601241827007 0.11194471642374991 0.45330658555030828 0.12376701086759566 0.081816364079713808 0.11147811263799666 0.48675651848316198 0.55859246850013744 0.53471446037292492
decision_type=2 2 2 2 2 2 2 2 2 2 2 2 2 2 2 2 2 2 2 2 2 2 2 2 2 2 2 2 2 2
left_child=1 -1 17 6 -5 -6 -4 -8 15 10 19 12 -11 14 -12 -3 -17 -2 -19 23 24 -18 -16 -10 25 -21 -27 -26 29 -29
right_child=2 8 3 4 5 -7 7 -9 9 11 13 -13 -14 -15 22 16 21 18 -20 20 -22 -23 -24 -25 27 26 -28 28 -30 -31
leaf_value=-3.620471626856375 -3.5594042321162718 -3.592042180041604 -3.2997749167583814 -3.4328335304636362 -3.4626193394088927 -2.47139241892752 -2.4177009607347788 -3.1206460518428187 -3.4789461890756752 -3.5391122702527502 -3.1776415997704976 -3.6201984081873864 -3.0912847089709841 -3.0564441702691116 -3.6526044991678224 -3.5528143142439399 -3.0351527299513004 -3.3954063299649344 -3.6526044991678224 -3.6526044991678219 -3.5747595769743352 -3.4550199330185354 -3.2821334376379094 -3.5737399429750578 -3.5825390501787133 -3.0826490198910328 -3.4135909110840075 -3.439690095989711 -3.489401388361693 -2.8293354735457932
leaf_weight=429.46673693880439 4.2918331399559966 211.35253764688969 1.7005376592278505 9.5554020851850474 1.0527137890458114 0.93124681338667858 1.1336917728185656 2.6317844726145267 10.365181922912596 18.503469292074445 1.05271378904581 43.201754342764616 0.89075782150030036 1.1741807647049425 1.9029826186597349 4.0084101967513552 0.80977983772754658 28.382783312350515 1.3361367322504509 0.93124681338668125 14.130658168345688 1.0122247971594331 0.80977983772754658 51.987865582108498 5.7089478559792068 1.5790706835687158 2.5103174969553947 2.348361529409885 9.1910011582076532 0.85026882961392392
leaf_count=10607 106 5220 42 236 26 23 28 65 256 457 26 1067 22 29 47 99 20 701 33 23 349 25 20 1284 141 39 62 58 227 21
internal_value=-3.58403 -3.59755 -3.36838 -3.25273 -3.35796 -2.99735 -3.03058 -2.90901 -3.57194 -3.55029 -3.5273 -3.5887 -3.51854 -3.34894 -3.44015 -3.5886 -3.46394 -3.42621 -3.40697 -3.53614 -3.49958 -3.26841 -3.54202 -3.55798 -3.45364 -3.35384 -3.2858 -3.48132 -3.43468 -3.27744
internal_weight=0 813.788 51.0161 17.0054 11.5394 1.98396 5.46601 3.76548 384.322 167.139 104.543 62.596 19.3942 4.93966 3.76548 217.183 5.83041 34.0108 29.7189 99.6029 37.2499 1.822 2.71276 62.353 23.1192 5.02063 4.08939 18.0986 12.3896 3.19863
internal_count=21359 20099 1260 420 285 49 135 93 9492 4128 2582 1546 479 122 93 5364 144 840 734 2460 920 45 67 1540 571 124 101 447 306 79
is_linear=0
shrinkage=1


Tree=3
num_leaves=31
num_cat=0
split_feature=1 2 0 2 2 2 2 0 3 0 3 2 0 3 1 2 1 3 3 3 1 1 2 2 2 3 3 2 3 3
split_gain=100.334 38.2312 32.0414 21.6013 16.5655 14.9394 15.2779 9.24134 8.88913 6.9784 15.1458 9.59598 6.2721 6.27024 5.0195 4.95949 6.23835 5.35486 6.26567 5.55002 4.88385 7.44446 5.55837 5.03726 4.96125 4.87629 5.3382 4.74689 4.5215 6.78513
threshold=0.099950168281793567 0.4710421115159989 24.500000000000004 0.21328684687614438 0.3695750385522843 0.80612754821777355 0.62158828973770153 24.500000000000004 0.012553284410387203 30.500000000000004 0.037859719246625852 0.58645358681678783 33.500000000000007 0.077058855444192872 0.23503608256578443 0.49267858266830444 0.13520035892724994 0.14043900370597837 0.08809237554669376 0.084158722311258302 0.045813227072358055 0.078768346458673463 0.53803023695945751 0.39357864856719976 0.62158828973770153 0.047724654898047406 0.031055781990289653 0.74993959069252025 0.16630532592535016 0.10176092758774752
decision_type=2 2 2 2 2 2 2 2 2 2 2 2 2 2 2 2 2 2 2 2 2 2 2 2 2 2 2 2 2 2
left_child=2 13 4 -4 -1 6 7 28 -5 27 -11 -12 -8 -2 -7 16 -9 18 19 -17 22 -22 25 -23 -25 26 -6 -10 29 -3
right_child=1 5 3 8 20 14 12 15 9 10 11 -13 -14 -15 -16 17 -18 -19 -20 -21 21 23 -24 24 -26 -27 -28 -29 -30 -31
leaf_value=0.0050485254698196891 0.055545640829628443 0.040827327671284837 -0.04317004865776583 -0.057649998359231625 0.12092362390496365 -0.0346009360335294 0.10142843501419217 0.16950006661218942 -0.012115243638848635 -0.014725405552976146 0.071541071487958408 -0.025342168103165686 0.25415687759015371 0.00040146863466827051 0.051686013510470197 0.035094145690718025 0.020520665844516478 0.065122351627664055 -0.018288658012499223 0.2084917984210729 0.1392825051228955 0.20262409264874215 -0.070917939812886688 -0.010538201981456503 0.12765042481698669 0.2248378042521324 -0.070917939812886688 -0.060866542409866865 0.049739937959060398 0.19078422796004027
leaf_weight=71.376918964087963 23.759237825870514 4.4174818694591549 283.45475092530251 39.791989475488663 3.1275809034705144 16.649088695645336 100.15956328064203 5.8139686286449415 672.75943544507027 94.913007527589798 45.662958018481731 13.172460868954657 2.763070121407508 156.05102702230215 11.329276211559771 13.184625431895254 5.4412470683455467 23.464380741119385 32.230303935706615 2.1464060842990866 20.373823218047619 1.8284135460853566 3.9728730395436287 9.9065019041299802 3.5216125249862662 1.6905842721462248 2.70493483543396 20.583795316517353 8.2196024581789953 9.5198311880230886
leaf_count=904 294 41 3823 553 37 211 971 64 8666 1214 558 158 29 1924 115 153 59 263 375 25 206 22 47 113 40 20 32 262 84 96
internal_value=0 0.0424053 -0.0141216 -0.0191389 0.0354287 0.068931 0.0781858 0.0512398 -0.0114583 -0.00928847 0.00998596 0.0498502 0.105529 0.00768795 0.000339229 0.0358035 0.0974771 0.0260303 0.00674418 0.0593705 0.0814421 0.0997278 0.0247677 0.0469058 0.0257027 0.0752984 0.0319536 -0.0135626 0.108563 0.143255
internal_weight=0 415.149 1288.84 1170.34 118.503 235.339 207.36 104.438 886.884 847.092 153.748 58.8354 102.923 179.81 27.9784 82.2809 11.2552 71.0257 47.5613 15.331 47.1263 35.6304 11.496 15.2565 13.4281 7.5231 5.83252 693.343 22.1569 13.9373
internal_count=21359 4704 16655 15234 1421 2486 2160 1160 11411 10858 1930 716 1000 2218 326 939 123 816 553 178 517 381 136 175 153 89 69 8928 221 137
is_linear=0
shrinkage=0.1


Tree=4
num_leaves=31
num_cat=0
split_feature=1 2 2 0 0 3 1 2 2 2 2 2 2 1 0 1 0 0 0 0 1 1 1 1 0 1 1 2 3 1
split_gain=201.7 66.9428 48.8697 30.1779 20.8919 15.4307 11.8706 11.0005 9.41197 8.31801 9.46369 8.27293 7.81715 7.4481 14.824 7.92049 11.8867 7.15573 32.4742 6.33257 6.26186 7.07618 6.25074 6.00055 5.87765 5.75423 5.45066 5.36414 5.30465 5.18042
threshold=0.10859464108943936 0.45629504323005682 0.24625430256128314 24.500000000000004 26.500000000000004 0.014407302252948251 0.24919664859771729 0.3695750385522843 0.80612754821777355 0.87578400969505321 0.62158828973770153 0.72942581772804271 0.25629469752311712 0.058264968916773761 30.500000000000004 0.095040183514356613 33.500000000000007 28.500000000000004 27.500000000000004 30.500000000000004 0.045813227072358055 0.073756579309701906 0.0049429570790379502 0.11194471642374991 30.500000000000004 0.35965958237648016 0.16895230859518048 0.29409924149513245 0.077058855444192872 0.12376701086759566
decision_type=2 2 2 2 2 2 2 2 2 2 2 2 2 2 2 2 2 2 2 2 2 2 2 2 2 2 2 2 2 2
left_child=2 24 22 7 9 -5 8 12 17 10 -3 13 -4 -7 27 -16 -17 18 23 -19 -9 -22 -1 -6 26 -12 28 -15 -2 -21
right_child=1 4 3 5 6 11 -8 20 -10 -11 25 -13 -14 14 15 16 -18 19 -20 29 21 -23 -24 -25 -26 -27 -28 -29 -30 -31
leaf_value=0.068869310180313212 -0.051835852429394348 -0.085461117675759243 -0.14910817916674785 0.059803167365548797 0.073074923010111148 0.013688322800661724 -0.10966498856504714 -0.012740773170028847 0.031022045128773375 -0.00087793673223147495 -0.12869258427565419 0.046447446785747297 0.0036219364320159812 0.018854189438662954 -0.040572657214590573 -0.2847858791258055 -0.031388089539203134 -0.015043209505238367 -0.26238005582705493 -0.22120381581039616 -0.12783151651002442 -0.055494555477053814 0.034557419100621649 -0.058938696099717053 -0.11245839558678941 -0.21536306785761164 -0.043762534310062877 -0.0042697141359977547 0.0075006618718283227 -0.057779563769338994
leaf_weight=58.370964348316193 16.851363927125931 59.925835199654102 3.6044908985495558 56.865519158542156 3.7075716108083716 490.79180655628443 36.792512968182564 16.314594805240631 14.346507474780081 6.5946412608027449 74.503149382770061 49.370637647807598 47.688164308667183 132.01638700067997 32.459282942116261 3.6188804879784575 3.7898952811956406 48.525635287165642 8.3137331306934339 2.7080863416194898 21.792957082390785 35.636857405304909 587.24552933871746 48.274711407721043 5.3719792962074271 8.5381616950035077 32.435400411486626 417.79681453108788 142.24826394021511 6.8360813707113266
leaf_count=542 146 422 31 543 31 4377 254 136 124 48 459 429 411 1167 262 26 28 385 60 20 162 280 5402 379 42 48 260 3615 1218 52
internal_value=0 -0.0551453 0.0151368 0.00405154 -0.0834415 0.00897495 -0.0594052 -0.0426759 -0.0454715 -0.110683 -0.115748 0.00641675 -0.00711087 0.0045876 -0.00298693 -0.0618671 -0.155162 -0.0547428 -0.0788721 -0.0296885 -0.0674131 -0.0829443 0.0376596 -0.049523 -0.00929438 -0.137604 -0.00640094 0.0012826 0.00121591 -0.10415
internal_weight=0 515.974 1957.36 1311.75 319.067 1186.71 169.505 125.037 132.712 149.562 142.967 1129.84 51.2927 1080.47 589.681 39.8681 7.40878 118.366 60.296 58.0698 73.7444 57.4298 645.616 51.9823 196.907 83.0413 191.535 549.813 159.1 9.54417
internal_count=21359 3948 17411 11467 2282 10447 1305 1020 1051 977 929 9904 442 9475 5098 316 54 927 470 457 578 442 5944 410 1666 507 1624 4782 1364 72
is_linear=0
shrinkage=0.1


Tree=5
num_leaves=31
num_cat=0
split_feature=1 1 2 0 3 2 3 2 1 2 0 3 1 1 2 3 3 2 2 3 3 2 3 3 1 2 2 2 3 0
split_gain=138.713 39.3089 13.0277 8.42088 8.14257 8.74718 11.8988 9.41922 13.7281 9.40926 8.16871 6.72176 6.4223 11.1455 6.06553 8.95481 5.99368 7.65119 14.1551 5.67085 12.2949 10.9148 5.35674 8.00245 7.66927 5.91948 9.21112 5.11504 5.0853 5.03168
threshold=0.17302039265632627 0.051227489486336659 0.32493358850479126 26.500000000000004 0.17221329361200333 0.5994737744331361 0.19031116366386411 0.49001733958721166 0.19057324528694147 0.45900118350982672 26.500000000000004 0.21996161341667173 0.059941319748759256 0.058264968916773761 0.50207966566085827 0.17221329361200333 0.16131128370761869 0.43700999021530157 0.65855756402015697 0.16630532592535016 0.17803390324115748 0.46805638074874883 0.08809237554669376 0.094222567975521074 0.094249889254569966 0.55040478706359874 0.53170013427734386 0.54193493723869335 0.24745351076126096 28.500000000000004
decision_type=2 2 2 2 2 2 2 2 2 2 2 2 2 2 2 2 2 2 2 2 2 2 2 2 2 2 2 2 2 2
left_child=1 -1 -3 12 16 7 10 8 -6 11 -7 -10 13 -4 15 -5 17 -2 -19 -14 -21 -22 -16 24 -24 26 -25 -28 -8 -26
right_child=4 2 3 14 5 6 28 -9 9 -11 -12 -13 19 -15 22 -17 -18 18 -20 20 21 -23 23 25 29 -27 27 -29 -30 -31
leaf_value=-0.038162029476833809 -0.0057966691485871668 -0.015246582525882055 0.062297037185873552 0.018928272124801641 0.52522411821446457 0.49823939863510031 0.10438300711716993 0.029273559194397038 0.18390675216121619 0.34480957624702591 0.17043629683206238 -0.069000211260530978 0.029328588167762033 0.36881673191702047 -0.037984326984997353 0.2336531550455698 -0.039366896740109222 0.22014498496623452 0.025157702880895486 0.33302774870912843 0.34769456214983596 -0.02413197060744833 0.0099621882694360137 -0.018032922105563298 0.4299064975023596 -0.024719249429515779 0.35153656510773668 0.079846093862959044 0.19429164154898537 0.13852275234873698
leaf_weight=343.34113778918982 4.7563264146447244 170.78545362502337 4.5870013274252406 101.62939480319619 1.0097782984375943 1.9351934976875775 9.1848568171262759 9.1348029077053052 1.9776705019176004 1.4497537761926649 1.2520346753299234 2.2425570525228977 87.616655081510544 1.6000696346163747 42.51630125194788 1.9800280183553685 3.3550178855657569 8.9871577285230142 6.3562071099877349 1.9900144450366486 0.96077527850866307 4.4276398830115795 2.547757312655448 3.9526033885776988 1.002892676740885 27.322060808539391 1.4278078712522986 1.3463722467422483 19.966193236410618 1.4486787952482698
leaf_count=9011 103 4309 117 2447 21 31 160 171 42 29 24 46 1981 38 1060 38 65 173 120 42 23 85 64 96 24 662 34 32 275 36
internal_value=0 -0.012592 0.0066127 0.0196498 0.132681 0.156215 0.186021 0.0952683 0.185518 0.12502 0.369469 0.0495163 0.0428485 0.141568 0.00697362 0.0230318 0.0843642 0.105017 0.139369 0.0364188 0.120614 0.0421661 -0.0134247 0.0133163 0.131459 -0.00403034 0.0800014 0.219679 0.165963 0.257722
internal_weight=0 800.483 457.142 286.356 71.6075 48.1528 32.3383 15.8146 6.67976 5.66998 3.18723 4.22023 101.182 6.18707 185.174 103.609 23.4547 20.0997 15.3434 94.9951 7.37843 5.38842 81.5645 39.0482 4.99933 34.0488 6.72678 2.77418 29.1511 2.45157
internal_count=21359 20099 11088 6779 1260 799 490 309 138 117 55 88 2286 155 4493 2485 461 396 293 2131 150 108 2008 948 124 824 162 66 435 60
is_linear=0
shrinkage=0.1


Tree=6
num_leaves=31
num_cat=0
split_feature=1 2 2 0 2 3 0 3 2 1 0 3 2 1 2 1 0 0 3 3 2 3 1 3 3 1 3 2 2 2
split_gain=70.5145 25.835 23.4503 20.0573 13.3429 9.64541 7.441 8.95171 8.15351 6.60528 6.04858 6.15341 5.03326 8.42403 4.90316 4.88075 6.42083 4.64435 4.57536 7.04077 5.03514 4.43626 4.40649 5.83863 5.469 4.91205 4.22409 4.06004 5.32362 3.98264
threshold=0.099950168281793567 0.27294190227985388 0.57044738531112682 24.500000000000004 0.80612754821777355 0.014407302252948251 30.500000000000004 0.037859719246625852 0.58645358681678783 0.010019527282565751 24.500000000000004 0.076474957168102251 0.49001733958721166 0.13921177387237546 0.74993959069252025 0.10094477981328961 30.500000000000004 24.500000000000004 0.085302878171205507 0.10375664383172986 0.29409924149513245 0.069137323647737517 0.078768346458673463 0.07448218390345572 0.08809237554669376 0.095899194478988606 0.071551427245140062 0.55040478706359874 0.38833817839622503 0.62158828973770153
decision_type=2 2 2 2 2 2 2 2 2 2 2 2 2 2 2 2 2 2 2 2 2 2 2 2 2 2 2 2 2 2
left_child=1 9 10 22 -4 -5 14 -8 18 -1 12 15 -2 -14 -7 -12 21 -11 20 -20 -9 -17 23 27 -25 29 -23 28 -3 -24
right_child=2 3 4 5 -6 6 7 8 -10 17 11 -13 13 -15 -16 16 -18 -19 19 -21 -22 26 25 24 -26 -27 -28 -29 -30 -31
leaf_value=-0.054380109152470893 0.026043831487810917 0.017267991141876934 0.071517876453510307 -0.062886278405223595 -0.0022778381525166355 -0.0072419639473667811 -0.006838873148830641 0.18827651673190413 -0.023946119607157118 0.0082163391101711062 0.20885895226559315 -0.0014457159942977246 0.20426758642125634 0.0387545909358082 -0.059477226389535211 -0.017618849694767239 0.18301584592522588 -0.027813525902304511 0.28767825072698255 0.028724767951900126 0.04707275804386335 0.16002832030370454 -0.029381467357284238 0.18318175168420991 0.061259967600870484 0.10491734932486561 0.025706804953066917 -0.036417444986924195 0.094769945057856894 0.096192980705274919
leaf_weight=89.474981904029846 44.330971129238605 18.138569161295891 160.98568814992905 28.821424156427383 28.899698227643967 482.11808417737484 67.502118222415447 2.7006886377930632 12.81105215847492 39.372142776846886 1.7866862714290643 171.14451399445534 4.678964488208293 8.9707843214273435 18.665760189294815 13.095577806234365 2.7416846007108679 391.77348960191011 2.2271314263343802 1.9864885881543157 38.893385909497738 3.4619835391640645 16.7785651087761 6.6508627235889426 8.2340556010603887 4.5358254835009566 7.2318952232599258 5.6095573976635924 17.331864237785339 2.9731599614024153
leaf_count=1307 528 216 1389 445 326 6249 868 32 158 510 21 2023 37 80 261 151 26 5494 24 20 441 40 193 63 79 49 83 57 160 29
internal_value=0 -0.0126064 0.0336267 -0.000546742 0.0602865 -0.006322 -0.0037215 0.0179878 0.0465769 -0.0296545 0.013963 0.00569885 0.0423929 0.0954904 -0.00918893 0.0488785 0.0381049 -0.0245233 0.0663001 0.165596 0.0562411 0.0214042 0.0466417 0.0620783 0.115737 0.0110717 0.0691914 0.0426356 0.0551377 -0.0104792
internal_weight=0 1256.6 447.328 735.979 189.885 655.726 626.905 126.121 58.6187 520.621 257.443 199.462 57.9807 13.6497 500.784 28.3178 26.5311 431.146 45.8077 4.21362 41.5941 23.7895 80.2525 55.9649 14.8849 24.2876 10.6939 41.08 35.4704 19.7517
internal_count=21359 16655 4704 9344 1715 8498 8053 1543 675 7311 2989 2344 645 117 6510 321 300 6004 517 44 473 274 846 575 142 271 123 433 376 222
is_linear=0
shrinkage=0.1


Tree=7
num_leaves=31
num_cat=0
split_feature=1 2 2 0 1 2 3 0 0 0 0 1 2 1 3 2 2 2 2 0 3 3 2 2 0 2 1 1 1 3
split_gain=145.523 40.0342 33.9961 19.6219 19.386 14.1277 12.2076 11.7251 17.8073 10.96 8.92735 8.07545 7.87622 9.15682 7.59509 7.27015 6.9063 8.27717 7.07624 6.6646 5.86262 5.74715 7.32065 5.20121 5.03315 4.99486 5.98896 4.919 4.68135 6.88673
threshold=0.094249889254569966 0.40923205018043524 0.27294190227985388 26.500000000000004 0.24919664859771729 0.82321602106094371 0.014407302252948251 28.500000000000004 27.500000000000004 30.500000000000004 26.500000000000004 0.010019527282565751 0.52583307027816784 0.11922719329595562 0.070089839398860918 0.72942581772804271 0.37691469490528112 0.76765218377113353 0.62158828973770153 30.500000000000004 0.19926228374242783 0.066776569932699162 0.70160871744155895 0.63772889971733104 24.500000000000004 0.51554358005523693 0.12376701086759566 0.11922719329595562 0.068650957196950871 0.074994493275880814
decision_type=2 2 2 2 2 2 2 2 2 2 2 2 2 2 2 2 2 2 2 2 2 2 2 2 2 2 2 2 2 2
left_child=2 19 11 16 5 7 -5 8 10 -9 12 -1 25 -14 -11 -8 28 18 -18 -2 -15 -20 23 -23 -13 26 -3 -16 29 -4
right_child=1 4 3 6 -6 -7 15 9 -10 14 -12 24 13 20 27 -17 17 -19 21 -21 -22 22 -24 -25 -26 -27 -28 -29 -30 -31
leaf_value=0.054965872010349449 -0.00035077648704854415 -0.090995815068924402 -0.0087236508571281179 0.064375003793588209 -0.096036387593378292 0.030802242952040194 0.0066636658600847318 -0.0030675960519243885 -0.17032721738535397 -0.18803304183679781 -0.028143801324760728 -0.0015586560580201463 -0.032737529452030061 -0.11322114389013974 -0.11775998132737774 0.056106860094659899 -0.033556626627449439 0.061116989063696218 -0.018651939628216509 -0.10663754877509801 -0.051350506287771713 -0.20234575091419771 -0.27239838172123454 -0.036322055513196484 0.030385303088428135 0.055855786257208134 -0.021424877333326327 -0.0021102450899147568 0.021299932586638776 -0.12168086771426352
leaf_weight=130.52211710810661 228.00719676911831 19.323682986199856 42.994205489754677 41.710300892591476 87.531697124242783 23.698467113077641 702.09746381640434 80.649039037525654 13.767633557319639 5.2973226755857494 90.078911058604717 54.053785361349583 27.93264452368021 65.279483422636986 6.1899684593081465 31.05466566234827 105.14923337846994 8.1075046285986883 5.4570917636156109 6.0562100261449805 20.009636268019676 2.8908746466040594 3.1773195266723624 5.4337628930807114 563.75732151418924 5.2377665713429442 34.402884885668755 9.0620377212762815 46.726935692131519 6.1722579747438422
leaf_count=1307 1952 139 379 436 479 204 6250 626 84 33 685 493 198 357 39 293 815 67 47 42 107 21 25 41 5427 36 250 61 412 54
internal_value=0 -0.0371055 0.0162422 0.00418857 -0.0534 -0.0440915 0.0117518 -0.0487965 -0.0594713 -0.0196794 -0.0536519 0.0323652 -0.0669965 -0.0824309 -0.0848751 0.00875797 -0.0217301 -0.0367279 -0.0432244 -0.00310086 -0.0987057 -0.103166 -0.143264 -0.0939767 0.0275904 -0.0373597 -0.0464473 -0.0490462 -0.00136434 -0.0229041
internal_weight=0 722.525 1749.3 1000.97 488.461 400.929 774.862 377.231 276.033 101.198 262.265 748.333 172.186 113.222 20.5493 733.152 226.109 130.216 122.108 234.063 85.2891 16.959 11.502 8.32464 617.811 58.9643 53.7266 15.252 95.8934 49.1665
internal_count=21359 5292 16067 8840 3298 2819 6979 2615 1856 759 1772 7227 1087 662 133 6543 1861 1016 949 1994 464 134 87 62 5920 425 389 100 845 433
is_linear=0
shrinkage=0.1


Tree=8
num_leaves=31
num_cat=0
split_feature=1 1 3 0 2 2 3 2 3 1 2 2 0 2 0 3 2 2 0 3 2 3 2 1 1 3 3 3 2 3
split_gain=93.0592 28.3905 12.2821 12.9347 7.33437 9.13562 9.53783 6.63465 10.5638 6.55002 6.42678 5.36404 5.25246 7.84283 5.93913 7.78344 5.7798 4.95333 4.88774 5.20223 4.81237 4.68112 4.66485 4.53722 4.00362 6.93829 4.25728 7.72754 3.83684 3.68729
threshold=0.14902338385581967 0.051227489486336659 0.17221329361200333 30.500000000000004 0.32493358850479126 0.71047726273536693 0.024883951060473853 0.69277203083038341 0.19031116366386411 0.45163279771804815 0.43700999021530157 0.56672519445419323 28.500000000000004 0.70160871744155895 30.500000000000004 0.14392251521348953 0.35878314077854162 0.33556991815567022 27.500000000000004 0.088759947568178163 0.53471446037292492 0.1157762482762336 0.67733976244926464 0.062202354893088306 0.17302039265632627 0.11286754906177517 0.13261230289936068 0.15304370224475863 0.6640804409980775 0.10672289133071897
decision_type=2 2 2 2 2 2 2 2 2 2 2 2 2 2 2 2 2 2 2 2 2 2 2 2 2 2 2 2 2 2
left_child=1 -1 10 7 -3 6 -6 22 -9 -10 29 20 13 18 17 16 -16 -14 -8 23 24 -13 -4 -20 -12 -26 -27 -28 -18 -2
right_child=2 4 3 -5 5 -7 12 8 9 -11 11 21 14 -15 15 -17 28 -19 19 -21 -22 -23 -24 -25 25 26 27 -29 -30 -31
leaf_value=-0.036165575187701408 0.10228999030424453 -0.013679960308726048 0.082448386269081492 0.40234745328047378 0.32427734727777824 -0.047078629404717409 0.022831840799180325 0.30065391896493887 0.092102778262705728 0.21322277470031939 0.0082812703072839538 -0.028146883315780032 0.085469210939855433 0.29442501710548336 0.19883185788200106 0.31321473890085672 -0.0011030872303215964 -0.022517061827267374 0.23366379554032302 0.23090859870822872 0.24147250429127115 0.069534740275637608 -0.070483074062149056 -0.0096639814992285494 0.35706099457727458 -0.069812531558314711 0.27277059649932728 -0.012900980898316379 0.18671979372161987 -0.035108245614120119
leaf_weight=323.1994163878262 2.3383087366819373 164.24495306238532 32.176909256726503 1.4800011999905098 1.017522495239972 23.054010365158319 149.47244924679399 3.4870158433914211 22.522683013230566 5.568864118307828 3.8750677406787855 7.2690608054399517 4.5441389232873908 1.1008678562939156 1.8644722998142302 1.0437938831746567 14.752475537359713 65.128721114248037 0.99228188768029113 2.3281062617897987 2.5663054399192324 15.091117262840269 2.1263527125120154 3.365054152905941 1.1712245456874368 1.2904936522245405 2.0428184792399411 1.7650660052895544 1.174184314906596 11.859100390225647
leaf_count=9011 53 4263 516 22 23 545 3378 42 269 48 78 133 112 24 37 18 326 1612 24 41 38 259 29 70 18 20 31 30 27 262
internal_value=0 -0.0137263 0.0822312 0.109984 0.00298103 0.0131222 0.0187461 0.103416 0.136491 0.116114 0.0442864 0.0672659 0.0174811 0.0284485 -0.00200553 0.0478164 0.0322457 -0.0154741 0.0265734 0.110228 0.119136 0.0377795 0.0729686 0.0457483 0.0881888 0.137577 0.0871566 0.140353 0.0127441 -0.0124788
internal_weight=0 757.282 116.63 67.3618 434.083 269.838 246.784 65.8818 31.5786 28.0915 49.2686 35.0712 245.767 157.259 88.5078 18.8349 17.7911 69.6729 156.158 6.68544 12.711 22.3602 34.3033 4.35734 10.1447 6.2696 5.09838 3.80788 15.9267 14.1974
internal_count=21359 19511 1848 926 10500 6237 5692 904 359 317 922 607 5669 3537 2132 408 390 1724 3513 135 215 392 545 94 177 99 81 61 353 315
is_linear=0
shrinkage=0.1


Tree=9
num_leaves=31
num_cat=0
split_feature=1 2 0 2 2 3 0 3 2 2 0 2 2 1 2 2 1 1 3 1 3 1 0 1 1 1 3 3 2 1
split_gain=50.5424 21.4368 17.9009 15.5188 7.77815 7.02966 5.31876 9.79708 5.83608 4.30001 4.0275 3.93923 4.59304 6.17051 3.93229 3.84039 3.96009 3.73454 4.04623 3.71568 3.66076 3.49464 3.41925 3.31374 3.84574 3.32897 3.18889 7.97733 3.11961 7.77863
threshold=0.099950168281793567 0.21328684687614438 24.500000000000004 0.4710421115159989 0.87578400969505321 0.012553284410387203 30.500000000000004 0.037859719246625852 0.58645358681678783 0.62158828973770153 24.500000000000004 0.22322621196508408 0.3695750385522843 0.027013944461941702 0.74993959069252025 0.49267858266830444 0.13520035892724994 0.14136020839214328 0.061523066833615254 0.0104854102246463 0.077058855444192872 0.061724560335278456 27.500000000000004 0.13520035892724994 0.10859464108943936 0.10375961661338802 0.030201184563338705 0.021689206361770606 0.43434777855873113 0.081416308879852253
decision_type=2 2 2 2 2 2 2 2 2 2 2 2 2 2 2 2 2 2 2 2 2 2 2 2 2 2 2 2 2 2
left_child=1 19 11 20 9 -4 14 21 28 10 -5 -3 13 26 -7 16 22 18 -17 -1 23 -8 -12 24 25 -2 27 -13 -9 -30
right_child=3 2 5 4 -6 6 7 8 -10 -11 15 12 -14 -15 -16 17 -18 -19 -20 -21 -22 -23 -24 -25 -26 -27 -28 -29 29 -31
leaf_value=-0.054277432649758497 0.056124229126159997 0.17263022171126571 -0.054263956732452892 0.063735752200133652 -0.042613543298818848 -0.0096392539933776167 -0.015193503449961263 0.032602751898390313 -0.022074471166868045 0.056232576996976251 0.16670180869879669 0.021197554717456879 0.050887497741609 -0.0084538460424856809 -0.058190454261507346 0.094385090694437318 0.011127461285201782 0.035939882834992741 -0.016262207429479907 -0.028483265712884849 -0.0010281845381540119 0.094048133434608772 0.01756834023527706 -0.071667734464947022 0.086240914264008747 -0.052307737878663191 -0.011867748288613339 0.30285311349686045 0.059695899176374835 0.23452256703873881
leaf_weight=77.825610436499119 6.2702680155634933 2.0569305419921866 32.738881230354309 29.018967278301716 10.507381446659563 647.04166902601719 87.041591517627239 28.84586925059557 12.354381576180456 153.23084597289562 5.0111974403262121 2.1719628870487204 58.159231543540955 35.276986323297024 17.123372808098793 3.6049458831548682 6.0158430710434914 37.853057578206062 39.719095326960087 197.74612884223461 159.01095295697451 3.030323587357997 2.2177622318267822 2.4747391939163199 13.308011494576929 5.1625118926167488 1.6928565949201582 1.8725586906075475 19.839991495013241 2.9195033609867087
leaf_count=1249 69 27 553 221 126 8666 1178 317 158 1200 44 26 517 429 262 37 59 359 420 2954 1924 36 20 26 143 56 20 22 218 23
internal_value=0 -0.0112058 -0.00409711 0.027256 0.0418359 -0.00882632 -0.00700821 0.00973386 0.0396624 0.0450431 0.0311533 0.0356562 0.0328153 0.00718855 -0.010891 0.0211397 0.0710678 0.0129934 -0.00705537 -0.0357679 0.00477224 -0.0115182 0.120949 0.0386621 0.0496981 0.00716139 0.103368 0.1516 0.0544422 0.082122
internal_weight=0 1227.74 952.166 473.406 287.179 850.936 818.197 154.032 63.9597 276.672 123.441 101.231 99.1736 41.0144 664.165 94.4219 13.2448 81.1771 43.324 275.572 186.226 90.0719 7.22896 27.2155 24.7408 11.4328 5.73738 4.04452 51.6054 22.7595
internal_count=21359 16655 12452 4704 2486 11411 10858 1930 716 2360 1160 1041 1014 497 8928 939 123 816 457 4203 2218 1214 64 294 268 125 68 48 558 241
is_linear=0
shrinkage=0.1


Tree=10
num_leaves=31
num_cat=0
split_feature=1 2 2 3 1 0 2 2 0 0 0 2 2 1 2 0 3 1 2 2 1 3 2 1 3 3 3 3 1 3
split_gain=106.762 28.8255 27.1622 12.9353 12.218 10.8203 10.5423 9.47405 8.61675 11.5571 7.62276 6.30588 6.31862 6.18286 6.11351 6.09777 5.69792 5.13156 5.89359 5.06562 6.1817 4.59341 4.28547 4.48375 4.20437 4.08804 4.01785 3.89295 5.19805 3.83749
threshold=0.094249889254569966 0.24625430256128314 0.40923205018043524 0.014407302252948251 0.24919664859771729 26.500000000000004 0.82321602106094371 0.32693709433078771 28.500000000000004 27.500000000000004 30.500000000000004 0.76765218377113353 0.62158828973770153 0.0049429570790379502 0.72942581772804271 26.500000000000004 0.082924984395503956 0.15444224327802658 0.29250799119472509 0.52583307027816784 0.11922719329595562 0.070089839398860918 0.51554358005523693 0.13321318477392194 0.13261230289936068 0.19926228374242783 0.076474957168102251 0.10672289133071897 0.15444224327802658 0.079931274056434617
decision_type=2 2 2 2 2 2 2 2 2 2 2 2 2 2 2 2 2 2 2 2 2 2 2 2 2 2 2 2 2 2
left_child=1 13 16 -3 6 7 8 29 9 15 -10 12 -9 -1 -7 19 -2 -18 -19 22 26 -12 23 24 -4 -22 -21 -23 -29 -5
right_child=2 3 4 5 -6 14 -8 11 10 -11 21 -13 -14 -15 -16 -17 17 18 -20 20 25 27 -24 -25 -26 -27 -28 28 -30 -31
leaf_value=0.067103286481948674 -0.028971330637479954 0.055179749364362887 -0.051061374722484058 0.023468985143559901 -0.074905495317877061 0.0070863824181342863 0.029784330902384221 -0.025726475582651249 -0.00084609918379970755 -0.13029873656552299 -0.13745586614422417 0.060077230458458836 -0.087988898103157687 0.029814488355872651 0.054180228502106409 -0.022805443570431384 0.015159241816700142 -0.13828992632337778 -0.012365928917767178 -0.1083318391086306 -0.089213989307810646 0.019056074633055319 0.055943906610544096 -0.011882046664314777 -0.15930919386922995 -0.039813344683209934 -0.0093275267828095525 -0.13473419158079411 0.018175422937004446 -0.025069852888252437
leaf_weight=48.619978010654449 59.671037457883358 49.947737164795399 22.934882469475273 67.293120890855789 98.080516323447227 798.05847178399563 23.201327003538609 143.33473812043667 82.7273870408535 16.226218789815903 6.4566985666751888 7.6550802662968627 18.390643924474716 520.51430463045835 28.551472224295139 94.54545945674181 142.21069208532572 4.2378495186567298 30.226221606135368 4.9120812937617329 73.642600819468498 6.9412297904491451 5.2330310940742484 29.898084133863449 4.2535405606031409 21.683687821030617 24.765812955796719 6.1233163028955442 3.4904069900512695 21.489465832710266
leaf_count=542 496 564 155 608 479 7236 204 1105 626 84 33 67 130 5331 293 685 1230 32 236 34 357 42 36 206 28 107 164 35 23 191
internal_value=0 0.0146342 -0.0304064 0.00542263 -0.0430772 0.00313159 -0.035767 -0.0147396 -0.0395331 -0.0482329 -0.0150069 -0.0286088 -0.0328067 0.033 0.00871302 -0.0435087 -0.0022542 0.00676938 -0.0278501 -0.0539579 -0.0655689 -0.0659153 -0.0306679 -0.0386075 -0.0679964 -0.0779769 -0.025714 -0.0380133 -0.0792181 0.0117204
internal_weight=0 1703.86 761.462 1134.72 525.116 1084.77 427.036 258.163 403.834 298.095 105.739 169.38 161.725 569.134 826.61 281.869 236.346 176.675 34.4641 187.324 125.004 23.0117 62.3195 57.0865 27.1884 95.3263 29.6779 16.555 9.61372 88.7826
internal_count=21359 16067 5292 10194 3298 9630 2819 2101 2615 1856 759 1302 1235 5873 7529 1772 1994 1498 268 1087 662 133 425 389 183 464 198 100 58 799
is_linear=0
shrinkage=0.1


Tree=11
num_leaves=31
num_cat=0
split_feature=1 1 3 0 2 2 3 3 1 0 1 1 2 2 3 1 0 0 2 0 3 2 2 0 0 2 3 2 3 2
split_gain=66.6275 24.259 7.64973 5.82224 5.55614 7.07723 4.96617 4.92515 5.46814 6.22217 7.94508 16.9314 4.38597 3.9182 5.35358 3.93121 3.74341 7.47509 5.34135 4.3288 4.867 3.67934 3.6548 3.56812 4.74236 4.12935 3.56158 4.26047 3.53014 3.51941
threshold=0.14902338385581967 0.051227489486336659 0.17221329361200333 30.500000000000004 0.28432257473468786 0.71047726273536693 0.023975142277777153 0.04411940090358251 0.078104689717292758 28.500000000000004 0.054926849901676109 0.052946880459785454 0.43700999021530157 0.69277203083038341 0.19031116366386411 0.21120256185531613 28.500000000000004 27.500000000000004 0.70160871744155895 30.500000000000004 0.11433241516351696 0.67733976244926464 0.56672519445419323 28.500000000000004 27.500000000000004 0.22624300420284268 0.12701572477817538 0.53471446037292492 0.1157762482762336 0.49898178875446325
decision_type=2 2 2 2 2 2 2 2 2 2 2 2 2 2 2 2 2 2 2 2 2 2 2 2 2 2 2 2 2 2
left_child=1 23 12 13 7 6 -6 8 9 -3 11 -11 -2 21 -15 -16 17 18 -8 29 -21 -4 26 24 25 -1 27 -14 -24 -18
right_child=2 4 3 -5 5 -7 16 -9 -10 10 -12 -13 22 14 15 -17 19 -19 -20 20 -22 -23 28 -25 -26 -27 -28 -29 -30 -31
leaf_value=-0.048052469375702074 -0.012251422097577057 -0.051308294554394507 0.065047699321781768 0.24492903860621407 0.19253160830986613 -0.046031384993944616 0.01413594657728099 -0.026155661097361216 0.28530371833728435 -0.068313026188084422 0.007135804607580805 0.48403530890507879 0.098624002901847252 0.20306544567512053 -0.00034039951314357214 0.10226349187008461 -0.00036286048177532857 0.10907454646275874 0.20730772263264657 0.019279104141264807 0.16695884467401637 -0.070497046036440289 -0.028841317982262766 -0.042151228628645121 0.053519157873382329 -0.0068972542271280527 0.052397436455322612 0.28785207651670058 0.054058826533221319 -0.044777782839669843
leaf_weight=44.647184778004885 14.140762794762848 5.8644491210579837 36.202528953552246 2.2028496116399756 1.5263015776872624 22.048115834593773 192.81589076295495 89.934156481176615 0.84797899797558862 0.98731410875916514 3.9730483554303646 1.2673224993050096 4.1496629491448394 4.6829255260527125 4.302018776535987 28.292489293962717 60.110607348382473 8.9433132074773294 1.4421140477061261 19.242164779454473 2.5243797302246085 2.1199187375605097 7.3761466965079334 199.3368104044348 8.2127265911549312 53.706964831799269 8.9595827795565111 1.6681402735412119 16.918506667017937 25.370669040828943
leaf_count=1346 315 162 516 22 27 545 4349 2422 22 28 109 36 66 42 67 250 1493 162 22 409 37 29 133 5919 243 1503 131 18 259 677
internal_value=0 -0.0126573 0.0646889 0.0846725 0.00246444 0.00872281 0.0125924 -0.0178559 0.0398273 0.0226129 0.0922226 0.24216 0.0354709 0.0800029 0.103086 0.0887212 0.0117078 0.0196853 0.01557 -0.0034072 0.0364063 0.0575496 0.0527423 -0.0342545 -0.0194835 -0.0255794 0.0919576 0.152881 0.0288894 -0.0135451
internal_weight=0 742.802 131.016 77.8027 436.898 334.024 311.975 102.874 12.9401 12.0921 6.22768 2.25464 53.2128 75.5999 37.2774 32.5945 310.449 203.201 194.258 107.248 21.7665 38.3224 39.072 305.904 106.567 98.3541 14.7774 5.8178 24.2947 85.4813
internal_count=21359 19511 1848 926 10500 7721 7176 2779 357 335 173 64 922 904 359 317 7149 4533 4371 2616 446 545 607 9011 3092 2849 215 84 392 2170
is_linear=0
shrinkage=0.1


Tree=12
num_leaves=31
num_cat=0
split_feature=2 0 1 1 2 2 0 3 0 0 3 2 0 3 3 3 2 0 0 2 2 2 3 1 1 2 2 3 1 1
split_gain=38.9203 15.7755 11.7957 10.2532 7.22755 10.4263 6.52861 5.80114 5.72934 5.82051 5.1306 4.59006 6.01589 4.6665 6.32401 4.46086 4.34146 3.89255 6.46055 8.81784 6.69531 4.02758 3.98697 3.89109 3.3399 3.31067 3.45129 5.65091 6.20438 5.30772
threshold=0.33751556277275091 24.500000000000004 0.10859464108943936 0.010019527282565751 0.57044738531112682 0.85602253675460827 24.500000000000004 0.013089184183627303 30.500000000000004 37.000000000000007 0.084648881107568671 0.21328684687614438 27.500000000000004 0.069137323647737517 0.069562189280986772 0.12339734658598896 0.53471446037292492 28.500000000000004 27.500000000000004 0.55859246850013744 0.61665871739387523 0.49898178875446325 0.022091072052717153 0.13921177387237546 0.063542369753122316 0.37273499369621282 0.39357864856719976 0.079266648739576312 0.10859464108943936 0.13122626394033429
decision_type=2 2 2 2 2 2 2 2 2 2 2 2 2 2 2 2 2 2 2 2 2 2 2 2 2 2 2 2 2 2
left_child=3 25 7 -1 -4 -6 -5 -3 17 10 16 -8 13 -13 -15 -12 -10 18 21 24 -21 22 -9 -14 -20 -2 27 -27 -29 -30
right_child=1 2 4 6 5 -7 11 8 9 -11 15 12 23 14 -16 -17 -18 -19 19 20 -22 -23 -24 -25 -26 26 -28 28 29 -31
leaf_value=-0.051584348334351417 -0.0025821642798084313 -0.069169477338058269 0.0061264772203223931 0.015622940190802268 0.046947835492858275 -0.060656734167836138 -0.030715319850689673 0.12193273544382162 0.034767991032280947 -0.051417438087735023 0.13585594632572581 -0.03705675952348389 -0.0015101506484585699 0.19650044599968541 -0.010608072018686344 -0.02705657239885835 -0.014059616471364087 -0.017851049145255371 -0.033075400208463751 0.32286287599529434 0.051279634443141944 -0.019151116990350173 0.007211175625331758 0.10673808348987222 0.083485930523223395 -4.2019533607405189e-05 0.039145920294953465 0.26996710804867585 -0.070643059817223686 0.14805789132881803
leaf_weight=78.478011026978493 17.548250399529934 12.75352558121085 123.5717650949955 69.537673085927963 128.54026842862368 9.6830324754118902 169.21083520725369 3.1201798580586901 59.44287333637476 10.366386689245699 7.1813002452254278 114.75768821686506 221.13670173659921 1.496724136173724 98.564874328672886 2.1943643689155579 26.251808188855648 169.35920791327953 5.3717270791530591 2.0341909974813457 1.639255955815315 79.520389344543219 104.09030367434025 3.3713276460766783 4.5323686376214027 4.1268731057643873 160.93006028234959 2.6243401989340782 1.5936039388179777 3.6545235812664032
leaf_count=1379 208 244 1344 880 988 121 2699 42 695 133 67 1623 3090 19 1299 21 322 2267 73 27 22 1006 1331 38 55 37 1242 23 20 44
internal_value=0 0.0131054 0.0065758 -0.0173647 0.0236995 0.0394098 -0.0134043 -0.00261313 -0.000826513 0.0197356 0.0274941 -0.0167212 -0.0113312 -0.0232941 -0.00751014 0.0977264 0.0198101 -0.00669124 0.00274429 0.0693456 0.20167 -0.00209841 0.01055 0.00011536 0.0202661 0.0388038 0.0430035 0.0947399 0.144426 0.0816489
internal_weight=0 940.131 749.653 756.554 261.795 138.223 678.076 487.858 475.104 105.437 95.0703 608.538 439.327 214.819 100.062 9.37566 85.6947 369.668 200.308 13.5775 3.67345 186.731 107.21 224.508 9.9041 190.478 172.929 11.9993 7.87247 5.24813
internal_count=21359 10332 8758 11027 2453 1109 9648 6305 6061 1238 1105 8768 6069 2941 1318 88 1017 4823 2556 177 49 2379 1373 3128 128 1574 1366 124 87 64
is_linear=0
shrinkage=0.1


Tree=13
num_leaves=31
num_cat=0
split_feature=1 2 2 0 3 0 2 2 3 2 3 1 1 0 1 2 2 2 0 0 0 0 2 3 1 3 3 1 1 3
split_gain=79.451 24.5975 19.0195 12.1797 8.27617 7.93109 6.88986 6.15573 5.34628 5.49731 4.57267 4.4817 4.37303 4.93695 4.33101 4.43016 4.28542 4.1563 4.05209 3.89164 5.87523 10.0587 9.17335 6.79916 7.07681 5.98212 5.52315 6.48821 4.82194 4.66954
threshold=0.094249889254569966 0.20053305476903918 0.40923205018043524 24.500000000000004 0.014407302252948251 26.500000000000004 0.28008438646793371 0.75875896215438854 0.24745351076126096 0.83741226792335521 0.082924984395503956 0.078104689717292758 0.16142622381448743 30.500000000000004 0.15444224327802658 0.36097620427608496 0.62158828973770153 0.48675651848316198 37.000000000000007 30.500000000000004 28.500000000000004 27.500000000000004 0.56255647540092479 0.018533041700720704 0.051227489486336659 0.059752015396952608 0.037859719246625852 0.063542369753122316 0.018445323221385406 0.042089084163308109
decision_type=2 2 2 2 2 2 2 2 2 2 2 2 2 2 2 2 2 2 2 2 2 2 2 2 2 2 2 2 2 2
left_child=1 -1 10 11 -5 8 -6 18 9 16 -2 -3 13 -7 -12 -16 -4 -15 19 20 21 -8 25 28 -25 -23 27 -21 -22 -28
right_child=2 3 5 4 6 12 7 -9 -10 -11 14 -13 -14 17 15 -17 -18 -19 -20 26 23 22 -24 24 -26 -27 29 -29 -30 -31
leaf_value=0.037882512220453322 -0.025065975207415214 -0.031612054893894348 -0.031690927264846819 0.044908312430310245 0.020511718129524369 -0.0072837736425584478 -0.0001166197586071308 0.054054902848858916 -0.079280770315700202 0.055622932717112605 0.014420347118810996 0.010737478000942789 -0.038526560598628079 -0.12265137503203799 -0.057647416968288082 0.013219640373060068 -0.060547664828370984 -0.028627756745651475 0.049524815287040773 0.010925269010671618 -0.21603756171690672 -0.0041222363534914284 -0.22052040656362049 0.037831968047525359 0.0049115391645421511 -0.1242372996245301 -0.0878655610777581 -0.14643872510786812 -0.020863905658204961 -0.021667849881781168
leaf_weight=323.813251927495 61.839712060987949 102.31248664110899 118.6671649068594 65.589862570166588 331.63412164151669 148.40009302645922 309.08985095471144 23.288971774280071 45.573407739400864 5.6653718128800383 140.59602826833725 33.064502865076065 123.53092132508755 6.8659867793321636 18.967096105217934 16.490844339132309 90.873162537813187 14.913346387445925 17.456023074686527 71.83520445972681 2.0825126767158499 13.012306906282907 3.4070210605859748 102.24210478365421 180.71835026890039 6.0853522419929496 13.019390337169169 2.7192574441432944 3.2278946489095688 58.697078116238117
leaf_count=3611 496 744 717 794 3358 1127 2738 261 192 48 1230 250 678 33 142 126 421 82 160 680 20 115 29 984 1650 52 106 20 31 464
internal_value=0 0.0131492 -0.0253262 0.00717008 0.0103674 -0.0354741 0.00837752 0.00339028 -0.0481664 -0.0415775 -0.00167314 -0.0212686 -0.0242048 -0.0138088 0.00654369 -0.0246884 -0.0442055 -0.0582689 0.00188449 0.000799029 0.00426116 -0.00481622 -0.0693627 0.0147028 0.0168067 -0.0423962 -0.0138728 0.00518566 -0.0974026 -0.0336854
internal_weight=0 1663.3 792.383 1339.48 1204.11 554.489 1138.52 806.881 260.779 215.206 237.894 135.377 293.71 170.179 176.054 35.4579 209.54 21.7793 783.592 766.136 619.865 331.595 22.5047 288.271 282.96 19.0977 146.271 74.5545 5.31041 71.7165
internal_count=21359 16067 5292 12456 11462 3298 10668 7310 1378 1186 1994 994 1920 1242 1498 268 1138 115 7049 6889 5619 2934 196 2685 2634 167 1270 700 51 570
is_linear=0
shrinkage=0.1


Tree=14
num_leaves=31
num_cat=0
split_feature=1 1 3 2 2 3 2 3 3 1 2 0 1 1 2 1 1 3 0 2 0 1 3 3 1 2 0 0 0 2
split_gain=49.1763 20.6908 5.15861 4.83813 6.62522 5.65432 5.28544 5.63177 13.7656 4.13065 5.54501 4.04683 3.80512 3.66274 4.54306 4.42904 3.62555 8.27734 7.21741 4.52185 9.76757 7.68909 3.89802 11.6524 8.75767 7.09948 10.732 3.40774 4.2073 3.7722
threshold=0.14902338385581967 0.051227489486336659 0.17221329361200333 0.71047726273536693 0.40923205018043524 0.024883951060473853 0.42674276232719427 0.10672289133071897 0.1157762482762336 0.16142622381448743 0.44459137320518499 28.500000000000004 0.12518639117479322 0.084585342556238105 0.70160871744155895 0.14136020839214328 0.086475796997547164 0.08070292696356772 30.500000000000004 0.29250799119472509 24.500000000000004 0.087893266230821568 0.057836404070258057 0.063741184771060902 0.099211093038320514 0.30463950335979467 26.500000000000004 28.500000000000004 27.500000000000004 0.22624300420284268
decision_type=2 2 2 2 2 2 2 2 2 2 2 2 2 2 2 2 2 2 2 2 2 2 2 2 2 2 2 2 2 2
left_child=1 27 -2 4 12 -6 7 -7 -9 10 -4 13 16 14 -8 -15 -3 18 19 20 -18 -21 -23 24 -24 26 -25 28 29 -1
right_child=2 3 9 -5 5 6 11 8 -10 -11 -12 -13 -14 15 -16 -17 17 -19 -20 21 -22 22 23 25 -26 -27 -28 -29 -30 -31
leaf_value=-0.04639206039683727 0.028965157866641129 -0.011435588371087962 0.31408818026920832 -0.044811195354771557 0.22169358832663502 0.037147719115266209 -0.0054713801205710615 0.47680596766419303 0.063238257447769994 0.062838405671711187 0.077170018927700673 -0.010266089758207246 -0.05137342633891654 0.046402310802284297 0.20011693275597381 -0.050345960173410732 0.25643955595913587 -0.010719355670716229 0.27736758644681075 0.31079959844175431 -0.044945840146439292 -0.0686199861394136 0.4935686801779503 -0.068528551859035031 0.099167591320648618 -0.0081160570185063469 0.36866380157008966 -0.0403884882915213 0.049777226074001799 -0.0061358472794211926
leaf_weight=41.466887781396508 56.512514933943748 154.32446711137891 1.5577965676784504 20.978890193626285 1.3695596270263184 11.298618715256451 39.382844630628824 1.0987989977002133 3.0082281716167927 82.336206074804068 2.7002778835594654 53.027315005660057 17.344745665788651 58.640493672341108 1.1050180979073037 5.1470831595361224 1.2307427823543609 44.941376727074385 1.4344713166356076 1.318054955452683 8.5157824940979463 2.0673250108957282 1.0672844164073461 0.95031826198100988 1.1915754266083238 8.2587751634418947 1.3722761385142801 187.36589604616165 8.469247315078972 53.064292693510652
leaf_count=1346 922 4088 22 545 19 231 840 21 53 867 37 1310 417 1088 13 87 31 1122 17 33 227 50 26 24 28 196 34 5919 243 1503
internal_value=0 -0.0116458 0.0524674 0.00205029 0.00440167 0.0193056 0.0177007 0.0736007 0.173885 0.0678052 0.163845 0.012226 -0.00623056 0.023664 0.000139655 0.0385956 -0.00277627 0.0156948 0.0590087 0.0469485 -0.00688839 0.0792877 0.0588185 0.0793366 0.285517 0.0353221 0.189781 -0.0323563 -0.0177451 -0.0237946
internal_weight=0 729.44 143.107 439.074 418.095 174.078 172.708 15.4056 4.10703 86.5943 4.25807 157.303 244.017 104.275 40.4879 63.7876 226.672 72.348 27.4066 25.9721 9.74653 16.2256 14.9076 12.8402 2.25886 10.5814 2.32259 290.366 103 94.5312
internal_count=21359 19511 1848 10500 9955 3662 3643 305 74 926 59 3338 6293 2028 853 1175 5876 1788 666 649 258 391 358 308 54 254 58 9011 3092 2849
is_linear=0
shrinkage=0.1


Tree=15
num_leaves=31
num_cat=0
split_feature=2 0 3 1 2 2 1 0 3 0 1 2 2 3 2 2 1 1 2 3 0 1 2 2 3 1 3 3 3 1
split_gain=30.231 14.5915 9.63037 7.57754 6.81485 8.65516 5.96685 4.89314 4.14637 3.54845 3.31391 3.91954 3.14428 2.95762 2.87965 2.96957 4.72771 3.89139 2.66561 3.14015 3.71058 2.60818 2.58694 3.28334 3.99252 3.74748 9.86231 16.1104 3.54212 3.2449
threshold=0.27705913782119751 24.500000000000004 0.014407302252948251 0.10859464108943936 0.57044738531112682 0.85602253675460827 0.010019527282565751 30.500000000000004 0.037859719246625852 24.500000000000004 0.11077092587947841 0.47431962192058569 0.28584305942058569 0.063313215970992959 0.58645358681678783 0.43434777855873113 0.063542369753122316 0.08039660751819612 0.39607302844524389 0.043569961562752661 32.500000000000007 0.077089939266443266 0.46805638074874883 0.4015903919935227 0.022969389334321005 0.071803387254476506 0.068649757653474808 0.063741184771060902 0.058526510372757905 0.033615615218877758
decision_type=2 2 2 2 2 2 2 2 2 2 2 2 2 2 2 2 2 2 2 2 2 2 2 2 2 2 2 2 2 2
left_child=6 -2 -3 7 10 13 -1 22 12 -8 11 -5 -9 -6 15 16 18 -17 19 -10 -21 -16 23 -4 -25 -26 27 28 -27 -24
right_child=1 2 3 4 5 -7 9 8 14 -11 -12 -13 -14 -15 21 17 -18 -19 -20 20 -22 -23 29 24 25 26 -28 -29 -30 -31
leaf_value=-0.048826946531295767 0.030765015055358749 -0.064237499355290037 -0.0066332315027224122 0.099387212653238438 0.11238536258372366 -0.060174670987359062 0.010024463968407608 0.096905512218433409 0.14141028243464446 -0.020183691401741241 -0.00096659305269985942 -0.038001130992088683 -0.0081477578760141296 0.036229506206135638 -0.038673852781546503 0.045780725572264834 -0.039685530297910637 0.13636616669431065 -0.022557484856046525 -0.043487764500642852 0.083817283320907973 0.046519104681919082 -0.062749256860823069 0.11773851359453975 -0.005681718494405478 0.09471663877669384 0.0013269543415207734 0.37543234115744456 -0.070733666214807603 -0.01193628004831826
leaf_weight=68.782984413206577 228.55937988311052 21.030128810554743 247.90905927866697 7.0027547776699048 5.3058059588074675 9.3678554557263833 43.412710718810558 2.9886680468916884 4.2224803045392099 372.90279851481318 147.39703844487667 2.9518076106905937 60.992717064917088 131.21042847633362 9.4892800338566285 21.248692773282531 9.0577147379517537 6.1047427430748931 4.0838042274117461 3.552698612213133 6.4395254030823708 5.7840253040194503 13.526542350649832 3.7174986451864234 47.921649791300297 5.442664675414564 20.791914269328117 2.0170858353376389 1.697575010359287 177.26915297657251
leaf_count=1313 1898 432 3328 76 36 121 560 40 43 5878 1614 31 808 952 131 214 81 38 43 37 69 47 194 48 643 69 254 25 21 2315
internal_value=0 0.00801574 0.00270206 0.00417231 0.0172394 0.0328088 -0.0215417 -0.00188406 0.0151591 -0.0170336 0.0028048 0.0586477 -0.00324056 0.0391894 0.0319808 0.0426986 0.019402 0.0659976 0.0486502 0.0691078 0.0385544 -0.00641114 -0.0062723 -0.000906588 0.016494 0.0116607 0.0394102 0.125879 0.0553812 -0.0155387
internal_weight=0 1207.08 978.523 957.493 303.236 145.884 485.098 654.257 133.964 416.316 157.352 9.95456 63.9814 136.516 69.983 54.7097 27.3562 27.3534 18.2985 14.2147 9.99222 15.2733 520.293 329.497 81.5884 77.8709 29.9492 9.15733 7.14024 190.796
internal_count=21359 13608 11710 11278 2830 1109 7751 8448 1551 6438 1721 107 848 988 703 525 273 252 192 149 106 178 6897 4388 1060 1012 369 115 90 2509
is_linear=0
shrinkage=0.1


Tree=16
num_leaves=31
num_cat=0
split_feature=1 3 2 2 0 1 2 2 0 0 2 2 2 2 0 3 2 3 2 3 0 2 0 3 3 2 3 1 3 3
split_gain=59.4652 21.4929 13.827 12.7631 7.38862 5.96263 7.62251 5.34594 5.30055 7.39115 4.74374 5.00437 4.76612 4.3436 4.06208 3.8274 4.95651 4.32976 3.80254 3.76485 3.63973 3.46235 3.45137 4.01939 4.26914 3.43378 3.32355 3.31092 3.1905 3.25424
threshold=0.094249889254569966 0.014407302252948251 0.40923205018043524 0.28008438646793371 26.500000000000004 0.24919664859771729 0.87578400969505321 0.72942581772804271 28.500000000000004 27.500000000000004 0.32693709433078771 0.76765218377113353 0.62158828973770153 0.39357864856719976 30.500000000000004 0.082924984395503956 0.3200562447309494 0.12339734658598896 0.63272929191589367 0.070089839398860918 24.500000000000004 0.63272929191589367 26.500000000000004 0.061523066833615254 0.074994493275880814 0.33009624481201177 0.078670736402273109 0.010019527282565751 0.079931274056434617 0.087400548160076114
decision_type=2 2 2 2 2 2 2 2 2 2 2 2 2 2 2 2 2 2 2 2 2 2 2 2 2 2 2 2 2 2
left_child=1 27 13 20 10 6 8 -6 9 22 28 12 25 15 -10 16 26 -17 -11 -16 -3 -14 -4 -24 -25 -12 -2 -1 -5 -30
right_child=2 3 5 4 7 -7 -8 -9 14 18 11 -13 21 -15 19 17 -18 -19 -20 -21 -22 -23 23 24 -26 -27 -28 -29 29 -31
leaf_value=0.054049677557671677 0.010903585605591334 -0.0055529594258526141 -0.036432149638202287 0.026867247045670645 0.0038357724225466018 -0.050205583244636157 0.062186187463844328 0.050978010347195193 0.0018915910159084744 -0.12106247515507705 -0.14028348571848293 0.058996556873529074 -0.16573369000559265 0.041492436073280049 -0.1021734372174153 0.014808244215278245 -0.061781724442469814 -0.019774238518849182 -0.023515984389073943 -0.01897221694955932 0.022829464952528061 -0.053667790827361721 -0.11762598955515813 0.074878872851781866 -0.015480070068992165 -0.018317150289121339 -0.074421389175417602 0.028467452883437362 -0.096946112652095712 0.0057640270142397991
leaf_weight=109.19293263554573 28.725544437766075 50.066426992416382 215.15652225166559 37.265770979225636 656.52740352600813 113.07066635787487 9.9036331847310048 24.969775043427944 90.847451001405716 13.777694165706636 2.3447919189929953 7.1616253852844229 3.294051960110667 21.825044803321362 7.5607330203056362 103.63211780041456 24.242488093674183 55.641861893236637 5.628887563943862 19.376838050782681 463.18266654014587 16.907117411494255 3.6285768449306479 5.5343868732452384 94.680554181337357 148.33959013968706 5.4276599436998358 94.265811033546925 4.7068166285753241 8.9513272941112501
leaf_count=1411 229 469 1122 339 5989 479 95 293 670 62 20 67 20 176 33 916 183 444 26 105 5014 110 25 39 642 1085 46 1132 40 78
internal_value=0 0.0117949 -0.0212478 0.00745023 0.000341396 -0.029605 -0.0246075 0.00556304 -0.0264917 -0.0328511 -0.0152 -0.0228978 -0.0263299 -0.00103784 -0.00822075 -0.00530221 -0.0272018 0.00272696 -0.0927691 -0.0423248 0.0200608 -0.0719415 -0.0292059 -0.0142336 -0.01049 -0.0202151 -0.00265634 0.042197 0.0117139 -0.0296315
internal_weight=0 1627.18 818.661 1423.72 910.468 579.166 466.095 681.497 456.192 338.407 228.971 178.047 170.886 239.495 117.785 217.67 58.3957 159.274 19.4066 26.9376 513.249 20.2012 319 103.844 100.215 150.684 34.1532 203.459 50.9239 13.6581
internal_count=21359 16067 5292 13524 8041 3298 2819 6282 2724 1916 1759 1302 1235 1994 808 1818 458 1360 88 138 5483 130 1828 706 681 1105 275 2543 457 118
is_linear=0
shrinkage=0.1


Tree=17
num_leaves=31
num_cat=0
split_feature=1 3 1 2 2 2 3 0 2 0 0 2 2 3 2 3 2 2 1 0 3 1 2 2 1 3 0 3 1 2
split_gain=37.2954 12.8919 8.94217 5.87464 6.39616 4.3189 3.91604 3.83831 3.58884 3.26114 3.21477 7.33815 6.90359 5.57738 3.07785 6.20822 3.80877 3.0687 2.99801 2.97028 9.72892 4.05225 5.32434 18.6548 4.21545 2.83511 2.83403 4.69859 4.77802 4.09325
threshold=0.085242561995983068 0.17221329361200333 0.038910832256078713 0.33009624481201177 0.3449257910251618 0.72056508064270031 0.041756290942430462 30.500000000000004 0.82321602106094371 26.500000000000004 28.500000000000004 0.42364795506000519 0.42674276232719427 0.08070292696356772 0.5819157361984254 0.074994493275880814 0.51920074224472057 0.78974148631095897 0.060774374753236757 24.500000000000004 0.063313215970992959 0.092778526246547657 0.31856945157051092 0.29250799119472509 0.08936870843172072 0.11147811263799666 26.500000000000004 0.17803390324115748 0.15152409672737124 0.43188364803791052
decision_type=2 2 2 2 2 2 2 2 2 2 2 2 2 2 2 2 2 2 2 2 2 2 2 2 2 2 2 2 2 2
left_child=2 8 -1 25 6 9 -5 26 10 14 11 13 -13 19 16 18 -6 -14 -16 20 -2 22 23 -21 -25 -4 27 -3 -29 -30
right_child=1 7 3 4 5 -7 -8 -9 -10 -11 -12 12 17 -15 15 -17 -18 -19 -20 21 -22 -23 -24 24 -26 -27 -28 28 29 -31
leaf_value=-0.035240573086347309 0.314022466255449 0.16559480904652688 -0.023029380682848221 0.19149571847525237 0.038389989292078548 -0.068158381895951387 0.047415133630031893 0.14283987119730676 -0.068607572387343357 -0.00519251841260199 -0.0067871084551669944 0.24448635417675901 0.032168923838934806 -0.016606581064950065 0.32562111194533444 0.012497891591550238 -0.043400690800928989 0.16857721920058366 0.10298024591843324 -0.029974422374771249 0.0026813590355994647 -0.011817743900219974 -0.031100785881650023 0.51690811864180664 0.22880644583808427 0.15580872963697626 0.029308985728269173 -0.069591238389175303 0.16151591498835111 0.054502207363897506
leaf_weight=197.95009953156114 1.5656782984733606 4.1951344422996035 152.4644822254777 2.3073667827993622 21.425492193549875 8.8460512422025186 10.339941915124653 4.584030043333768 5.4733999874442807 100.99670540913939 60.962632544338703 1.5884895734488953 100.6611260548234 65.33394081518054 1.2626423500478261 3.6484384723007679 7.7539656199514857 1.6766681261360634 1.1608970463275907 2.6127123311162022 2.7961024604737759 12.299488537013529 2.6399187631905079 1.0241070203483107 1.0075090900063512 0.89162518456578155 41.315264636650681 2.8806013148277989 3.878578007221221 45.558604303747416
leaf_count=6575 31 42 4449 61 457 285 251 39 143 2612 1346 24 1616 1596 22 65 153 29 22 77 62 289 56 22 22 23 498 52 52 388
internal_value=0 0.0233601 -0.0186251 -0.00805275 0.00549664 -0.000448485 0.0737011 0.0534059 0.0115089 0.00394765 0.0132342 0.0195516 0.0376149 -0.00147508 0.0301346 0.0949098 0.0166554 0.0344038 0.218974 0.0398103 0.114438 0.0231888 0.0822976 0.146755 0.374034 -0.0219896 0.0492152 0.0637682 0.0556031 0.0628979
internal_weight=0 362.054 509.048 311.098 157.742 145.094 12.6473 102.412 259.642 136.248 254.168 193.206 103.926 89.2795 35.2514 6.07198 29.1795 102.338 2.42354 23.9455 4.36178 19.5837 7.28425 4.64433 2.03162 153.356 97.8282 56.5129 52.3178 49.4372
internal_count=21359 6384 14975 8400 3928 3616 312 1071 5313 3331 5170 3824 1669 2155 719 109 610 1645 44 559 93 466 177 121 44 4472 1032 534 492 440
is_linear=0
shrinkage=0.1


Tree=18
num_leaves=31
num_cat=0
split_feature=2 0 3 1 2 2 2 0 1 0 1 1 2 1 1 1 0 0 2 3 3 1 1 2 3 2 3 0 3 1
split_gain=23.2325 11.1029 8.43031 5.54325 5.5344 5.33797 7.27711 4.26627 3.89311 3.84753 3.14567 4.73189 3.9887 4.61356 4.84547 3.84433 4.67679 3.05229 4.19062 4.03632 5.6346 3.09568 3.17806 2.9539 2.94328 3.25088 3.06804 3.0368 2.71889 2.64198
threshold=0.27705913782119751 24.500000000000004 0.014407302252948251 0.10859464108943936 0.13013964146375653 0.57044738531112682 0.80612754821777355 30.500000000000004 0.17761015146970746 37.000000000000007 0.19057324528694147 0.23503608256578443 0.65229779481887828 0.14406903088092801 0.15152409672737124 0.17302039265632627 30.500000000000004 24.500000000000004 0.13769707828760147 0.029196672141551906 0.017528129741549454 0.034569511190056759 0.023563406430184803 0.55859246850013744 0.084648881107568671 0.68563032150268566 0.12339734658598896 32.500000000000007 0.033388137817382757 0.11077092587947841
decision_type=2 2 2 2 2 2 2 2 2 2 2 2 2 2 2 2 2 2 2 2 2 2 2 2 2 2 2 2 2 2
left_child=4 -2 -3 7 28 23 10 -4 17 24 12 -12 13 -7 -15 16 -14 18 -6 20 -20 22 -22 29 25 -9 27 -26 -1 -5
right_child=1 2 3 5 8 6 -8 9 -10 -11 11 -13 15 14 -16 -17 -18 -19 19 -21 21 -23 -24 -25 26 -27 -28 -29 -30 -31
leaf_value=-0.048396479529616981 0.026234936867590875 -0.063549320843887244 -0.005912436250298643 0.052928721932640782 0.16613993849078978 -0.0026755912341897919 -0.032360145866625098 0.018731024514734108 0.15802369900802149 -0.038669227021297853 -0.029890529316085303 0.036167427507742211 0.047060885603161184 0.17769538476623081 0.038987728278744367 0.1485224314552662 0.17358386513612445 -0.01801487421412842 -0.028342563360899006 -0.018884320262331711 0.092254179437230993 -0.0069631569722076988 0.25919633397920422 -0.072322769926126143 0.0036358874778331576 -0.054488972404716611 -0.031488712783712368 0.13315665436059235 0.040278548812813654 0.00064786229770125636
leaf_weight=72.103804860264063 237.80559136345983 19.146894991397858 517.41713719815016 10.361684635281561 1.6927437409758557 23.87589480727911 17.738369815051556 105.1839737445116 1.3020569756627072 12.570044375956057 15.446881823241709 36.389987207949162 34.696202591061592 3.169744409620761 12.257131285965441 5.3161704987287512 3.1901384294033042 352.52878795936704 4.7560897506773454 23.143883094191551 3.0611592158675194 1.5709166154265402 1.8172972649335859 5.2208067849278441 2.5479017049074155 6.4347058124840251 2.4195506423711768 6.2526659518480301 3.6318722069263449 143.95362333953381
leaf_count=1388 1898 432 6897 104 24 193 203 1192 12 170 106 220 228 23 85 32 19 5838 65 288 37 20 22 50 19 96 23 51 57 1567
internal_value=0 0.00684458 0.00215651 0.00346095 -0.0194077 0.0144341 0.0278392 -0.00177693 -0.0146025 0.0140254 0.0357879 0.0164828 0.047917 0.0248645 0.0674878 0.0688886 0.0577145 -0.015181 0.0125375 0.00496798 0.0542328 0.115128 0.154443 0.00165548 0.0194177 0.01451 0.0682399 0.0956584 -0.0441441 0.00415832
internal_weight=0 1221.4 983.59 964.443 465.609 311.617 152.081 652.826 389.873 135.409 134.342 51.8369 82.5053 39.3028 15.4269 43.2025 37.8863 388.571 36.0421 34.3493 11.2055 6.44937 4.87846 159.536 122.839 111.619 11.2201 8.80057 75.7357 154.315
internal_count=21359 13608 11710 11278 7751 2830 1109 8448 6306 1551 906 326 580 301 108 279 247 6294 456 432 144 79 59 1721 1381 1288 93 70 1445 1671
is_linear=0
shrinkage=0.1


Tree=19
num_leaves=31
num_cat=0
split_feature=1 2 1 0 2 1 0 2 3 3 1 3 2 3 0 3 2 1 2 1 2 3 2 1 2 2 3 3 3 1
split_gain=45.9125 21.1967 11.9428 8.24228 7.40636 10.4921 5.96182 5.30211 5.25509 4.91637 4.9069 6.40553 7.08082 4.665 6.03697 4.79602 6.3799 4.61543 4.31915 4.93716 4.20935 4.95046 4.33019 4.19877 3.98944 5.75298 3.8449 4.98254 3.47688 3.30672
threshold=0.058264968916773761 0.40923205018043524 0.010019527282565751 26.500000000000004 0.4617163240909577 0.1097515225410461 24.500000000000004 0.24119172245264053 0.041388778015971156 0.062521070241928059 0.059941319748759256 0.076474957168102251 0.31524756550788885 0.040143094956874806 27.500000000000004 0.031055781990289653 0.29127644002437597 0.1097515225410461 0.41629359126091009 0.048776403069496106 0.62158828973770153 0.049300098791718462 0.90439921617507946 0.077089939266443266 0.37458579242229467 0.39607302844524389 0.068649757653474808 0.08356409519910811 0.13053497672080994 0.064015906304120962
decision_type=2 2 2 2 2 2 2 2 2 2 2 2 2 2 2 2 2 2 2 2 2 2 2 2 2 2 2 2 2 2
left_child=2 8 -1 20 17 -6 9 -8 13 -4 11 12 -10 14 -2 -16 -17 -5 19 -11 21 -3 26 24 -12 29 -22 -28 -29 -26
right_child=1 3 6 4 5 -7 7 -9 10 18 23 -13 -14 -15 15 16 -18 -19 -20 -21 22 -23 -24 -25 25 -27 27 28 -30 -31
leaf_value=0.048590076060849884 0.045442071866358652 -0.093543106458287201 -0.00069093512960078534 -0.056377951614682675 0.01219447820781358 -0.020722999144505497 0.027780856999654942 0.010355984081938671 0.018230396138745962 -0.034301812884450354 0.02327534641271805 -0.18590462568327837 -0.1198413923861629 -0.15986336853746808 0.021235698471802126 -0.21631990317023969 -0.036133909733657599 -0.0084787094124799539 -0.018775921922806235 -0.21871947878200243 0.039149992160845255 -0.018833676692615781 0.05378595318797344 0.00097150582768805449 -0.15869665887228435 0.055322109544712561 -0.13510974032007964 -0.020053862139782285 -0.054583330621467085 -0.036108301566902486
leaf_weight=110.6076445132494 7.3156285062432351 9.2957784682512266 72.840508528053761 54.18527402728796 173.05776845663786 219.82813999801874 269.29125530272722 496.75406026095152 13.100526131689554 2.7628205493092528 180.3270540907979 2.7006947100162497 5.1840614750981322 3.012928992509841 3.8780784234404555 3.4695245996117574 4.531627394258976 31.994876384735107 8.2733052447438222 3.0589826852083206 5.0879456251859656 193.37365665286779 4.4321335256099692 383.1437264084816 3.0038591399788883 5.5811219066381446 6.4692807495594016 39.602730646729469 110.60687892884016 8.2263893932104093
leaf_count=1530 67 51 615 412 1489 1264 3232 4972 136 21 1762 24 44 28 35 35 36 216 47 22 31 1124 35 3322 23 47 33 202 434 70
internal_value=0 -0.0104063 0.017674 -0.0206982 -0.0120469 -0.00622356 0.013665 0.0164814 0.00359079 -0.0111519 0.0053552 -0.042149 -0.0209158 -0.0441799 -0.0260216 -0.0700314 -0.114268 -0.0385951 -0.0652118 -0.131201 -0.031934 -0.0222604 -0.0437305 0.00707314 0.0189318 -0.0276589 -0.0464023 -0.0491805 -0.0454796 -0.0688982
internal_weight=0 1471.41 963.589 847.934 479.066 392.886 852.981 766.045 623.475 86.9356 601.267 20.9853 18.2846 22.2078 19.1949 11.8792 8.00115 86.1802 14.0951 5.8218 368.868 202.669 166.199 580.282 197.138 16.8114 161.767 156.679 150.21 11.2302
internal_count=21359 10920 10439 5291 3381 2753 8909 8204 5629 705 5428 204 180 201 173 106 71 628 90 43 1910 1175 735 5224 1902 140 700 669 636 93
is_linear=0
shrinkage=0.1


Tree=20
num_leaves=31
num_cat=0
split_feature=1 1 0 1 0 2 2 2 3 2 1 3 3 1 1 2 1 2 3 3 2 1 2 0 1 2 0 1 1 0
split_gain=30.0667 13.8066 3.87183 3.30324 6.46195 2.40426 3.01257 5.81779 7.25316 10.0105 10.1682 5.59536 6.88406 6.31008 11.1838 3.81365 5.02843 7.75416 3.93013 7.86664 4.53987 3.46553 3.34088 3.31433 3.03721 2.94028 5.09631 4.91101 3.31551 2.89804
threshold=0.059050614014267859 0.17302039265632627 34.500000000000007 0.059466464444994857 26.500000000000004 0.82321602106094371 0.40923205018043524 0.4617163240909577 0.052054917439818361 0.42364795506000519 0.068650957196950871 0.086021561175584751 0.094222567975521074 0.12067537382245061 0.12969617545604703 0.42674276232719427 0.075841050595045062 0.41629359126091009 0.10672289133071897 0.11286754906177517 0.42364795506000519 0.1097515225410461 0.44459137320518499 28.500000000000004 0.06958086788654326 0.37691469490528112 30.500000000000004 0.073756579309701906 0.097521055489778505 24.500000000000004
decision_type=2 2 2 2 2 2 2 2 2 2 2 2 2 2 2 2 2 2 2 2 2 2 2 2 2 2 2 2 2 2
left_child=2 3 -1 4 -2 6 25 8 9 -8 -11 23 13 24 -15 16 17 -10 20 -20 -18 -14 -17 -9 -13 26 -5 -28 -29 -24
right_child=1 -3 -4 5 -6 -7 7 11 15 10 -12 12 21 14 -16 22 18 -19 19 -21 -22 -23 29 -25 -26 -27 27 28 -30 -31
leaf_value=-0.020789613835092785 0.30732305675318222 0.042277022659725778 -0.051446738991383849 -0.0022556546429300028 0.012277746588170546 -0.054161668689219081 -0.0694069851048634 -0.0007313887945480694 0.40472996966992209 0.47391936323747025 0.11809639702137527 0.20110810996958228 -0.021394115389741952 0.37349663329501648 0.02966993118834815 -0.026274998901314253 -0.051011454109918621 0.055642728946901615 0.32099242390315652 0.047086633469953502 0.15462655931437022 0.022552989875009692 -0.069616431970089779 -0.048020471970500259 0.027057187088554386 -0.034935246543950881 -0.021832504658014274 0.26527341717214242 0.063064005952294125 0.069473733387913156
leaf_weight=274.41288798116148 1.0597661659121507 125.04626465402544 48.472724495455623 175.02926408499479 2.4780705310404301 7.078308666124939 1.350282423198222 37.839101493358612 1.054901786148551 1.2886340841650965 2.1315822936594486 1.1098328642547119 27.247339684516191 1.7982889190316194 1.9961846992373464 13.940520983189346 5.4467189386486989 1.6035589165985582 1.2743909657001493 5.9166482128202915 1.3371448293328283 52.550110071897507 1.7837758027017105 24.363729178905487 10.375117955729364 26.56975282356143 2.128469441086053 1.7833880893886092 1.4869382232427595 9.3502411134541017
leaf_count=8843 17 1260 1764 4583 67 219 25 728 20 26 39 25 578 25 30 267 100 32 15 88 22 808 30 643 206 624 50 27 20 178
internal_value=0 0.0130975 -0.025392 0.00443813 0.100659 0.00362342 0.0046192 0.013251 0.0443347 0.161141 0.25216 0.00406534 0.0193215 0.0808145 0.192617 0.0309746 0.0681014 0.194164 0.0441204 0.095628 -0.0104788 0.00754698 0.00634623 -0.0192537 0.0438764 -0.00387752 0.000696024 0.0963896 0.173334 0.0471902
internal_weight=0 546.418 322.886 421.372 3.53784 417.834 410.756 203.758 46.4784 4.7705 3.42022 157.28 95.0769 15.2794 3.79447 41.7079 16.6334 2.65846 13.9749 7.19104 6.78386 79.7974 25.0745 62.2028 11.485 206.998 180.428 5.3988 3.27033 11.134
internal_count=21359 10752 10607 9492 84 9408 9189 3885 842 90 65 3043 1672 286 55 752 277 52 225 103 122 1386 475 1371 231 5304 4680 97 47 208
is_linear=0
shrinkage=0.1


Tree=21
num_leaves=31
num_cat=0
split_feature=2 3 0 2 2 1 2 1 0 0 3 1 3 3 3 2 3 3 3 0 2 3 3 3 1 3 2 1 2 0
split_gain=18.0592 8.60186 7.64809 5.04102 4.39333 4.84274 5.35327 4.09917 3.30852 3.55033 2.93014 2.86068 2.85813 2.70122 2.61058 2.50911 2.76318 2.48894 2.51118 2.47866 3.10231 3.41574 4.26579 2.28632 2.19209 4.7822 4.86661 3.95249 2.88905 2.54957
threshold=0.27705913782119751 0.013089184183627303 24.500000000000004 0.13013964146375653 0.87578400969505321 0.10859464108943936 0.58645358681678783 0.19057324528694147 30.500000000000004 37.000000000000007 0.08809237554669376 0.11922719329595562 0.084158722311258302 0.091801770031452165 0.037859719246625852 0.59138682484626781 0.063313215970992959 0.033388137817382757 0.040561346337199156 24.500000000000004 0.13769707828760147 0.029196672141551906 0.017528129741549454 0.022519774734973855 0.049117108806967708 0.082352355122566209 0.31524756550788885 0.077089939266443266 0.43434777855873113 35.500000000000007
decision_type=2 2 2 2 2 2 2 2 2 2 2 2 2 2 2 2 2 2 2 2 2 2 2 2 2 2 2 2 2 2
left_child=3 -2 -3 17 5 8 10 19 -4 14 11 -7 -13 -12 -10 -8 -17 -1 -19 20 -5 22 -22 -24 25 26 -16 -26 -29 -28
right_child=1 2 4 7 -6 6 15 -9 9 -11 13 12 -14 -15 24 16 -18 18 -20 -21 21 -23 23 -25 27 -27 29 28 -30 -31
leaf_value=-0.046518023180010422 -0.068736984304508558 0.022617574292007728 -0.0051309907629565298 0.13373113649965288 -0.070219578160464022 0.055656531657329304 0.10825365083544414 0.16859074509691374 0.0012599992012226526 -0.038390432814625952 -0.071324477033172365 -0.022324745174083723 0.072419644317268272 -0.0017489281583980719 0.16102192347651181 0.093515513681866932 0.02301565507817047 0.14254302443686395 -0.026722912358344016 -0.01619005310397377 -0.026891737166123343 -0.018233013830188226 0.16329454056709691 0.048569225623539547 -0.010246350812006413 0.21250622175326567 0.041491916752435611 -0.014114470282318214 0.074333596248201614 -0.046606794670513478
leaf_weight=66.698350820690393 15.245814215391873 245.46744884178042 512.91972342133522 1.9558514282107342 8.1566735543310624 17.925800070166588 3.8156987875699988 1.2398422434926022 55.777590662240982 12.555107098072765 5.8278205990791312 13.959517836570742 4.1248487904667845 131.31065803021193 2.9997622370719972 5.8078750073909751 129.97816613316536 1.4124041832983487 2.3098820708692074 341.10154056921601 4.6095384471118432 22.872899480164051 2.984016515314579 4.1569290012121201 24.324606355279684 1.7537759989500035 17.705769874155525 5.0369435101747539 13.840897738933561 4.0332164466381064
leaf_count=1388 369 1889 6888 24 125 174 27 10 743 182 67 135 40 1395 28 35 875 22 35 5840 65 288 34 45 250 17 195 41 88 45
internal_value=0 0.00591102 0.00684592 -0.0175073 0.00286237 0.00348093 0.013708 -0.0129412 -0.00143269 0.0123104 0.00196043 0.0273469 -0.000714573 -0.0047056 0.0173837 0.0282785 0.0260311 -0.0420768 0.0375043 -0.0135372 0.0112012 0.00427954 0.0481013 0.09651 0.0302877 0.0529352 0.0416229 0.0163998 0.0507341 0.025147
internal_weight=0 1232.57 1217.32 449.341 971.854 963.698 312.75 378.921 650.947 138.028 173.149 36.0102 18.0844 137.138 125.473 139.602 135.786 70.4206 3.72229 377.681 36.5792 34.6234 11.7505 7.14095 69.695 26.4925 24.7387 43.2024 18.8778 21.739
internal_count=21359 13608 13239 7751 11350 11225 2748 6306 8477 1589 1811 349 175 1462 1407 937 910 1445 57 6296 456 432 144 79 664 285 268 379 129 240
is_linear=0
shrinkage=0.1


Tree=22
num_leaves=31
num_cat=0
split_feature=1 2 1 0 2 2 1 0 3 1 3 2 0 2 3 3 1 2 2 2 1 0 2 3 3 0 3 3 2 1
split_gain=35.802 15.9792 10.7756 5.46925 6.79906 4.94664 4.92498 5.72626 4.34736 4.1514 4.42707 5.35868 3.91048 3.64536 4.54807 3.64153 3.19633 4.60763 3.99739 3.8495 3.72003 3.24197 3.13022 3.1086 4.73178 4.36628 3.04259 3.71393 3.71348 2.94082
threshold=0.058264968916773761 0.40655393898487097 0.010019527282565751 26.500000000000004 0.42151552438735967 0.23509446531534198 0.16142622381448743 30.500000000000004 0.041388778015971156 0.059941319748759256 0.076474957168102251 0.31524756550788885 26.500000000000004 0.62158828973770153 0.038749527186155305 0.033842429518699611 0.077089939266443266 0.37691469490528112 0.39357864856719976 0.39607302844524389 0.064500957727432209 28.500000000000004 0.74993959069252025 0.057836404070258057 0.059355610981583561 24.500000000000004 0.068649757653474808 0.08356409519910811 0.87578400969505321 0.32225501537323004
decision_type=2 2 2 2 2 2 2 2 2 2 2 2 2 2 2 2 2 2 2 2 2 2 2 2 2 2 2 2 2 2
left_child=2 8 -1 13 -5 -4 7 -6 15 10 11 -10 22 14 -3 -2 17 -11 23 20 -19 -22 -7 25 -25 -18 -15 -28 -29 -30
right_child=1 3 5 4 6 12 -8 -9 9 16 -12 -13 -14 26 -16 -17 18 19 -20 -21 21 -23 -24 24 -26 -27 27 28 29 -31
leaf_value=0.04659112041040895 0.013381140691119437 -0.13585199370629558 0.023253608489185576 -0.060632346991051023 0.0043382318230802148 -0.014106420104110015 -0.023845283472026867 -0.032331837381993481 0.016838308628846579 0.021671543593744805 -0.14748837405421752 -0.099229064971489866 0.010869414184744762 0.03887833691807558 -0.015949328618644933 -0.069110911242233217 -0.097617547057809548 -0.16475414961870341 0.042267287374367926 0.047202558200379857 -0.10594316905655432 0.025800874551484679 0.072284700946640121 -0.09819069644889511 -0.0022830449432305949 0.046053648612627479 -0.109665115253789 -0.040265679742528551 0.073817015326722732 -0.040692443131756954
leaf_weight=102.50199731811881 8.4085708707571047 3.2123904377222052 273.57631490379572 25.791981443762779 278.87654756754637 100.92837484925985 136.65129349380732 50.258536741137505 12.797054976224905 177.04439898580313 3.1478705629706374 5.7718317434191695 454.68498554080725 5.0795898437499991 207.91090226918459 14.717989437282084 2.3319752141833332 2.9130443036556226 22.478546485304832 3.9418114721775046 3.3199445754289627 4.27059006690979 4.3759168684482566 5.2271897196769705 324.02841759473085 22.766142845153809 7.254362739622592 151.02922650426626 5.2862551063299161 3.895490750670433
leaf_count=1530 76 15 3366 185 2273 811 668 294 136 1772 24 44 4687 32 1181 125 18 20 186 36 25 38 45 44 2810 215 35 606 47 15
internal_value=0 -0.00896554 0.0159946 -0.0176379 -0.0106543 0.0122322 -0.0078869 -0.00126124 0.00341364 0.00508065 -0.0378292 -0.0192393 0.00684787 -0.0265858 -0.0177737 -0.0391177 0.00672032 0.0172407 0.00137434 -0.0370646 -0.0686886 -0.0318213 -0.0105164 -0.00121972 -0.00380565 0.0327045 -0.037368 -0.0396807 -0.0365118 0.0252347
internal_weight=0 1488.41 936.068 875.247 491.578 833.566 465.786 329.135 613.165 590.039 21.7168 18.5689 559.989 383.668 211.123 23.1266 568.322 191.49 376.832 14.4454 10.5036 7.59053 105.304 354.354 329.256 25.0981 172.545 167.465 160.211 9.18175
internal_count=21359 10920 10439 5351 3420 8909 3235 2567 5569 5368 204 180 5543 1931 1196 201 5164 1891 3273 119 83 63 856 3087 2854 233 735 703 668 62
is_linear=0
shrinkage=0.1


Tree=23
num_leaves=31
num_cat=0
split_feature=1 1 0 1 2 2 3 3 1 1 2 2 0 2 2 0 2 2 3 3 1 2 3 2 3 0 2 2 0 1
split_gain=24.2313 10.535 3.686 2.42388 3.53836 10.6092 2.20373 4.22351 6.97516 3.0272 2.4193 3.82207 2.58365 3.06659 3.92049 3.88333 6.88239 3.74863 2.56192 4.75942 4.5099 2.12911 2.30641 2.72385 6.07582 5.25734 3.91453 2.78868 2.32605 2.0397
threshold=0.059050614014267859 0.17302039265632627 34.500000000000007 0.059941319748759256 0.29718105494976049 0.3449257910251618 0.016113885678350853 0.016507180407643252 0.015527574345469402 0.0086474083364009007 0.23176639527082443 0.23676338046789167 26.500000000000004 0.49001733958721166 0.71047726273536693 24.500000000000004 0.5819157361984254 0.51920074224472057 0.050939369946718153 0.041388778015971156 0.031677417457103708 0.82321602106094371 0.16630532592535016 0.5460907816886903 0.18278120458126065 30.500000000000004 0.71047726273536693 0.45900118350982672 24.500000000000004 0.05210123583674426
decision_type=2 2 2 2 2 2 2 2 2 2 2 2 2 2 2 2 2 2 2 2 2 2 2 2 2 2 2 2 2 2
left_child=2 3 6 4 -2 -6 -1 8 -8 -9 -11 18 13 -13 15 29 17 -17 19 20 -12 22 -5 25 26 27 -25 28 -24 -15
right_child=1 -3 -4 21 5 -7 7 9 -10 10 11 12 -14 14 -16 16 -18 -19 -20 -21 -22 -23 23 24 -26 -27 -28 -29 -30 -31
leaf_value=-0.039187904779749594 -0.032030920394211591 0.035989205724062098 -0.050073300136458158 0.0017425174563402987 0.33244997783391728 0.01430187760370762 0.40244299322604293 0.17516689276482345 0.0034093669636281842 -0.033822394239958399 0.2614416145640191 -0.0073307187717231896 -0.019662326923378978 0.084331889607759045 -0.068249133517224045 0.1819922135493619 0.33043564816664217 -0.068813358968641478 -0.068043537323143485 0.2971430190035384 -0.068021320592102225 -0.053311785276762384 0.10589368552814138 0.005952243364324942 -0.070436311100342694 0.23880460383062774 0.19655650781855005 0.11937613509575989 -0.02999078705974665 -0.070237508472903928
leaf_weight=45.34675388596952 2.7576852012425652 131.6346808001399 44.981670895591378 389.58753141202033 1.4923205934464929 3.5216209143400192 0.63775820098817293 0.8224992323666801 1.3990081176161764 61.556428223848343 0.60718610510230053 22.903243225067854 119.55009262263775 1.9598820433020576 1.8721482120454309 1.1955040208995349 1.4990733005106447 1.1882537752389906 0.82543219253420819 1.0954021029174326 1.3159767668694256 6.7041720058768979 1.6946017853915707 2.5764766670763475 5.7064006738364697 1.5727035589516152 1.8520120196044443 3.1381343565881252 4.9089640825986862 1.5126386694610117
leaf_count=1775 80 1260 1764 8822 28 60 23 29 47 2255 22 617 3751 46 58 27 28 28 28 38 46 217 21 33 87 11 22 40 71 25
internal_value=0 0.0112661 -0.0236036 0.00361785 0.0589525 0.108994 -0.0191154 -0.014977 0.128356 -0.0163167 -0.0170422 -0.0104006 -0.0128963 0.0122785 0.06095 0.0938349 0.162549 0.0569708 0.0880737 0.130764 0.0359976 0.00258841 0.00350017 0.0354247 -0.00222765 0.0691518 0.0856637 0.041763 0.00487978 0.0170011
internal_weight=0 557.147 310.269 425.513 7.77163 5.01394 265.287 219.941 2.03677 217.904 217.081 155.525 151.681 32.1307 9.2275 7.35535 3.88283 2.38376 3.844 3.01856 1.92316 417.741 411.037 21.4493 10.1349 11.3144 4.42849 9.7417 6.60357 3.47252
internal_count=21359 10752 10607 9492 168 88 8843 7068 70 6998 6969 4714 4580 829 212 154 83 55 134 106 68 9324 9107 285 142 143 55 132 92 71
is_linear=0
shrinkage=0.1


Tree=24
num_leaves=31
num_cat=0
split_feature=2 0 3 1 2 2 0 0 2 3 2 2 2 2 3 1 2 2 2 1 1 1 2 2 2 2 3 1 2 2
split_gain=14.6687 7.97623 4.78109 3.9212 4.07456 5.00773 3.0489 4.58014 5.0908 4.54995 3.3025 4.42369 2.94513 2.91853 2.88892 4.51657 4.03298 2.9165 6.84628 7.52211 9.15042 2.85892 2.69678 2.67509 2.66495 2.42174 2.36441 2.33804 2.31333 3.30001
threshold=0.21328684687614438 24.500000000000004 0.012553284410387203 0.10859464108943936 0.85602253675460827 0.57044738531112682 27.500000000000004 28.500000000000004 0.55859246850013744 0.062921460717916475 0.30463950335979467 0.30624251067638403 0.4710421115159989 0.45056998729705811 0.060180727392435053 0.071803387254476506 0.3449257910251618 0.55859246850013744 0.45900118350982672 0.085242561995983068 0.080883596092462512 0.0104854102246463 0.22322621196508408 0.26841819286346436 0.55859246850013744 0.61665871739387523 0.040980150923132855 0.45163279771804815 0.59517654776573192 0.5460907816886903
decision_type=2 2 2 2 2 2 2 2 2 2 2 2 2 2 2 2 2 2 2 2 2 2 2 2 2 2 2 2 2 2
left_child=21 22 -3 6 5 24 10 8 12 -10 -4 -12 13 23 15 16 -13 18 19 20 -17 -1 -2 26 -5 -19 -8 -7 29 -18
right_child=1 2 3 4 -6 27 7 -9 9 -11 11 14 -14 -15 -16 17 28 25 -20 -21 -22 -23 -24 -25 -26 -27 -28 -29 -30 -31
leaf_value=-0.045294540527604649 0.11958328740804608 -0.04615766224086959 -0.022926899268397555 0.0019529534083371103 -0.058696555363893003 0.0273014262949355 0.19215647542319247 -5.8391257251661783e-05 0.24166471255685212 0.045933968250654544 0.12933321311686743 -0.052928587174583847 -0.07124897666049787 0.16179645917521523 -0.012560584866510301 0.064039561293476974 0.013040902458851015 0.23170538839631744 -0.070869593048716428 -0.070546014088242195 0.35891754930930614 -0.018242826543627584 0.017669991865526629 -0.0024060509413605783 -0.072074477966632938 0.057896646934406451 0.027866349455258378 -0.032987402216208904 -0.041389482095882668 0.11884287973957469
leaf_weight=51.443846438080072 2.621476672589778 22.272121772170067 127.97168153524399 165.49075816571712 8.465617783367632 147.05528087168932 1.528500366956002 456.23771436139941 2.2331421822309485 2.5367891378700733 2.5049610659480086 11.636985618621109 2.8789252117276183 1.7177697494626034 146.14067266508937 2.9704369306564313 41.908574383705854 1.6520109921693795 3.6793121173977852 1.8439203575253484 1.629694268107414 162.38448205217719 272.20958661288023 10.248228494077919 5.0102290883660308 1.5573711954057214 2.0520162172615528 6.7267170101404181 6.9782011806964865 3.1710617356002322
leaf_count=1249 30 553 2012 1776 121 950 26 6267 24 25 35 167 35 21 1858 38 554 20 45 24 21 2974 2109 132 50 22 34 38 106 43
internal_value=0 0.00328954 -0.000261812 0.000614989 0.00979149 0.0115794 -0.0030503 0.00214545 0.0454936 0.137569 -0.0100941 -0.00281709 0.0216572 0.0388617 -0.00430042 0.0113712 0.000292495 0.0642977 0.0379635 0.100103 0.168506 -0.0247511 0.0186421 0.0235911 -0.000222368 0.147364 0.0980008 0.0246643 0.0121895 0.0204834
internal_weight=0 1462.93 1188.1 1165.83 332.749 324.283 833.078 479.433 23.1954 4.76993 353.645 225.673 18.4254 15.5465 223.168 77.0276 63.6948 13.3327 10.1234 6.44405 4.60013 213.828 274.831 13.8287 170.501 3.20938 3.58052 153.782 52.0578 45.0796
internal_count=21359 17136 14997 14444 2935 2814 11509 6564 297 49 4945 2933 248 213 2898 1040 870 170 128 83 59 4223 2139 192 1826 42 60 988 703 597
is_linear=0
shrinkage=0.1


Tree=25
num_leaves=31
num_cat=0
split_feature=1 2 1 0 2 1 3 3 1 2 2 3 1 1 2 2 3 0 1 3 2 3 2 0 2 3 2 1 1 3
split_gain=28.0192 12.4366 9.59486 4.90138 5.51096 6.65966 5.44691 5.55074 7.65292 4.08509 3.98029 3.7185 3.47773 3.45705 4.52797 3.226 3.17998 3.57706 3.16319 3.08776 4.16731 3.05295 2.96505 3.41354 2.95686 3.59903 2.91263 3.23879 2.77826 3.42439
threshold=0.058264968916773761 0.40923205018043524 0.010019527282565751 26.500000000000004 0.45330658555030828 0.12518639117479322 0.068649757653474808 0.060180727392435053 0.071803387254476506 0.23509446531534198 0.43989366292953491 0.041388778015971156 0.083890277892351109 0.059466464444994857 0.22322621196508408 0.41629359126091009 0.038749527186155305 27.500000000000004 0.063128691166639314 0.24745351076126096 0.83741226792335521 0.012553284410387203 0.75875896215438854 26.500000000000004 0.62158828973770153 0.038749527186155305 0.28877632319927216 0.065086930990219061 0.077089939266443266 0.10672289133071897
decision_type=2 2 2 2 2 2 2 2 2 2 2 2 2 2 2 2 2 2 2 2 2 2 2 2 2 2 2 2 2 2
left_child=2 11 -1 19 6 -6 7 10 -9 -4 12 16 18 14 -13 -8 17 -2 -5 20 24 -11 23 -23 25 -3 -19 -28 29 -15
right_child=1 3 9 4 5 -7 15 8 -10 21 -12 13 -14 28 -16 -17 -18 26 -20 -21 -22 22 -24 -25 -26 -27 27 -29 -30 -31
leaf_value=0.044516375777003493 0.054605157751498913 -0.11462107463840004 0.021210574127033942 -0.066630235852348438 0.007727058572746491 -0.017694385576982479 -0.065954724157471556 -0.024623678323912847 -0.23324350234458083 0.047115995726343535 -0.10525912942663172 0.071245941328191495 -0.095937845251637718 0.017076762825186203 -0.064444015307657365 -0.0023068611686526733 -0.090781715608974467 -0.097985345680422831 0.059587253342072023 -0.045983226319877002 0.058343719569489763 -0.012790706990287372 0.054039663368404538 0.0075821951938566876 -0.033781528571884628 -0.012548034655374414 0.073302982378790835 -0.076975715951439455 0.0010057468299774566 -0.10886254192524808
leaf_weight=95.091712661087513 5.4840810447931352 3.515028089284896 263.1583456248045 2.8386697918176704 220.8258099257946 193.21831107139587 9.7971730232238752 3.0531979799270621 4.1463521718978882 17.552102331072092 6.5807209685444823 2.9955398887395885 3.4275475442409506 192.89459793269634 13.737589478492735 42.544255763292313 7.2681490108370772 5.26666162163019 6.607003815472126 53.858639366924763 6.6230599805712691 102.15519520640373 11.924785524606703 421.93202032521367 126.441799454391 200.03705937415361 3.1468069702386856 2.6350154057145119 383.00481735914946 2.183478131890296
leaf_count=1530 51 15 3366 21 1823 1016 63 24 24 273 43 34 20 1937 117 300 57 47 47 192 60 802 153 4315 521 1122 26 20 3322 18
internal_value=0 -0.00776869 0.0144534 -0.0153825 -0.00875409 -0.00413614 -0.0329586 -0.0697564 -0.144772 0.0109531 -0.0419946 0.00310542 -0.00965411 0.00465629 -0.040153 -0.0142204 -0.0356533 -0.0114174 0.0216556 -0.0237519 -0.0201949 0.00607686 0.004733 0.0036111 -0.0217712 -0.0143107 -0.0441886 0.00481477 0.00595334 0.0156671
internal_weight=0 1502.13 911.814 883.515 493.039 414.044 78.9949 26.6535 7.19955 816.722 19.4539 618.617 12.8732 594.816 16.7331 52.3414 23.8007 16.5326 9.44567 390.476 336.617 553.564 536.012 524.087 329.994 203.552 11.0485 5.78182 578.083 195.078
internal_count=21359 10920 10439 5291 3381 2839 542 179 48 8909 131 5629 88 5428 151 363 201 144 68 1910 1718 5543 5270 5117 1658 1137 93 46 5277 1955
is_linear=0
shrinkage=0.1


Tree=26
num_leaves=31
num_cat=0
split_feature=1 3 0 2 2 0 2 1 3 3 0 2 1 1 2 2 1 3 3 0 2 2 1 2 1 2 3 1 2 1
split_gain=19.8363 7.67851 4.08228 3.18805 2.57326 5.2607 6.79255 4.04544 3.50568 2.21988 4.02475 5.69698 2.45283 2.82774 2.35412 3.10545 2.0725 2.42767 5.90803 2.55628 2.32174 3.09596 2.85521 2.88611 2.37766 2.50868 2.35706 2.52185 3.44066 2.97404
threshold=0.063542369753122316 0.17221329361200333 34.500000000000007 0.82321602106094371 0.23056413233280185 26.500000000000004 0.23676338046789167 0.027013944461941702 0.043569961562752661 0.17803390324115748 24.500000000000004 0.48042127490043646 0.14902338385581967 0.1570568457245827 0.40923205018043524 0.43188364803791052 0.1570568457245827 0.096036873757839161 0.090121798217296559 27.500000000000004 0.77921977639198314 0.70160871744155895 0.26429583132267004 0.43700999021530157 0.21120256185531613 0.52892661094665538 0.11147811263799666 0.18480649590492249 0.53170013427734386 0.19692941755056384
decision_type=2 2 2 2 2 2 2 2 2 2 2 2 2 2 2 2 2 2 2 2 2 2 2 2 2 2 2 2 2 2
left_child=2 3 4 16 -1 6 8 -8 -6 10 -3 -12 -11 -14 -15 -16 -2 18 19 -18 21 22 23 -19 26 -26 -25 -28 -29 -30
right_child=1 9 -4 -5 5 -7 7 -9 -10 12 11 -13 13 14 15 -17 17 20 -20 -21 -22 -23 -24 24 25 -27 27 28 29 -31
leaf_value=-0.029636551711623341 0.0026631664978724887 0.0030692978172267519 -0.049112146546130366 -0.068398578354632769 0.42080721116998743 -0.018375819941409792 -0.05442529615206923 0.027661224686446224 0.086886647098956493 -0.028202994319228115 0.26964805959751964 0.054343648133476669 0.12894016209035558 -0.034025751187093937 0.13604712378010661 0.030666137736223426 0.10176150648409171 -0.029734323592656726 0.25326518426005806 -0.072066828252161971 0.12033743221944548 -0.054729084423767185 0.12518536052822948 -0.035300482733490179 0.061770395367412891 -0.071958849064264377 0.030889674376812344 0.027787943571944407 0.24851015630909395 0.079220197688500998
leaf_weight=94.205009905621409 353.78574528172612 3.8199135437607747 42.810452397912741 5.9413009453564873 0.61357261985540279 152.55776492320001 7.2002820409834376 36.127897480502725 0.64481146261096001 6.9757458548992863 2.0170601159334183 3.1454191878437996 2.9870511330664149 5.3994735777378073 2.8832686170935622 92.82006374374032 1.7358179502189153 10.154994454234837 1.5404045246541498 1.6503195613622663 2.0799630694091311 5.9743018224835387 2.5366137996315947 2.7830764800310197 2.2409593351185313 3.7505525574088097 9.7558819428086299 3.0240002982318392 2.180889718234539 1.9797589108347891
leaf_count=3716 7970 29 1786 186 20 4864 209 832 20 131 17 38 36 66 29 741 23 203 19 20 23 68 26 35 23 38 115 34 22 20
internal_value=0 0.0108197 -0.0202781 0.00432256 -0.0160412 -0.00954472 0.0206718 0.0140201 0.249702 0.0330696 0.0808865 0.138466 0.0292024 0.0330496 0.0302165 0.033841 0.00538891 0.0241548 0.0909029 0.0170419 0.0170771 0.0122376 0.0226546 0.0154039 0.0332292 -0.0219411 0.0499885 0.0640002 0.10896 0.167957
internal_weight=0 531.163 334.16 411.115 291.349 197.144 44.5866 43.3282 1.25838 120.048 8.98239 5.16248 111.066 104.09 101.103 95.7033 405.173 51.3875 4.92654 3.38614 46.461 44.381 38.4067 35.8701 25.7151 5.99151 19.7236 16.9405 7.18465 4.16065
internal_count=21359 9912 11447 8825 9661 5945 1081 1041 40 1087 84 55 1003 872 836 770 8639 669 62 43 607 584 516 490 287 61 226 191 76 42
is_linear=0
shrinkage=0.1


Tree=27
num_leaves=31
num_cat=0
split_feature=2 0 2 3 2 1 2 0 3 2 2 3 1 1 1 3 1 0 1 1 3 3 3 0 3 2 2 3 2 3
split_gain=11.5981 6.32925 4.51349 3.88221 3.67959 3.47631 3.63053 3.03978 4.43573 2.89472 6.17141 2.86175 3.00238 2.76209 2.17366 3.6294 2.98205 3.35013 3.6828 2.20212 2.05739 2.74574 2.51806 2.79981 2.36476 2.65345 3.19968 2.43817 3.39049 5.50326
threshold=0.21519378572702408 24.500000000000004 0.22472779452800754 0.012553284410387203 0.87578400969505321 0.10859464108943936 0.58645358681678783 30.500000000000004 0.034236140549182857 0.27580718696117407 0.25781510770320898 0.014053085353225402 0.017945525236427753 0.0044532984029501009 0.017945525236427753 0.026306535117328101 0.010019527282565751 27.500000000000004 0.013437857851386003 0.014670257922261903 0.21996161341667173 0.08809237554669376 0.058945946395397159 26.500000000000004 0.091801770031452165 0.52583307027816784 0.4710421115159989 0.16131128370761869 0.48042127490043646 0.14043900370597837
decision_type=2 2 2 2 2 2 2 2 2 2 2 2 2 2 2 2 2 2 2 2 2 2 2 2 2 2 2 2 2 2
left_child=13 2 -2 -3 5 7 20 11 -9 10 -10 12 -5 -1 15 16 -13 18 -18 -19 21 22 -7 -24 -23 26 -26 28 -28 -30
right_child=1 3 -4 4 -6 6 -8 8 9 -11 -12 14 -14 -15 -16 -17 17 19 -20 -21 -22 24 23 -25 25 -27 27 -29 29 -31
leaf_value=-0.062102913648072078 0.16077776819577927 -0.043720368088635213 0.015310681823506001 0.0073527371109339216 -0.06987569501188505 -0.040739315563081815 0.021194826866194814 -0.008454324603578629 0.0039118077850963072 0.02060561323598591 0.23726209971961365 -0.06980909252555427 0.23917352391077246 -0.018940228550386462 -0.0067427793507458221 -0.069954449659418869 0.13658353820474697 0.068054287038553068 -0.069970465625854114 0.20517875201867272 0.03477425922168359 -0.070983469718792991 -0.01744566305226319 0.047511007744372918 -0.0090213861202574457 -0.036434239520789828 0.15904313643726994 -0.028750271848078619 -0.0025179424683872582 0.14899055525378577
leaf_weight=16.058303639292717 2.1494355574250212 20.225220205262303 278.2599471770227 1.3106544725596898 7.3882398940622798 5.8512247130274764 148.31127302348614 73.002662550657988 2.7065158188343039 83.200197692960501 1.9498732089996336 1.4285124987363804 0.9737427458167075 193.17801574245095 647.0611608363688 2.5713217146694651 1.4511278755962833 2.1713478676974773 2.1305466778576374 2.5424613878130913 15.715944372117518 6.0916993021965018 9.0320798084139806 25.008894808590412 77.37986483424902 24.693968862295151 2.5797714069485691 4.5707243755459777 10.032929852604864 3.150189332664012
leaf_count=451 22 547 2107 28 125 48 937 1079 41 809 26 23 21 3856 9208 39 22 32 33 37 135 75 86 245 915 224 21 42 98 27
internal_value=0 0.00291831 0.0164257 -0.000284661 0.000471161 0.000921184 0.00955114 -0.00256667 0.0097627 0.0248998 0.101628 -0.0055642 0.106168 -0.0222528 -0.00595131 0.035701 0.0636395 0.0866198 0.0137156 0.142014 0.000171338 -0.00305815 0.0198598 0.0302761 -0.010173 -0.00714669 0.000254805 0.0355555 0.0542021 0.033686
internal_weight=0 1462.94 280.409 1182.53 1162.31 1154.92 332.419 822.5 160.859 87.8566 4.65639 661.641 2.2844 209.236 659.356 12.2953 9.724 8.29548 3.58167 4.71381 184.107 168.391 39.8922 34.041 128.499 122.407 97.7135 20.3336 15.7629 13.1831
internal_count=21359 17052 2129 14923 14376 14251 2853 11398 1955 876 67 9443 49 4307 9394 186 147 124 55 69 1916 1781 379 331 1402 1327 1103 188 146 125
is_linear=0
shrinkage=0.1


Tree=28
num_leaves=31
num_cat=0
split_feature=1 2 1 0 2 3 1 2 3 1 3 2 1 0 1 3 1 3 1 2 3 0 1 2 3 3 2 2 1 1
split_gain=21.8991 9.60194 8.36489 4.37159 3.59759 3.78254 3.42312 5.79434 3.48408 6.32274 3.69559 7.27908 5.0056 5.10602 4.13142 7.34549 4.85364 3.53635 3.22751 3.37895 5.60654 3.35835 6.68341 3.93531 3.83025 3.13409 3.11938 3.35884 4.14016 3.94676
threshold=0.058264968916773761 0.40655393898487097 0.0049429570790379502 39.000000000000007 0.24119172245264053 0.012553284410387203 0.24919664859771729 0.87578400969505321 0.047348942607641158 0.067747473716735812 0.084158722311258302 0.45056998729705811 0.084585342556238105 28.500000000000004 0.072363670915365205 0.068649757653474808 0.065962016582488972 0.046066792681813205 0.036540169268846505 0.14435794949531558 0.0046266696881502511 24.500000000000004 0.026043090969324053 0.20424059033393863 0.04694161936640736 0.041388778015971156 0.39357864856719976 0.3789031058549881 0.059941319748759256 0.077089939266443266
decision_type=2 2 2 2 2 2 2 2 2 2 2 2 2 2 2 2 2 2 2 2 2 2 2 2 2 2 2 2 2 2
left_child=2 25 -1 4 18 -6 7 8 9 -3 11 12 14 -14 16 -16 -10 -11 19 -4 -21 22 23 -22 -23 -2 27 28 -27 -30
right_child=1 6 3 -5 5 -7 -8 -9 10 17 -12 -13 13 -15 15 -17 -18 -19 -20 20 21 24 -24 -25 -26 26 -28 -29 29 -31
leaf_value=0.063072784389162764 -0.032046327623780936 -0.092481270359581272 0.027462028210530683 0.05121080624718663 0.04863359364779278 0.0033406997181927977 -0.028385086939842808 0.062146717722531934 -0.086705756022197267 0.005831966640429411 -0.014917196754921614 0.010137576650367151 0.043374168112073619 -0.057015415102754596 -0.18270586671066902 -0.026782903911970687 0.031704634302886031 -0.10590344949035618 0.033159578292557203 -0.18830440707206519 0.034779217592311923 0.011228327206558336 -0.21023471387043863 -0.13014089795470807 -0.10688185849720144 -0.037996446280590825 0.037180027479423484 -0.025876372053280441 0.019080612318894161 0.00032077980747247944
leaf_weight=32.187872942537069 24.530947953462601 14.769872188568113 77.383859403431416 26.398066338151693 19.12342507019639 514.72978680953383 128.59131130576134 10.747248630970715 6.7949716448783892 20.806673437356952 507.69183922559023 172.12935096025467 12.315675452351572 8.6074309125542623 6.1721452698111516 5.9185608327388763 7.0567143931984901 3.2789018005132666 101.49588895589113 1.5503754653036583 5.4511248767375928 105.05444204807281 2.1223189607262611 1.9696855470538137 2.8193828389048567 21.551233351230621 27.720379911363125 38.029628962278366 170.95100552588701 326.01654897630215
leaf_count=595 201 103 1134 389 334 5066 480 124 48 138 2901 1273 80 49 38 43 53 21 1303 25 60 1459 20 17 37 196 238 301 1781 2852
internal_value=0 -0.00674024 0.0130247 0.0111473 0.00987573 0.00496316 -0.0132731 -0.0107698 -0.0117935 -0.0409683 -0.0102335 0.00062451 -0.0343154 0.0020755 -0.0636655 -0.10638 -0.0263818 -0.00937919 0.0186809 0.0111967 0.000616693 0.00311121 -0.0537492 -0.00899508 0.00814141 0.00296979 0.00443997 0.00280926 0.00491315 0.00677394
internal_weight=0 1513.68 890.286 858.098 831.7 533.853 904.881 776.289 765.542 38.8554 726.687 218.995 46.8655 20.9231 25.9424 12.0907 13.8517 24.0856 297.847 196.351 118.967 117.417 9.54313 7.42081 107.874 608.8 584.269 556.548 518.519 496.968
internal_count=21359 10920 10439 9844 9455 5400 5351 4871 4747 262 4485 1584 311 129 182 81 101 159 4055 2752 1618 1593 97 77 1496 5569 5368 5130 4829 4633
is_linear=0
shrinkage=0.1


Tree=29
num_leaves=31
num_cat=0
split_feature=1 3 2 2 1 3 2 0 3 1 1 1 0 2 2 2 1 2 2 0 2 3 3 2 1 2 3 0 2 3
split_gain=16.0872 6.96954 3.04445 3.05498 5.0426 3.653 3.44196 2.9847 2.76363 3.58319 3.45765 12.8985 4.62739 3.35916 2.97248 5.91928 7.18116 2.87997 4.59885 6.66846 7.17659 4.84296 7.10461 3.19479 3.10088 2.83778 2.46338 2.35393 4.6087 2.31677
threshold=0.051227489486336659 0.17221329361200333 0.71047726273536693 0.32493358850479126 0.05210123583674426 0.055236298590898458 0.31856945157051092 34.500000000000007 0.04411940090358251 0.08039660751819612 0.054926849901676109 0.054526209831237758 24.500000000000004 0.15531099587678907 0.22023409605026242 0.20053305476903918 0.090700935572385774 0.29127644002437597 0.30463950335979467 26.500000000000004 0.30133946239948278 0.070089839398860918 0.075969591736793463 0.29409924149513245 0.1097515225410461 0.18421696126461026 0.043160576373338706 28.500000000000004 0.33556991815567022 0.035072661936283056
decision_type=2 2 2 2 2 2 2 2 2 2 2 2 2 2 2 2 2 2 2 2 2 2 2 2 2 2 2 2 2 2
