tree
version=v3
num_class=3
num_tree_per_iteration=3
label_index=0
max_feature_idx=15
objective=multiclass num_class:3
feature_names=qp 0 1 2 3 4 5 6 7 8 9 10 11 12 13 14
feature_infos=[23:46] [5.3631945775123313e-05:0.12853573262691489] [0.00066195474937549999:0.51827114820480347] [3.0929302738513798e-05:0.1366475522518158] [0.0013154885964468:0.87272107601165771] [3.0142249670461752e-05:0.1682126522064209] [0.00055602606153110003:0.46929416060447687] [3.824917075689882e-05:0.14646871387958521] [0.0022458857856689999:0.98986941576004039] [5.3305670007830486e-05:0.21810992062091819] [0.00061593984719360002:0.44873484969139099] [4.0242128306999803e-05:0.1810771375894546] [0.0038962976541370002:0.731312096118927] [4.3170210119569681e-05:0.2604281604290008] [0.00095617497572670002:0.45304563641548151] [6.7232060246169567e-05:0.20914182066917419]
tree_sizes=860 1402 1164 2313 2254 2505

Tree=0
num_leaves=7
num_cat=0
split_feature=9 14 9 9 14 1
split_gain=14.7227 5.82391 14.3188 1.64882 1.09884 1.11022e-16
threshold=0.047231767326593357 0.01868641655892125 0.0017366647371090502 0.0013301774743012501 0.21575041860342023 0.00040185108082365007
decision_type=2 2 2 2 2 2
left_child=1 2 3 5 -3 -1
right_child=-2 4 -4 -5 -6 -7
leaf_value=-4.194893948057663 -3.5947377916886758 -4.194893948057663 -3.6347482021132738 -3.9848392933285171 -4.0748627167838656 -4.194893948057663
leaf_weight=0.52367324009537686 0.49986991100013334 9.0214617270976269 0.71409987285733212 0.47606658190488804 0.83311651833355505 1.2139697838574646
leaf_count=22 21 379 30 20 35 51
internal_value=-4.12713 -4.14795 -4.02412 -4.14972 -4.18475 -4.19489
internal_weight=0 12.7824 2.92781 2.21371 9.85458 1.73764
internal_count=558 537 123 93 414 73
is_linear=0
shrinkage=1


Tree=1
num_leaves=12
num_cat=0
split_feature=9 1 13 3 15 10 0 15 1 1 0
split_gain=15.161 7.60284 2.68939 5.52418 6.42276 5.78048 1.69553 5.27311 0.654475 8.88178e-16 4.44089e-16
threshold=0.047231767326593357 0.051073344424366902 0.0097038079984485513 0.0052034214604645508 0.0033858447568490507 0.065374832600355107 33.500000000000007 0.0016224755672737503 0.0017844497924670002 0.029070794582366853 42.500000000000007
decision_type=2 2 2 2 2 2 2 2 2 2 2
left_child=1 2 3 6 -5 -6 7 -1 -9 -4 -8
right_child=-2 -3 9 4 5 -7 10 8 -10 -11 -12
leaf_value=-0.23486862587412127 -0.38994373615287664 -0.25247174650036053 0.029178183519428587 -0.2562778266357631 0.029178183519428559 -0.23486862587412355 0.029178183519428587 -0.058837419611755509 0.029178183519428559 0.029178183519428545 0.029178183519428545
leaf_weight=1.1361622065305841 1.1929703168570984 1.4202027581632126 7.0442056804895383 2.1019000820815554 3.0676379576325417 1.1361622065305708 5.7944272533059102 1.1361622065305708 3.2948703989386559 2.1587081924080849 2.2155163027346134
leaf_count=20 21 25 124 37 54 20 102 20 58 38 39
internal_value=-0.0402248 -0.0265486 -0.0155172 -0.0362048 -0.11355 -0.0421858 -0.000283106 -0.0426713 0.00661008 0.0291782 0.0291782
internal_weight=0 30.506 29.0858 19.8828 6.3057 4.2038 13.5771 5.56719 4.43103 9.20291 8.00994
internal_count=558 537 512 350 111 74 239 98 78 162 141
is_linear=0
shrinkage=1


Tree=2
num_leaves=10
num_cat=0
split_feature=5 3 1 7 15 1 13 15 0
split_gain=9.34828 7.64294 11.585 1.99755 4.707 11.8581 1.49341 7.93655 2.22045e-16
threshold=0.025414748117327652 0.059012155979871701 0.040275376290082911 0.0021113745169713508 0.0033858447568490507 0.0050058560445904012 0.0097038079984485513 0.0072369901463389006 28.500000000000004
decision_type=2 2 2 2 2 2 2 2 2
left_child=3 2 -2 -1 5 -5 7 8 -6
right_child=1 -3 -4 4 6 -7 -8 -9 -10
leaf_value=-3.8276664814982602 -3.7055916802210644 -3.8276664814982602 -3.1618039290771929 -3.8276664814982602 -3.8276664814982602 -3.3181368761673564 -3.8276664814982602 -3.4760910538199363 -3.8276664814982602
leaf_weight=6.7581515014171663 0.8191698789596551 0.78503780066966999 0.75090572237968445 1.0922265052795399 1.2628868967294682 0.78503780066966999 4.6078305691480637 0.85330195724964131 1.3311510533094404
leaf_count=198 24 23 22 32 37 23 135 25 39
internal_value=-3.75941 -3.5729 -3.44552 -3.78573 -3.75719 -3.61459 -3.79042 -3.74064 -3.82767
internal_weight=0 2.35511 1.57008 16.6906 9.93243 1.87726 8.05517 3.44734 2.59404
internal_count=558 69 46 489 291 55 236 101 76
is_linear=0
shrinkage=1


Tree=3
num_leaves=20
num_cat=0
split_feature=9 14 9 11 0 9 1 0 13 3 10 15 14 1 0 1 5 14 0
split_gain=7.88288 4.71605 7.93661 7.39689 1.06344 5.51731e-05 5.38085e-06 2.11673e-06 6.12467e-07 1.60966e-06 1.52945e-06 1.53727e-06 6.24917e-07 1.64095e-07 2.71235e-07 1.02822e-07 9.4149e-10 4.95112e-10 2.22045e-16
threshold=0.06049026735126966 0.01868641655892125 0.0014483164995908501 0.0016613155021331502 40.500000000000007 0.042387735098600353 0.051073344424366902 33.500000000000007 0.0097038079984485513 0.0050304499454796011 0.065374832600355107 0.0036878404207527004 0.21575041860342023 0.0022778025595470504 33.500000000000007 0.00083285346045155009 0.024143526330590203 0.041275739669799812 27.500000000000004
decision_type=2 2 2 2 2 2 2 2 2 2 2 2 2 2 2 2 2 2 2
left_child=1 2 7 -4 5 6 8 -1 9 13 11 -11 16 14 -3 -9 18 -15 -10
right_child=-2 4 3 -5 -6 -7 -8 15 12 10 -12 -13 -14 17 -16 -17 -18 -19 -20
leaf_value=-0.067881825478093447 0.2998604863675231 -0.067729763168743976 0.47316750334112978 0.044553361639786113 0.049036862513781324 -0.068814656804366589 -0.067967889145777935 -0.06762239582660283 -0.067622395826602677 -0.067843405023396045 -0.067900146001239517 -0.067621278656737713 -0.067743865962102093 -0.067622395826602844 -0.06762239582660276 -0.067683276460256611 -0.067617231981789302 -0.06761840059628775 -0.067622395826602857
leaf_weight=0.55121828056871836 0.81272818148136217 0.46086652018129326 0.73869591951370217 0.88505266234278679 0.85673342831432897 0.46697346866130907 0.67364125512540329 0.75241240113973595 0.71061171218752983 0.50470476970076539 0.58853983879089344 0.81418095715343952 0.49292000010609616 0.96141584590077378 0.480707922950387 0.43943100050091743 0.41579247266054142 0.45792699791491032 1.6302268691360948
leaf_count=21 15 20 22 24 39 12 24 36 34 20 22 39 21 46 23 20 20 22 78
internal_value=0 -0.0212503 0.0804676 0.239544 -0.0572415 -0.0677574 -0.0676971 -0.0677198 -0.0676729 -0.0676978 -0.0677661 -0.0677063 -0.0676402 -0.0676426 -0.0676749 -0.0676448 -0.0676216 -0.0676211 -0.0676224
internal_weight=0 12.8821 3.36681 1.62375 9.51524 8.65851 8.19154 1.74306 7.51789 4.26834 1.90743 1.31889 3.24955 2.36092 0.941574 1.19184 2.75663 1.41934 2.34084
internal_count=558 543 123 46 420 381 369 77 345 192 81 59 153 111 43 56 132 68 112
is_linear=0
shrinkage=0.1


Tree=4
num_leaves=20
num_cat=0
split_feature=9 1 9 9 9 11 6 13 15 13 1 15 5 0 14 10 9 14 1
split_gain=7.6517 3.97592 2.61606 7.65165 3.69232 5.99762 2.97975 0.416223 2.48382 0.300473 0.554311 8.93265e-05 6.1991e-05 4.02564e-05 1.73844e-05 1.04113e-05 2.19838e-06 1.16778e-06 4.44089e-16
threshold=0.052153041586279862 0.051073344424366902 0.0038415999151766001 0.0023415550822391503 0.0031436391873284502 0.0030209949472918504 0.053979663178324658 0.0097038079984485513 0.0095765804871916025 0.0025513564469292504 0.0034775548847391503 0.0035744861233979004 0.024143526330590203 33.500000000000007 0.061565326526761006 0.011021706741303152 0.0012626494280993503 0.21273092925548551 0.025666249933249955
decision_type=2 2 2 2 2 2 2 2 2 2 2 2 2 2 2 2 2 2 2
left_child=1 2 3 6 5 -5 9 8 11 13 -11 -4 17 15 -13 -1 -15 18 -9
right_child=-2 -3 7 4 -6 -7 -8 12 -10 10 -12 14 -14 16 -16 -17 -18 -19 -20
leaf_value=0.069793289964647023 -0.19348901230224153 -0.11797447886986252 0.070289052819231992 -0.31767599367755617 0.0048376331248039537 -0.016793658214490661 -0.11843536317088821 0.069051566819116422 -0.090620968753131997 -0.026773763861275859 0.069426404246758056 0.069113176564662815 0.069733379291844741 0.069051566819116381 0.069606843909901669 0.069373100858601544 0.069219099890396485 0.069164674273463567 0.069051566819116353
leaf_weight=1.2607862688601073 1.8815986514091481 2.1174505725502959 1.4216213524341572 1.5481342338025563 1.5450690500438211 1.1580830737948415 1.0578629709780205 4.2514974996447545 1.2441959455609319 1.0420956909656527 1.4085715264081953 1.6821412146091463 1.7982159890234468 3.5512508526444435 1.2385531850159166 1.1078088432550428 1.0048857778310774 1.0963707230985162 1.2004228234291074
leaf_count=20 18 26 21 25 27 20 14 85 18 20 25 33 30 71 21 20 19 21 24
internal_value=0 0.01425 0.0240335 -0.00541746 -0.1185 -0.188918 0.0406609 0.055073 0.0339468 0.0586124 0.0285193 0.069639 0.0692133 0.0692624 0.0693225 0.0695968 0.0690885 0.0690705 0.0690516
internal_weight=0 30.735 28.6176 14.6845 4.25129 2.70622 10.4333 13.933 5.58651 9.3754 2.45067 4.34232 8.34651 6.92473 2.92069 2.3686 4.55614 6.54829 5.45192
internal_count=558 540 514 261 72 45 189 253 93 175 45 75 160 130 54 40 90 130 109
is_linear=0
shrinkage=0.1


Tree=5
num_leaves=22
num_cat=0
split_feature=7 8 8 15 14 8 15 4 2 3 6 13 1 7 0 15 14 3 9 14 1
split_gain=5.39499 4.53802 8.91455 2.85102 1.61692 5.20329 9.85234 1.21447 0.933942 5.66683e-05 4.62181e-05 1.78892e-05 1.51726e-05 3.86849e-06 3.58622e-06 5.77211e-06 6.03827e-07 1.73169e-08 2.14468e-09 3.54079e-11 9.47642e-12
threshold=0.018660853616893253 0.65301609039306652 0.76921039819717418 0.041312690824270207 0.027567526325583402 0.43791458010673523 0.0035744861233979004 0.17571211606264112 0.030715226195752603 0.0054072919301688012 0.21955509483814237 0.0097038079984485513 0.010814506094902702 0.0022465235088020004 33.500000000000007 0.0016817994765005501 0.040823053445219956 0.017948772045562705 0.0014483164995908501 0.15453203767538073 0.0013847829541191001
decision_type=2 2 2 2 2 2 2 2 2 2 2 2 2 2 2 2 2 2 2 2 2
left_child=4 -2 -3 -4 9 6 -6 16 -7 14 11 12 13 -10 15 -1 -8 19 20 -13 -16
right_child=1 2 3 -5 5 8 7 -9 10 -11 -12 17 -14 -15 18 -17 -18 -19 -20 -21 -22
leaf_value=-0.068445407132170052 -0.068938388088923261 0.39333276451460808 -0.068670923452844881 0.17774012790667976 0.38990829757727552 0.040591332849433448 -0.068055311975532787 0.10591217069829942 -0.068110998755818442 -0.068818269349377043 -0.069145258285491507 -0.068055311975532773 -0.068824282621973848 -0.068411315187659485 -0.068055311975532801 -0.068090834005561526 -0.06818996711182039 -0.068074830915522952 -0.068048561260479909 -0.068054340537863064 -0.068054846554810616
leaf_weight=0.75754167698323982 1.1651525814086188 1.0812897309660914 1.120053658261895 0.80847596563398827 0.87242673523723935 0.92002150230109681 0.68959590978920438 0.57338318973779667 0.71154795400798354 1.5665424373000858 0.69527203962206829 0.92945535667240642 0.7639921512454747 1.0798989385366438 1.6190512664616115 1.1654504816979168 0.64402892626821995 0.6068655140697955 0.62668066658079613 0.62920846603810787 0.59945526719093312
leaf_count=20 28 24 29 15 24 30 23 16 23 38 15 31 18 30 54 38 20 20 21 21 20
internal_value=0 0.0986274 0.163495 0.0346292 -0.0294899 -0.00252224 0.111551 -0.0157937 -0.0525609 -0.0682965 -0.0683841 -0.068272 -0.0684512 -0.068292 -0.068125 -0.0682305 -0.0681203 -0.0680605 -0.0680537 -0.0680549 -0.0680552
internal_weight=0 4.17497 3.00982 1.92853 15.4504 9.1157 2.77943 1.90701 6.33626 6.33472 5.41624 4.72097 2.55544 1.79145 4.76818 1.92299 1.33362 2.16553 2.84519 1.55866 2.21851
internal_count=558 96 68 44 462 271 83 59 188 191 158 143 71 53 153 58 43 72 95 52 74
is_linear=0
shrinkage=0.1


end of trees

feature_importances:
0=14
8=13
13=10
14=10
qp=9
12=6
2=5
4=3
6=3
7=3
9=3
5=2
10=2
1=1
3=1

parameters:
[boosting: gbdt]
[objective: multiclass]
[metric: multi_logloss]
[tree_learner: serial]
[device_type: cpu]
[data: ]
[valid: ]
[num_iterations: 100000]
[learning_rate: 0.1]
[num_leaves: 31]
[num_threads: 32]
[deterministic: 0]
[force_col_wise: 0]
[force_row_wise: 0]
[histogram_pool_size: -1]
[max_depth: -1]
[min_data_in_leaf: 20]
[min_sum_hessian_in_leaf: 0.001]
[bagging_fraction: 1]
[pos_bagging_fraction: 1]
[neg_bagging_fraction: 1]
[bagging_freq: 0]
[bagging_seed: 3]
[feature_fraction: 1]
[feature_fraction_bynode: 1]
[feature_fraction_seed: 2]
[extra_trees: 0]
[extra_seed: 6]
[early_stopping_round: 1500]
[first_metric_only: 0]
[max_delta_step: 0]
[lambda_l1: 0]
[lambda_l2: 0]
[linear_lambda: 0]
[min_gain_to_split: 0]
[drop_rate: 0.1]
[max_drop: 50]
[skip_drop: 0.5]
[xgboost_dart_mode: 0]
[uniform_drop: 0]
[drop_seed: 4]
[top_rate: 0.2]
[other_rate: 0.1]
[min_data_per_group: 100]
[max_cat_threshold: 32]
[cat_l2: 10]
[cat_smooth: 10]
[max_cat_to_onehot: 4]
[top_k: 20]
[monotone_constraints: ]
[monotone_constraints_method: basic]
[monotone_penalty: 0]
[feature_contri: ]
[forcedsplits_filename: ]
[refit_decay_rate: 0.9]
[cegb_tradeoff: 1]
[cegb_penalty_split: 0]
[cegb_penalty_feature_lazy: ]
[cegb_penalty_feature_coupled: ]
[path_smooth: 0]
[interaction_constraints: ]
[verbosity: 0]
[saved_feature_importance_type: 0]
[linear_tree: 0]
[max_bin: 255]
[max_bin_by_feature: ]
[min_data_in_bin: 3]
[bin_construct_sample_cnt: 200000]
[data_random_seed: 1]
[is_enable_sparse: 1]
[enable_bundle: 1]
[use_missing: 1]
[zero_as_missing: 0]
[feature_pre_filter: 1]
[pre_partition: 0]
[two_round: 0]
[header: 0]
[label_column: ]
[weight_column: ]
[group_column: ]
[ignore_column: ]
[categorical_feature: ]
[forcedbins_filename: ]
[precise_float_parser: 0]
[objective_seed: 5]
[num_class: 3]
[is_unbalance: 0]
[scale_pos_weight: 1]
[sigmoid: 1]
[boost_from_average: 1]
[reg_sqrt: 0]
[alpha: 0.9]
[fair_c: 1]
[poisson_max_delta_step: 0.7]
[tweedie_variance_power: 1.5]
[lambdarank_truncation_level: 30]
[lambdarank_norm: 1]
[label_gain: ]
[eval_at: ]
[multi_error_top_k: 1]
[auc_mu_weights: ]
[num_machines: 1]
[local_listen_port: 12400]
[time_out: 120]
[machine_list_filename: ]
[machines: ]
[gpu_platform_id: -1]
[gpu_device_id: -1]
[gpu_use_dp: 0]
[num_gpu: 1]

end of parameters

pandas_categorical:[]
