tree
version=v3
num_class=5
num_tree_per_iteration=5
label_index=0
max_feature_idx=108
objective=multiclass num_class:5
feature_names=qp 0 1 2 3 4 5 6 7 8 9 10 11 12 13 14 15 16 17 18 19 20 21 22 23 24 25 26 27 28 29 30 31 32 33 34 35 36 37 38 39 40 41 42 43 44 45 46 47 48 49 50 51 52 53 54 55 56 57 58 59 60 61 62 63 64 65 66 67 68 69 70 71 72 73 74 75 76 77 78 79 80 81 82 83 84 85 86 87 88 89 90 91 92 93 94 95 96 97 98 99 100 101 102 103 104 105 106 107
feature_infos=[23:46] [9.2300007281664875e-07:0.88674849271774292] [8.1634425441734493e-07:0.39790517091751099] [9.8881616850121645e-07:0.89254617691040039] [2.3289082662358851e-08:0.7581944465637207] [6.6556771116665914e-07:0.86680895090103149] [6.2393615962719196e-07:0.40947824716567988] [6.4285063672286924e-07:0.86300307512283325] [9.1053709638799763e-07:0.90962475538253784] [3.9496333670285821e-07:0.85165899991989136] [6.2027504554862389e-07:0.33168768882751459] [3.66194200296377e-07:0.8588683009147644] [3.0719551347146989e-08:0.83442926406860352] [4.7310064132943808e-07:0.89321190118789673] [6.0718070926668588e-07:0.2756960391998291] [5.2222742397134425e-07:0.88795888423919678] [2.1033905795775357e-05:0.99933564662933361] [6.6976315338251879e-07:0.85818320512771606] [9.7331610504625111e-07:0.22875019907951349] [6.2710142856303719e-07:0.86793375015258789] [1.33989699335757e-08:0.84476256370544434] [5.7357368632438011e-07:0.81972247362136841] [9.2682813601641101e-07:0.28027656674385071] [6.2153685576049611e-07:0.81449073553085327] [1.3725807548325974e-06:0.9753289222717284] [8.0066467944561737e-07:0.85976451635360718] [1.2543115417429362e-06:0.24076731503009791] [7.9695547583469306e-07:0.84924453496932983] [1.0800599525850885e-08:0.88494783639907837] [1.0762104238892789e-06:0.83876544237136841] [1.3146789115126012e-06:0.29242852330207819] [1.0774099337140797e-06:0.83509087562561035] [1.5172157930010147e-07:0.9999239444732666] [8.008991585484182e-07:0.40221050381660461] [1.6426243121259176e-07:0.99993354082107544] [2.0630780639407931e-08:0.75676906108856201] [1.4192700348303333e-07:0.99992036819457997] [5.7654114016258973e-07:0.41494655609130859] [1.4449760499246622e-07:0.99991250038146962] [8.7372978896382847e-07:0.91037029027938843] [1.1680965883442697e-07:0.99991291761398315] [5.9022016785093001e-07:0.35998257994651789] [1.0956677698459317e-07:0.99990934133529663] [2.8680229746669283e-08:0.82939887046813965] [1.0349877754833869e-07:0.99990928173065197] [6.2144914636519388e-07:0.27472022175788879] [1.1133487731740389e-07:0.9999040961265564] [2.1506553821382116e-05:0.99934041500091564] [1.198863230911229e-07:0.99997758865356445] [8.4292884139358648e-07:0.22773545980453491] [1.2149237704761617e-07:0.99997752904891957] [1.4245701507320518e-08:0.84259033203125] [1.2157107676102896e-07:0.99997949600219715] [8.6960244516376406e-07:0.29663535952568049] [1.2964174800345066e-07:0.99998050928115845] [1.4240615655580768e-06:0.97511035203933716] [9.5648815090498842e-08:0.99998086690902721] [1.444538156647468e-06:0.25869262218475342] [8.9460776564465063e-08:0.999980628490448] [1.1209895234287616e-08:0.88619863986968994] [8.9504467837286952e-08:0.99998313188552856] [1.1950930911552859e-06:0.3021674752235412] [1.0299758912424296e-07:0.99998384714126598] [6.5665096826705849e-07:0.86795735359191895] [7.2448227683707955e-07:0.40588086843490601] [6.8769060135309701e-07:0.86108428239822388] [2.0265074951453244e-08:0.78955131769180298] [4.5068168219586369e-07:0.83074063062667847] [5.8011511328004417e-07:0.46576008200645441] [5.3683299938711571e-07:0.84485745429992676] [1.1167894626851194e-06:0.91347986459732056] [2.7402498403716891e-07:0.79590451717376709] [5.018362685405009e-07:0.3570331335067749] [2.9882454555263399e-07:0.81140685081481934] [2.9522086109068372e-08:0.83668583631515503] [5.3416221135194064e-07:0.80349206924438477] [7.2636129289094242e-07:0.22980679571628571] [5.4052151199357468e-07:0.80187797546386719] [1.8567854567663744e-05:0.99939817190170277] [8.8351151816823403e-07:0.84767234325408936] [1.1791429415097809e-06:0.30286210775375361] [8.5060929677638342e-07:0.8324131965637207] [1.0978701503461252e-08:0.82198578119277954] [6.0392250134100323e-07:0.83128243684768677] [1.4422228105104296e-06:0.30804747343063349] [5.9839067034772597e-07:0.82538491487503052] [1.6968818954410381e-06:0.97144067287445079] [4.7551566240144899e-07:0.86614733934402466] [1.0913364576481399e-06:0.2478452920913696] [5.0686736585703329e-07:0.87563270330429077] [9.1125897938582057e-09:0.88745748996734619] [6.6181752345073619e-07:0.87597650289535522] [1.0038343134510797e-06:0.2818635106086731] [6.1267110140761361e-07:0.86569076776504517] [7.1827759029474691e-07:0.39938846230506891] [2.2173821889737155e-08:0.78477931022644043] [6.1124706007831264e-07:0.45427897572517389] [1.123415586334886e-06:0.91214519739151001] [4.9430673243477941e-07:0.35150328278541559] [3.321752828355784e-08:0.83340299129486084] [6.9144033432166907e-07:0.24271759390830991] [1.7886659406940453e-05:0.99938982725143444] [1.4633650380346808e-06:0.26152998208999628] [1.0206044898097844e-08:0.81739920377731323] [1.3137113228367523e-06:0.30620470643043518] [1.9291371700091986e-06:0.97186839580535878] [1.0857907000172418e-06:0.25628957152366638] [8.8318206081794415e-09:0.88632917404174805] [9.8413954674470006e-07:0.26651430130004877]
tree_sizes=3339 3335 3400 3348 3321 3402 3391 3440 3385 3386 3410 3407 3448 3392 3383 3415 3400 3432 3386 3382 3417 3422 3433 3414 3402 3410 3436 3442 3399 3417 3420 3439 3437 3415 3416 3408 3420 3451 3418 3418 3419 3418 3449 3409 3418 3427 3423 3460 3414 3406 3440 3431 3455 3408 3429 3439 3424 3458 3395 3400 3446 3436 3468 3423 3426 3431 3431 3455 3417 3452 3445 3451 3454 3428 3439 3424 3436 3446 3412 3434 3437 3420 3434 3450 3411 3451 3436 3439 3448 3446 3415 3435 3440 3421 3409 3437 3421 3476 3462 3416 3452 3452 3448 3452 3446 3475 3449 3464 3431 3406 3427 3431 3456 3416 3448 3429 3426 3448 3464 3470 3423 3425 3446 3452 3449 3464 3451 3447 3419 3454 3444 3418 3457 3424 3435 3426 3452 3481 3455 3419

Tree=0
num_leaves=31
num_cat=0
split_feature=56 44 97 13 92 32 20 99 28 56 58 47 107 14 55 56 60 41 82 32 89 25 63 69 36 97 104 73 74 45
split_gain=2093.48 99.4391 37.637 31.1848 17.0645 15.8508 9.32054 20.5204 9.88651 9.71012 12.1485 11.0748 10.4492 11.7174 8.76637 8.38995 10.457 8.1871 18.6494 7.47156 16.7374 7.43174 6.90244 18.1641 10.4674 6.67923 6.51352 6.4325 5.97778 19.655
threshold=0.99107643961906444 0.07490197569131847 0.0069329021498560515 0.065368775278329863 0.0033515804680064004 0.014949259813874903 0.033866088837385101 0.024466801477641104 0.020534371025860254 0.50975230336189281 0.31950362026691442 0.10183250904083251 0.0084394416771828521 0.0017309145187027503 0.6928096115589143 0.41253416240215307 0.18124560266733167 0.0038501215167343508 0.049898004159331301 0.28359535336494446 0.083364866673946367 0.20100536942481992 0.015951399691402902 0.015350631903856953 0.072541356086730915 0.034835094586014713 0.054873561486601809 0.047734403982758508 0.19991205632686612 0.017541550099849652
decision_type=2 2 2 2 2 2 2 2 2 2 2 2 2 2 2 2 2 2 2 2 2 2 2 2 2 2 2 2 2 2
left_child=1 5 -3 15 6 -1 7 9 -9 10 11 -5 -12 -14 17 16 -4 18 19 20 -6 -21 24 -24 -18 -17 28 -19 -25 -30
right_child=-2 2 3 4 14 -7 -8 8 -10 -11 12 -13 13 -15 -16 25 22 27 -20 21 -22 -23 23 26 -26 -27 -28 -29 29 -31
leaf_value=-2.1512767124743637 -1.4352261426384896 -1.7078710891740299 -2.0912408006293695 -1.8592271435791883 -2.0774467850806362 -2.1128788110238639 -2.0956867136682713 -1.6907070005301461 -1.9378698770020741 -2.1301076698135737 -2.0155043702528719 -2.0762031535860248 -1.6735429118862624 -1.9481683301884045 -1.8795119756128689 -1.9739144631542302 -1.9323245560555886 -1.9438773080274334 -1.8477584116216836 -2.1541373939150112 -1.7936915323934495 -1.9811233803846615 -1.8214181371258773 -2.0569737268961554 -2.1122999278455441 -2.1343190647591865 -2.1316095275699136 -2.0873517846957572 -1.7609237268005806 -2.0348921464943439
leaf_weight=209.74023270606995 50.493018984794617 2.9130587875843039 206.68845683336258 3.0517758727073732 6.5197030007839256 220.56016534566879 5.1325321495532981 3.8840783834457389 2.7743417024612427 4.1615125536918631 3.6066442131996137 10.265064299106596 3.3292100429534912 2.9130587875843048 2.9130587875843039 2.7743417024612418 3.6066442131996146 3.3292100429534903 5.5486834049224845 8.7391763627529127 3.0517758727073669 3.4679271280765525 3.6066442131996146 63.809859156608582 31.072627067565918 40.366671770811081 8.8778934478759748 50.909170240163803 3.0517758727073696 18.449372321367264
leaf_count=1512 364 21 1490 22 47 1590 37 28 20 30 26 74 24 21 21 20 26 24 40 63 22 25 26 460 224 291 64 367 22 133
internal_value=-2.06248 -2.09621 -2.06629 -2.06835 -2.02468 -2.1316 -1.97008 -1.95111 -1.79369 -1.98947 -1.9642 -2.02648 -1.88 -1.8017 -2.04997 -2.08247 -2.07718 -2.05606 -2.01142 -2.05312 -1.98697 -2.10499 -2.05525 -2.04166 -2.09358 -2.124 -2.05009 -2.07855 -2.04161 -1.99601
internal_weight=0 939.115 508.814 505.901 123.597 430.3 39.1182 33.9857 6.65842 27.3273 23.1658 13.3168 9.84891 6.24227 84.4787 382.304 339.163 81.5656 27.3273 21.7786 9.57148 12.2071 132.475 97.7955 34.6793 43.141 94.1889 54.2384 85.311 21.5011
internal_count=7134 6770 3668 3647 891 3102 282 245 48 197 167 96 71 45 609 2756 2445 588 197 157 69 88 955 705 250 311 679 391 615 155
is_linear=0
shrinkage=1


Tree=1
num_leaves=31
num_cat=0
split_feature=78 101 70 48 34 40 71 22 28 97 98 86 1 73 70 84 75 107 103 31 61 16 66 98 43 68 43 74 12 55
split_gain=328.011 80.4844 57.215 20.4734 21.3852 18.5546 17.5008 16.723 15.6499 15.6125 19.4415 15.6048 15.4866 14.1996 13.7935 15.933 12.35 12.6132 15.9209 11.857 19.9095 11.635 14.123 12.2405 11.5721 13.6208 13.1704 10.6909 19.0705 10.2805
threshold=0.43053847551345825 0.83387023210525524 0.030650624074041805 0.39704340696334844 0.011642689350992401 0.0065735245589166507 0.00092656357446680012 0.00057701679179440009 0.0061923023313283513 0.24082926660776138 0.0028176354244350507 0.77163144946098339 0.006086600711569151 0.0082260053604840521 0.26681092381477362 0.0032101330580189503 0.07164219021797176 0.22610954940319059 0.21419121325016025 0.0036155289271846002 0.010032189078628953 0.76543056964874279 0.049079656600952107 0.0013437657034955502 0.13645389676094058 0.0084663471207022511 0.18958985805511472 0.044974047690629911 0.054013146087527206 0.04877827689051626
decision_type=2 2 2 2 2 2 2 2 2 2 2 2 2 2 2 2 2 2 2 2 2 2 2 2 2 2 2 2 2 2
left_child=2 5 -1 4 -3 -2 -6 8 -7 10 -8 14 13 21 -11 -16 17 18 19 -17 24 22 23 -9 25 -21 -26 -24 -29 -14
right_child=1 3 -4 -5 6 7 9 12 -10 11 -12 -13 29 -15 15 16 -18 -19 -20 20 -22 -23 27 -25 26 -27 -28 28 -30 -31
leaf_value=-2.0577096002955844 -2.0589502342414856 -2.0668185737854232 -1.9940206119459349 -1.924448370651302 -1.6015602355351908 -1.9394264097407168 -1.8067262388608143 -1.8610312318670512 -1.6306388816758304 -1.6569034652867305 -2.0214756001423924 -1.6464244324378918 -1.7658545862298041 -1.7045471072832892 -1.9871984712574817 -1.9356795813864607 -1.6796134435969075 -1.8903843343185982 -1.64881303551373 -1.6716133376012772 -1.879839752364967 -1.8236153515182563 -2.0668185737854232 -2.027804723546732 -1.4648905986741851 -1.9664972446002169 -1.7324141431680686 -1.6412129348178814 -1.8959815277091661 -1.952317283483336
leaf_weight=285.43281678855419 12.709161564707754 3.7379886955022803 278.85395668447018 30.202948659658432 3.4389495998620978 3.1399105042219153 8.0740555822849291 5.8312623649835613 3.4389495998620987 4.6351059824228278 8.8216533213853818 5.2331841737031928 2.9903909564018241 3.5884691476821891 6.2798210084438315 7.6254969388246527 5.6817428171634665 24.371686294674873 5.980781912803649 3.2894300520420092 13.905317947268484 13.157720208168028 2.9903909564018241 17.94234573841095 2.990390956401825 2.990390956401825 4.7846255302429199 3.2894300520420101 27.51159679889679 263.75248235464096
leaf_count=1909 85 25 1865 202 23 21 54 39 23 31 59 35 20 24 42 51 38 163 40 22 93 88 20 120 20 20 32 22 184 1764
internal_value=-1.97391 -1.91514 -2.02624 -1.85139 -1.83166 -1.94027 -1.82353 -1.93593 -1.77801 -1.83082 -1.91885 -1.81388 -1.93898 -1.89861 -1.8245 -1.83447 -1.82108 -1.83327 -1.79978 -1.82515 -1.795 -1.90845 -1.92785 -1.9869 -1.71107 -1.81203 -1.62952 -1.8863 -1.86877 -1.95023
internal_weight=0 502.386 564.287 142.044 111.841 360.342 108.103 347.633 6.57886 104.664 16.8957 87.768 341.054 74.3112 82.5348 77.8997 71.6199 65.9381 41.5664 35.5857 27.9602 70.7227 57.565 23.7736 14.0548 6.27982 7.77502 33.7914 30.801 266.743
internal_count=7134 3360 3774 950 748 2410 723 2325 44 700 113 587 2281 497 552 521 479 441 278 238 187 473 385 159 94 42 52 226 206 1784
is_linear=0
shrinkage=1


Tree=2
num_leaves=31
num_cat=0
split_feature=38 40 78 39 19 55 78 16 97 54 82 38 5 94 103 15 36 59 62 0 47 104 60 8 98 105 60 26 51 45
split_gain=908.238 247.962 267.69 240.767 59.435 56.1645 37.8694 27.097 25.4908 19.1205 16.062 15.8179 14.6545 14.3512 10.713 11.031 10.2 10.1859 10.0282 9.85065 9.82553 9.60572 9.60277 9.21663 9.74713 9.21555 8.93646 9.6107 8.8904 16.4202
threshold=0.048476181924343061 0.95916396379470836 0.57288172841072094 0.075896866619586903 0.088608380407094914 0.35266943275928503 0.42097613215446478 0.55563345551490795 0.24082926660776138 0.072144649922847706 0.35326512157917028 0.12442474439740182 0.16182488948106769 0.0040193339809774511 0.076699562370777061 0.023934461176395406 0.5787443518638612 0.11156270653009411 0.0079503385350107522 24.500000000000004 0.57909187674522411 0.013668096624314752 0.57807695865631115 0.14391741156578064 0.0031015916028991003 0.31042443215847015 0.035625835880637106 0.0023882390232756504 0.030954160727560503 0.0014720126055180502
decision_type=2 2 2 2 2 2 2 2 2 2 2 2 2 2 2 2 2 2 2 2 2 2 2 2 2 2 2 2 2 2
left_child=3 2 4 9 6 8 11 19 12 18 14 26 13 -4 -7 17 21 -16 -1 -5 28 -10 -13 24 -9 -23 27 -2 29 -8
right_child=1 -3 5 7 -6 10 20 23 16 -11 -12 22 -14 -15 15 -17 -18 -19 -20 -21 -22 25 -24 -25 -26 -27 -28 -29 -30 -31
leaf_value=-0.40704802706655074 -0.46868570712190333 -0.7320465592856148 -0.58626184519040891 -0.61729589021707454 -0.61563303280158777 -0.70724415893257286 -0.61827358879006911 -0.58182589547587704 -0.6454899886011034 -0.5190371836311225 -0.70646200007417725 -0.51957553664283473 -0.64870257668496101 -0.52187250949280672 -0.54846591067825845 -0.66131656646231662 -0.54299079866948896 -0.6300948533544577 -0.43515489693155124 -0.50612865841242716 -0.43739935278607783 -0.55638734932924405 -0.62169553379554998 -0.59859740500855385 -0.44850096238911269 -0.64597504835824793 -0.47774649117146101 -0.6335407280452916 -0.57792280870122636 -0.49299080883733803
leaf_weight=320.84579527378082 6.3925632834434492 116.58817797899246 75.493128299713135 8.5234177112579328 77.319574952125549 25.570253133773804 14.611573219299315 13.089534342288973 117.80580908060074 19.482097625732422 53.271360695362091 168.33749979734421 19.786505401134491 63.925632834434509 18.264466524124146 110.50002247095108 14.611573219299315 93.75759482383728 210.04136502742767 122.98074126243591 6.39256328344345 28.614330887794495 9.7410488128662092 77.928390502929688 9.4366410374641401 19.177689850330353 178.68736416101456 7.9146021604537964 125.72041124105453 36.83334082365036
leaf_count=1054 21 383 248 28 254 84 48 43 387 64 175 553 65 210 60 363 48 308 690 404 21 94 32 256 31 63 587 26 413 121
internal_value=-0.543935 -0.592464 -0.579677 -0.457754 -0.533496 -0.625222 -0.522046 -0.543206 -0.597325 -0.421739 -0.656641 -0.503668 -0.568168 -0.556738 -0.645943 -0.638899 -0.623083 -0.616786 -0.418168 -0.513334 -0.559198 -0.63015 -0.525162 -0.582312 -0.525974 -0.592337 -0.483835 -0.559882 -0.563593 -0.528574
internal_weight=0 1389.32 1272.73 782.328 631.951 640.778 554.631 231.959 339.415 550.369 301.364 371.073 159.205 139.419 248.092 222.522 180.209 112.022 530.887 131.504 183.558 165.598 178.079 100.455 22.5262 47.792 192.995 14.3072 177.165 51.4449
internal_count=7134 4564 4181 2570 2076 2105 1822 762 1115 1808 990 1219 523 458 815 731 592 368 1744 432 603 544 585 330 74 157 634 47 582 169
is_linear=0
shrinkage=1


Tree=3
num_leaves=31
num_cat=0
split_feature=77 9 66 0 89 79 90 49 93 0 102 104 35 100 84 6 103 10 7 101 108 48 89 48 0 2 52 16 13 93
split_gain=253.981 143.734 59.2897 63.2111 54.1889 34.2571 22.3897 42.7939 21.0604 18.7705 16.7288 34.7307 28.7324 24.2733 16.4857 21.045 30.0594 13.5157 10.1307 9.70927 11.8193 10.9588 21.3468 12.5124 9.40919 14.5224 17.4189 12.3559 6.43261 12.9707
threshold=0.11334073543548583 0.45693551003932958 0.0091012697666882515 30.500000000000004 0.015588499139994301 0.072220031172037069 0.10067675262689586 0.013090883847326 0.1778447404503822 45.500000000000007 0.0043431287631392002 0.0042396972421556009 0.026981997303664653 0.0033454289659857004 0.0010518403723835501 0.0018295394256710501 0.012507974170148302 0.0082231662236154027 0.098705213516950566 0.67912265658378612 0.049704523757100057 0.34911260008811951 0.028316930867731505 0.37278510630130773 30.500000000000004 0.00062993826577435014 0.24214111268520358 0.10187584534287451 0.021182328462600656 0.015656599774956655
decision_type=2 2 2 2 2 2 2 2 2 2 2 2 2 2 2 2 2 2 2 2 2 2 2 2 2 2 2 2 2 2
left_child=4 2 3 -2 18 -4 7 10 9 14 11 12 -7 -14 15 24 -17 -12 -1 20 21 28 -23 -24 -6 -26 27 -27 -16 -30
right_child=1 -3 5 -5 8 6 -8 -9 -10 -11 17 -13 13 -15 19 16 -18 -19 -20 -21 -22 22 23 -25 25 26 -28 -29 29 -31
leaf_value=-3.5430010499539106 -3.2972331489389197 -1.9115901242471056 -2.6309375737950935 -2.0604950463035383 -3.5660892582074819 -3.5197347566094539 -3.5660892582074819 -2.4906648211332376 -2.9259556647109064 -2.9816194554497391 -3.5336969558859685 -2.5418755086129625 -2.6354334953547691 -3.3510043707926327 -3.5300011898492856 -2.6354334953547691 -3.4491952976559332 -3.1324503722904473 -3.1820091021095367 -3.5146686908610354 -3.0539823834102213 -2.968631237610678 -3.0539823834102222 -3.4914070056328814 -3.5660892582074819 -3.0283770396703593 -2.759520930401798 -3.5660892582074819 -3.0283770396703606 -3.4513123939660519
leaf_weight=164.58618063479662 0.74389234185218522 0.96706004440784532 0.85547619313001533 0.92986542731523514 2.2688716426491728 2.157287791371342 2.3060662597417823 0.74389234185218889 0.78108695894479652 0.85547619313001533 3.0871532186865807 0.7810869589447974 0.96706004440784432 0.92986542731523514 11.083995893597601 0.96706004440784432 0.85547619313001633 1.1530331298708913 0.78108695894479652 27.226459711790085 0.78108695894479652 1.3390062153339375 0.7810869589447974 4.0170186460018158 1.4133954495191576 0.74389234185218844 0.743892341852188 1.0042546615004537 0.74389234185219066 28.75143901258707
leaf_count=4425 20 26 23 25 61 58 62 20 21 23 83 21 26 25 298 26 23 31 21 732 21 36 21 108 38 20 20 27 20 773
internal_value=-3.48356 -3.09239 -3.17031 -2.61016 -3.50803 -3.24254 -3.28569 -3.21984 -3.4428 -3.44763 -3.2796 -3.15246 -3.2701 -2.9862 -3.45245 -3.31599 -3.0174 -3.42459 -3.5413 -3.46706 -3.43977 -3.44622 -3.32167 -3.4202 -3.40413 -3.31004 -3.16481 -3.33728 -3.46505 -3.44065
internal_weight=0 15.6217 14.6547 1.67376 249.725 12.9809 12.1254 9.81938 84.3574 83.5763 9.07549 4.8353 4.05421 1.89693 82.7208 7.99684 1.82254 4.24019 165.367 74.724 47.4975 46.7164 6.13711 4.79811 6.17431 3.90543 2.49204 1.74815 40.5793 29.4953
internal_count=7134 420 394 45 6714 349 326 264 2268 2247 244 130 109 51 2224 215 49 114 4446 2009 1277 1256 165 129 166 105 67 47 1091 793
is_linear=0
shrinkage=1


Tree=4
num_leaves=31
num_cat=0
split_feature=86 70 105 49 47 55 82 19 40 85 0 18 5 24 61 26 99 90 83 94 42 105 81 98 10 86 23 65 56 60
split_gain=569.579 144.584 46.18 42.2074 40.3176 27.8706 25.9332 23.6984 17.3674 26.5366 17.3635 17.4267 16.8814 17.5942 16.5865 16.2664 16.1185 15.6463 16.0048 14.7839 14.3212 13.8909 21.315 13.5915 16.5466 17.6121 13.298 12.8421 11.8829 17.9789
threshold=0.16922575980424884 0.40815714001655579 0.070628747344017015 0.039610916748642859 0.67177781462669384 0.26875773072242742 0.057688342407345751 0.024056305177509753 0.20630186051130292 0.0066525510046631002 30.500000000000004 0.0034452450927346507 0.15490158647298807 0.40855756402015692 0.057143481448292656 0.016595675610005804 0.070502910763025214 0.23367017507553098 0.0030041201971471002 0.011699823662638602 0.44140040874481201 0.41562569141387945 0.015192641410976601 0.025184432044625251 0.034160723909735659 0.5198858678340913 0.0018217811593785503 0.017989868298172906 0.37182718515396124 0.27510635554790502
decision_type=2 2 2 2 2 2 2 2 2 2 2 2 2 2 2 2 2 2 2 2 2 2 2 2 2 2 2 2 2 2
left_child=2 4 -1 5 15 -3 27 14 17 -10 11 -11 13 -13 -5 -2 -8 18 26 -19 28 -20 -23 -18 25 -25 -6 -7 29 -9
right_child=1 3 -4 7 8 6 16 20 9 10 -12 12 -14 -15 -16 -17 23 19 21 -21 -22 22 -24 24 -26 -27 -28 -29 -30 -31
leaf_value=-2.1806018590321137 -2.0517273755095191 -2.1154067559770886 -2.1222549956510859 -1.8171070661148074 -2.0547727782010003 -1.8530444217730018 -1.731410294929882 -1.6613785249292981 -1.7018596841764595 -2.0880941533752471 -2.0462395677936502 -2.0155009610497716 -1.7515742410910409 -1.7675933760968505 -2.1027629700645583 -2.1211159918727289 -1.9973903150391108 -2.0203000393017057 -2.1129815552465008 -1.7975621884761401 -1.9210858151525168 -2.0865197912125137 -1.7905818750337592 -1.7078856910751965 -1.9584606650370391 -1.9633975138951345 -1.8550001962305906 -1.5807917273927408 -1.5314511621650562 -1.9313694276947078
leaf_weight=369.05618625879288 96.538958609104156 8.2132168412208539 214.4861381649971 4.8471443653106707 6.7321449518203718 4.1739298701286307 3.5007153749465934 8.347859740257265 3.9046440720558158 4.9817872643470791 18.984648764133453 9.8289316296577471 6.8667878508567801 4.0392869710922232 3.5007153749465942 51.972159028053284 32.4489386677742 7.1360736489295942 33.122153162956238 5.1164301633834839 3.3660724759101859 6.8667878508567792 3.7700011730194092 6.8667878508567792 20.869649350643158 4.4432156682014465 6.5975020527839661 2.9621437788009644 3.5007153749465934 3.5007153749465934
leaf_count=2741 717 61 1593 36 50 31 26 62 29 37 141 73 51 30 26 386 241 53 246 38 25 51 28 51 155 33 49 22 26 26
internal_value=-2.09726 -2.00146 -2.15916 -1.90531 -2.04134 -1.94049 -1.9214 -1.79678 -1.9977 -1.95186 -1.9737 -1.92015 -1.8798 -1.94329 -1.9369 -2.07601 -1.9404 -2.02982 -2.05183 -1.92729 -1.73429 -2.08105 -1.98163 -1.95172 -1.90567 -1.80827 -1.9559 -1.74003 -1.69332 -1.74115
internal_weight=0 377 583.542 110.542 266.458 83.4786 75.2654 27.0632 117.947 48.6061 44.7014 25.7168 20.735 13.8682 8.34786 148.511 68.1293 69.3411 57.0886 12.2525 18.7154 43.7589 10.6368 64.6286 32.1797 11.31 13.3296 7.13607 15.3493 11.8486
internal_count=7134 2800 4334 821 1979 620 559 201 876 361 332 191 154 103 62 1103 506 515 424 91 139 325 79 480 239 84 99 53 114 88
is_linear=0
shrinkage=1


Tree=5
num_leaves=31
num_cat=0
split_feature=56 44 97 67 32 81 101 46 3 74 45 75 87 92 0 9 75 48 16 70 34 88 46 104 88 5 10 0 12 80
split_gain=1004.09 84.7477 31.6573 26.4291 15.3408 11.4283 14.3369 18.2994 18.0444 17.3964 17.8915 12.0565 10.6447 15.5733 7.8851 7.88964 10.0436 7.53056 6.3706 6.3584 6.00486 9.1032 6.7821 7.54788 9.3634 10.7285 10.6335 10.6915 6.47928 13.8996
threshold=0.99107643961906444 0.07490197569131847 0.0060112080536782507 0.030043805018067301 0.014949259813874903 0.18178371340036392 0.65083760023117077 0.41353490948677069 0.14684630185365677 0.19991205632686612 0.024486133828759155 0.10455075278878206 0.20424508303403852 0.0049700578674673505 35.500000000000007 0.0039026945596560008 0.0028344125021248505 0.29987253248691564 0.42635829746723175 0.32691083848476415 0.12094907462596892 0.0010302898008376002 0.33947394788265234 0.0010346877388655502 0.0028630372835322508 0.11286767199635502 0.0026122065028175005 37.000000000000007 0.055093307048082303 0.0095735900104045504
decision_type=2 2 2 2 2 2 2 2 2 2 2 2 2 2 2 2 2 2 2 2 2 2 2 2 2 2 2 2 2 2
left_child=1 4 -3 14 -1 6 7 8 9 20 -11 -10 13 -7 17 -16 -17 -4 -13 -14 -5 -22 23 -23 26 28 27 -25 -26 -30
right_child=-2 2 3 5 -6 12 -8 -9 11 10 -12 18 19 -15 15 16 -18 -19 -20 -21 21 22 -24 24 25 -27 -28 -29 29 -31
leaf_value=-0.086851628421228538 0.33191218630844554 0.33098336879994233 -0.032807345408262703 -0.041437751194634657 -0.04747005985755727 0.28341059901761595 -0.021527145715075472 -0.07221804860831596 0.32552398798966153 0.35963981246665427 0.062004256614804701 0.16970052276084358 -0.00072250352358893338 0.043849480184231057 -0.059712383476806852 0.17757851633292729 0.00042917700527788321 -0.091422136610411681 -0.021428253996182596 0.1545095589254929 0.17398293827000355 -0.075465008426186475 -0.076493626807637771 0.010506966311073715 -0.025284411572241795 0.16141882158255041 0.26395527815981806 0.21166911499554986 0.25221148708135149 0.0084854808850638921
leaf_weight=187.37080779671669 83.028321713209152 2.7976555526256552 132.64805728197098 14.041567116975783 209.52653132379055 5.0304529815912264 89.440787322819233 15.325256325304506 3.334212660789488 3.0872385799884778 5.8404325097799301 4.5459613651037216 14.150322183966638 5.8919318914413452 22.06589037925005 3.3409367799758902 76.103344075381756 26.257348857820034 2.8293088674545288 3.2434962987899771 4.1319664716720572 6.1332324445247641 6.4547868818044654 9.74503441154957 28.521886140108109 4.7170965671539298 3.3638273775577536 3.6248636692762366 2.9081798940896979 11.974469721317289
leaf_count=1512 364 15 962 104 1590 32 636 111 21 20 41 29 98 42 162 24 555 193 20 23 29 44 46 69 204 32 23 26 21 86
internal_value=0 -0.0313865 -0.00448293 -0.00632767 -0.0660617 0.0170124 0.00931649 0.030443 0.0440937 0.0314295 0.164928 0.16772 0.0768101 0.154183 -0.0285851 -0.00681377 0.00787899 -0.0424928 0.0963795 0.0282243 0.0189649 0.029362 0.0216458 0.0305693 0.0405968 0.0181905 0.105031 0.0650463 0.00262476 0.0561113
internal_weight=0 908.447 511.55 508.752 396.897 248.336 220.02 130.579 115.254 104.545 8.92767 10.7095 28.3162 10.9224 260.416 101.51 79.4443 158.905 7.37527 17.3938 95.6169 81.5753 77.4434 70.9886 64.8554 48.1216 16.7337 13.3699 43.4045 14.8826
internal_count=7134 6770 3668 3653 3102 1757 1562 926 815 745 61 70 195 74 1896 741 579 1155 49 121 684 580 551 505 461 343 118 95 311 107
is_linear=0
shrinkage=0.1


Tree=6
num_leaves=31
num_cat=0
split_feature=78 70 101 48 34 40 23 29 71 70 78 72 22 90 106 84 54 44 61 88 105 39 105 52 107 64 98 92 46 16
split_gain=250.38 54.0025 52.369 14.7183 14.9223 14.0998 12.7509 15.288 9.3619 10.8206 14.2414 11.6443 9.27339 9.29223 9.11046 9.00568 8.39542 14.1435 8.14953 10.4879 7.83664 8.8739 10.6431 11.977 9.17827 9.43961 7.74372 13.1699 10.0558 9.38367
threshold=0.43053847551345825 0.030650624074041805 0.82970234751701366 0.39704340696334844 0.011642689350992401 0.0065735245589166507 0.051332298666238757 0.062065120786428403 0.0011233519762754002 0.24290908873081207 0.86226487159729015 0.0016346144257113001 0.0038337509613484005 0.032266130670905058 0.0014851689920760002 0.026344203390181006 0.19645222276449201 0.17621271312236789 0.0035047257551923004 0.0019787957426160006 0.59571433067321788 0.37187276780605322 0.49852670729160314 0.10949966311454766 0.22040230780839917 0.037117253988981212 0.050707038491964306 0.048024300485849304 0.14105939120054242 0.76543056964874279
decision_type=2 2 2 2 2 2 2 2 2 2 2 2 2 2 2 2 2 2 2 2 2 2 2 2 2 2 2 2 2 2
left_child=1 -1 5 4 -4 -2 7 14 -6 10 -10 -12 18 -14 -7 -3 17 -8 19 -11 21 22 23 -15 25 -23 27 29 -29 -16
right_child=2 15 3 -5 8 6 16 -9 9 12 11 -13 13 20 26 -17 -18 -19 -20 -21 -22 24 -24 -25 -26 -27 -28 28 -30 -31
leaf_value=-0.081286563510216028 -0.082373862699363254 -0.019459995305208862 -0.091474846606999394 0.035859638630373725 0.23892857578555726 0.096783893361553353 -0.022849518538629512 0.26460180522177923 0.18033191447808175 -0.012993136464479308 0.1212389113510797 -0.082014082698959628 0.2576958659759061 -0.037304966763297677 0.023992989831408434 0.14513903829912497 -0.0088139453042181386 0.20824416491613792 -0.071039916072762846 0.23125903896949371 0.17020437084853618 0.083079624615415307 0.31784698368323427 0.17944574788884235 0.011192177872193582 0.22440347018503526 -0.052999741210435762 0.061501795252538349 0.29893911025262543 0.081226905432033716
leaf_weight=259.0166412293911 11.312524050474165 267.34050200879574 3.5578485727310172 33.085498437285423 5.9228142946958533 25.572837635874748 5.6713402420282346 3.0720570534467688 5.0976377278566387 3.6826183348894101 4.1449072211980811 8.808912977576254 5.6272252798080435 3.4066586941480663 177.50853663682938 3.3658570349216452 90.958624824881554 4.9686250239610672 4.3039194494485855 3.363673597574234 26.606977000832558 23.406584203243259 3.6241766214370719 10.129938289523123 13.19567361474037 5.9221305400133124 9.8256622403860074 3.8692954927682868 3.3091333657503128 34.158595159649849
leaf_count=1909 84 1842 26 208 31 157 37 20 32 23 24 58 31 20 1140 23 591 32 27 20 151 135 21 57 80 34 63 25 21 212
internal_value=0 -0.0486452 0.0483825 0.0954457 0.110518 0.0275492 0.0310138 0.0428574 0.116166 0.110172 0.0387412 -0.0169781 0.122658 0.133189 0.0401781 -0.0174134 0.00101769 0.085066 0.0373809 0.103605 0.125069 0.104948 0.165647 0.124898 0.0804537 0.111616 0.0338477 0.037747 0.170956 0.0332293
internal_weight=0 529.723 534.114 163.887 130.802 370.227 358.915 257.316 127.244 121.321 18.0515 12.9538 103.27 91.9194 254.244 270.706 101.599 10.64 11.3502 7.04629 86.2921 59.6852 17.1608 13.5366 42.5244 29.3287 228.671 218.846 7.17843 211.667
internal_count=7134 3774 3360 978 770 2382 2298 1638 744 713 114 82 599 529 1618 1865 660 69 70 43 498 347 98 77 249 169 1461 1398 46 1352
is_linear=0
shrinkage=0.1


Tree=7
num_leaves=31
num_cat=0
split_feature=38 39 40 101 105 23 86 97 13 47 86 8 56 37 66 36 103 0 92 28 66 98 2 24 74 82 5 93 0 76
split_gain=691.217 199.231 165.294 197.56 51.6253 41.3531 23.1491 22.0487 22.1309 15.6354 15.4324 14.4037 13.7314 11.5595 9.55236 9.44758 11.4344 11.287 9.44601 9.20665 9.12247 8.30971 8.2018 7.9957 7.89204 8.24825 7.34484 11.6782 8.04355 7.21934
threshold=0.048476181924343061 0.074624922126531559 0.95916396379470836 0.4975859522819519 0.45034165680408483 0.087012451142072664 0.40805900096893311 0.22084645181894302 0.073335722088813768 0.19727419316768643 0.034660914912819855 0.13342459499835968 0.15515308082103732 0.0032179465051740005 0.068854507058858816 0.5787443518638612 0.074993330985307666 26.500000000000004 0.00060364653472780013 0.30584321916103369 0.043424595147371257 0.00039448194729625009 0.0036889411276206006 0.20979176461696628 0.050254272297024706 0.048016047105193103 0.035581557080149602 0.03463862463831896 37.000000000000007 0.0010339046129956501
decision_type=2 2 2 2 2 2 2 2 2 2 2 2 2 2 2 2 2 2 2 2 2 2 2 2 2 2 2 2 2 2
left_child=1 10 3 5 7 9 11 23 15 12 -1 -3 -2 -13 20 16 -9 -18 -14 26 -10 -11 -15 24 25 -5 28 -28 -19 -25
right_child=2 6 -4 4 -6 -7 -8 8 14 21 -12 13 18 22 -16 -17 17 19 -20 -21 -22 -23 -24 29 -26 -27 27 -29 -30 -31
leaf_value=0.12085935215717399 0.075079189103068419 0.045847346186305177 -0.15341098607939874 -0.0092627460642310585 -0.10754797971884736 -0.056850538191835435 -0.085184599262484229 -0.08310491579899161 -0.14232104404653098 -0.098488661800425509 0.079710730418088238 -0.082796026025667324 -0.093237241194829928 0.080214417814452543 -0.14041259835398981 0.01978351184345049 -0.13468840893861847 0.00085696890495923867 0.029259650714633496 -0.14433846746646029 -0.022488864315207323 0.01706531170061101 -0.0061075081532111115 -0.14948166518836983 0.043294833491919892 -0.096279513393880953 -0.11061819006542989 -0.008691073858679876 -0.059929789214316492 -0.038709761229617563
leaf_weight=408.41647693514824 102.54100233316422 78.867364943027496 119.56488952040672 98.527843654155731 192.74889644980431 65.717091888189316 27.646233201026917 93.867569208145142 9.9279374480247515 6.3598082661628714 117.32498225569725 17.99735626578331 7.3119668662548056 12.415647298097609 44.933696895837784 18.082131117582321 11.750119298696516 84.674832969903946 45.262793302536011 7.1429063081741324 17.641388088464737 289.79063767194748 97.01024329662323 6.4657180607318869 25.024829357862473 12.247270226478575 23.784637093544006 21.313841462135315 29.301531106233597 65.341889709234238
leaf_count=1402 343 262 383 322 620 213 90 304 32 21 397 59 24 41 145 59 38 275 150 23 57 958 319 21 82 40 77 69 95 213
internal_value=0 0.0775159 -0.0409681 -0.0304628 -0.0628092 0.0172622 0.000744387 -0.0476812 -0.0625665 0.0280551 0.111677 0.0122602 0.0537748 -0.00852817 -0.111981 -0.0502089 -0.0548647 -0.0399697 0.0122231 -0.0332739 -0.0656414 0.0145838 0.00368672 -0.0216959 -0.00742529 -0.0188833 -0.0282868 -0.0624468 -0.0147704 -0.0486839
internal_weight=0 759.678 1399.33 1279.76 762.777 516.983 233.937 570.028 362.421 451.266 525.741 206.291 155.116 127.423 72.503 289.918 271.835 177.968 52.5748 166.218 27.5693 296.15 109.426 207.608 135.8 110.775 159.075 45.0985 113.976 71.8076
internal_count=7134 2570 4564 4181 2472 1709 771 1852 1174 1496 1799 681 517 419 234 940 881 577 174 539 89 979 360 678 444 362 516 146 370 234
is_linear=0
shrinkage=0.1


Tree=8
num_leaves=31
num_cat=0
split_feature=75 83 24 93 86 57 44 73 102 54 91 91 78 47 52 99 92 9 29 66 108 7 87 26 37 54 13 104 105 8
split_gain=119.289 45.172 21.9918 23.6021 16.0696 15.4483 11.7195 21.9123 24.0224 19.1055 17.9926 17.7833 13.5679 9.51211 10.591 10.7763 35.7099 9.77359 16.2449 9.63255 19.1608 15.2277 30.4181 21.2529 21.2578 15.3974 22.2076 12.6003 10.4833 9.0324
threshold=0.10455075278878206 0.0083842175081372001 0.38713501393795019 0.39433801174163824 0.33208318054676061 0.00034301873529325001 0.32447279989719396 0.15209593623876569 0.0081603927537798517 0.41416087746620184 0.21072569489479062 0.15058041363954541 0.52066001296043407 0.91677498817443859 0.059763237833976711 0.0030465896707027504 0.0010091967415064003 0.077246252447366673 0.12713278830051419 0.061192395165562609 0.0034410877851769003 0.029361147433519304 0.022751205600798102 0.0041308538056909509 0.0027467875042929504 0.30496574938297277 0.024376244284212551 0.0067617022432386502 0.32967352867126465 0.32395048439502722
decision_type=2 2 2 2 2 2 2 2 2 2 2 2 2 2 2 2 2 2 2 2 2 2 2 2 2 2 2 2 2 2
left_child=1 -1 3 4 6 -3 10 8 9 -8 -2 -11 -9 14 -7 16 -16 18 19 20 -17 22 28 24 -23 26 27 -24 -22 -21
right_child=2 5 -4 -5 -6 13 7 12 -10 11 -12 -13 -14 -15 15 17 -18 -19 -20 29 21 23 25 -25 -26 -27 -28 -29 -30 -31
leaf_value=-0.065130623637348714 0.022048277663172952 0.49080624499512365 -0.084447299093055844 0.51650601321855649 0.50444444392891852 -0.082514000029724824 -0.0090968013988204175 0.28071009342243225 0.85028999488265444 0.76278452244054185 0.45303330390305868 0.18882007734865711 0.021012679253572666 -0.072871814963510625 -0.083099590099475137 0.011328189420333826 0.77807623535577475 -0.055934549527439981 0.46313758857562592 -0.056716633847336211 0.051059489119579721 0.057942652339398153 -0.082429468844315346 -0.01974873325222121 0.64307945383281739 0.89810475421727143 0.80659901972750436 0.47582451526109426 0.39882499908559133 0.043613591360918136
leaf_weight=127.74031599611044 7.4521473050117617 0.69687166064977546 2.5668386891484252 2.468192044645547 1.525529772043227 8.0399071127176267 1.3485481850802892 3.5247051790356618 0.96208218857645977 1.0604732744395735 1.1133742108941076 1.0994801223278043 4.6868221238255501 10.347465045750139 1.1846835128962983 24.409525375813246 0.81123128160834301 11.110967092216013 0.91441404074430366 15.465181291103361 5.2389341183006781 1.4225431419908985 0.928341735154391 7.9464566223323345 1.1017236113548277 0.71342450752854336 0.78708399832248677 0.7162577286362648 1.0386637076735494 21.375013466924429
leaf_count=3690 132 17 57 22 26 224 32 47 15 18 19 23 82 280 29 620 16 274 19 414 143 37 26 206 27 17 20 19 28 555
internal_value=0 -0.0242706 0.194422 0.222781 0.190946 0.0214146 0.168438 0.229473 0.40762 0.286233 0.0780691 0.47062 0.132485 0.0185339 0.0276984 0.0370096 0.266922 0.0320843 0.0440025 0.0392792 0.070698 0.143546 0.235773 0.0605488 0.313327 0.489612 0.369765 0.160702 0.108599 0.00149587
internal_weight=0 241.989 27.8082 25.2414 22.7732 114.249 21.2476 12.6821 4.47058 3.5085 8.56552 2.15995 8.21153 113.552 103.204 95.1644 1.99591 93.1685 82.0576 81.1431 44.303 19.8934 9.42271 10.4707 2.52427 3.14511 2.43168 1.6446 6.2776 36.8402
internal_count=7134 6661 473 416 394 2971 368 217 88 73 151 41 129 2954 2674 2450 45 2405 2131 2112 1143 523 253 270 64 82 65 45 171 969
is_linear=0
shrinkage=0.1


Tree=9
num_leaves=31
num_cat=0
split_feature=86 24 70 83 101 39 3 35 80 83 103 20 23 21 2 99 31 90 61 16 102 103 40 107 86 5 22 108 45 29
split_gain=433.324 84.1368 44.2954 24.3141 24.2155 17.7269 14.5728 18.1518 14.4971 12.9584 12.7951 19.8902 12.3275 15.6982 11.8221 15.6785 14.2922 11.1705 14.4555 10.5287 10.4812 10.3832 10.243 17.3773 13.5458 15.6344 12.2219 10.1961 10.6987 9.95759
threshold=0.16922575980424884 0.41293326020240789 0.092075504362583119 0.043769836425781208 0.4975859522819519 0.53308311104774486 0.066818624734878512 0.095349133014678969 0.0034979684278368503 0.0030041201971471002 0.047264903783798211 0.037666833028197254 0.0092278784140944013 0.010306697804480751 0.035543449223041507 0.15845420211553571 0.094880569726228714 0.22903580218553543 0.029820173978805504 0.79000279307365429 0.0045483449939637509 0.074993330985307666 0.087679080665111514 0.070299003273248659 0.34516565501689911 0.0090611339546739517 0.0040259049274027009 0.0023566025774925505 0.0021087890490889007 0.055433506146073307
decision_type=2 2 2 2 2 2 2 2 2 2 2 2 2 2 2 2 2 2 2 2 2 2 2 2 2 2 2 2 2 2
left_child=2 4 -1 8 -2 6 9 27 -3 10 11 -6 -10 -14 15 16 -5 21 -19 -9 -12 22 -11 24 25 26 -24 -8 -29 -16
right_child=1 3 -4 14 5 -7 7 19 12 17 20 -13 13 -15 29 -17 -18 18 -20 -21 -22 -23 23 -25 -26 -27 -28 28 -30 -31
leaf_value=-0.076744750734835013 -0.0097325519621752829 0.29200212948908905 -0.013371151724659559 0.40036569233805164 0.088614564788369973 0.19916816003825422 -0.092052355677957165 0.30501030489503012 0.053649559428285698 -0.025683054239253756 -0.092561012533589573 0.3942275474088433 0.2989379783134824 0.11639955370232979 0.17467448783974693 0.089810662814500453 0.13291735178136013 0.28090171634713029 0.04005954784030779 0.098221728036368638 0.091439981834722406 -0.0095036591861820049 0.32052268001395179 0.28629431003635614 0.25089005621376259 -0.011208612518603327 0.035619079891542685 0.26509728824071965 0.07008259458318071 0.33192373154494414
leaf_weight=391.09236727654934 63.641127549111843 4.3945740312337866 153.61095131933689 4.0328146368265179 6.0597689896821993 8.8552954345941526 3.5022520795464507 6.0243600755929929 30.665320113301277 12.133536338806151 3.9256524294614819 3.283508226275444 5.0855516195297232 64.019569009542465 6.6344575434923199 12.97393126785755 3.9603084623813629 3.7336693555116636 7.4944448620080948 4.1640888527035713 14.644570156931875 66.695638336241245 2.9033022224903169 3.6902791261672965 3.1712272316217414 19.730375826358795 3.127931147813797 3.07399559020996 33.153943881392479 10.246092811226843
leaf_count=3163 466 27 1171 24 41 56 25 40 205 88 27 22 32 402 38 79 25 24 50 27 99 475 20 25 19 138 22 21 226 57
internal_value=0 0.0767599 -0.0588729 0.139188 0.0442861 0.0607061 0.0545912 0.101416 0.114247 0.0390699 0.100567 0.196016 0.106417 0.129833 0.207833 0.157685 0.267855 0.0250775 0.120146 0.220494 0.0525431 0.0154999 0.0527597 0.081935 0.0558697 0.0318628 0.172765 0.0708789 0.0866299 0.270121
internal_weight=0 415.022 544.703 142.013 273.009 209.368 200.513 49.9186 104.165 150.594 27.9135 9.34328 99.7704 69.1051 37.8476 20.9671 7.99312 122.68 11.2281 10.1884 18.5702 111.452 44.7567 32.6231 28.9328 25.7616 6.03123 39.7302 36.2279 16.8806
internal_count=7134 2800 4334 889 1911 1445 1389 339 666 1050 189 63 639 434 223 128 49 861 74 67 126 787 312 224 199 180 42 272 247 95
is_linear=0
shrinkage=0.1


Tree=10
num_leaves=31
num_cat=0
split_feature=48 11 67 79 23 86 106 46 42 0 60 25 82 75 101 88 97 103 0 74 10 98 95 3 86 40 40 21 72 93
split_gain=658.005 75.4586 23.4461 13.1995 9.88173 9.53383 9.45435 11.1857 12.8075 8.71226 9.81808 7.95864 7.93962 7.92764 7.775 8.41109 8.79364 7.13624 6.99018 13.1764 16.8677 10.0306 9.80675 9.27679 9.3669 16.1789 8.93397 9.68375 8.62117 6.67551
threshold=0.95078215003013622 0.0044488648418337011 0.030043805018067301 0.0035901383962481507 0.020818927325308254 0.15762678533792493 0.0026537611847743006 0.41353490948677069 0.17264703661203387 35.500000000000007 0.076246269047260215 0.0026661016745492005 0.019379101693630201 0.34217473864555364 0.30307196080684667 0.0009996964363381002 0.052676333114504752 0.025815768167376501 30.500000000000004 0.19991205632686612 0.028699478134512856 0.020126697607338404 0.17543399333953852 0.11628768220543861 0.16295328736305234 0.29217886924743658 0.26412999629974371 0.10297115892171856 0.045635204762220362 0.042125297710299457
decision_type=2 2 2 2 2 2 2 2 2 2 2 2 2 2 2 2 2 2 2 2 2 2 2 2 2 2 2 2 2 2
left_child=1 5 9 -2 -4 -1 7 8 -6 11 -11 -3 14 18 15 -10 -17 -14 21 23 -21 22 29 26 -25 -26 27 -20 -22 -8
right_child=3 2 4 -5 6 -7 13 -9 12 10 -12 -13 17 -15 -16 16 -18 -19 19 20 28 -23 -24 24 25 -27 -28 -29 -30 -31
leaf_value=-0.081486768037723672 0.24231511968241143 0.084079297107047785 -0.055366192611034717 0.075139690252686714 -0.0046616990693011855 -0.039194001622994357 0.061678018326738339 -0.032965392903971324 0.25373943076605376 -0.047676750275998846 0.016608096183890596 -0.041871652297105696 0.29666111179544224 0.14305436284518333 0.01562185117659598 0.0059021077720386381 0.19483599695224607 0.10568603066724225 -0.0054416525576877926 0.23413604273968613 -0.056731692446926309 -0.059940072723190102 0.17496203270021726 -0.043064611351975701 0.3015548985274753 0.04744370151388131 -0.079004923865491988 0.19023756743454179 0.1289611673913221 -0.017080379401879925
leaf_weight=222.15975136309862 100.57356585562229 5.1408855915069571 19.384684167802334 4.955652527511119 13.629529275000094 70.125686876475811 13.688061259686945 11.711523883044718 3.9825569987297085 35.021371588110924 73.870897017419338 208.0344530120492 3.809800647199153 4.2286950498819342 10.079551696777342 6.0820828005671483 4.1405691355466843 4.0226340368390083 24.330449789762501 6.3410798460245159 5.6037608683109266 31.39169342815876 3.3624337986111632 5.9119938686490086 3.2750107645988455 10.663957357406614 16.162619523704052 2.8224065005779257 4.5143557861447334 50.343165755271912
leaf_count=1944 364 39 143 26 96 549 99 82 22 276 538 1589 22 28 67 42 26 27 176 37 39 226 23 39 20 72 120 19 31 353
internal_value=0 -0.0298893 -0.00905645 0.234465 0.0133133 -0.0713398 0.0188583 0.0542371 0.0765616 -0.0270793 -0.00406687 -0.0388342 0.11103 0.00772813 0.0827936 0.130456 0.0824276 0.198579 0.00452063 0.0265678 0.106259 -0.0132504 0.00849739 0.00580275 0.0624119 0.107148 -0.0201405 0.0148982 0.0261181 -0.000244067
internal_weight=0 873.836 581.55 105.529 259.483 292.285 240.098 57.4582 45.7467 322.068 108.892 213.175 32.1172 182.64 24.2848 14.2052 10.2227 7.83243 178.411 79.6256 16.4592 98.7854 67.3937 63.1664 19.851 13.939 43.3155 27.1529 10.1181 64.0312
internal_count=7134 6744 4251 390 1809 2493 1666 384 302 2442 814 1628 206 1282 157 90 68 49 1254 553 107 701 475 446 131 92 315 195 70 452
is_linear=0
shrinkage=0.1


Tree=11
num_leaves=31
num_cat=0
split_feature=101 70 101 40 18 58 71 67 38 4 62 59 30 92 84 75 28 80 31 24 57 43 98 62 43 66 66 96 64 37
split_gain=195.649 46.0592 38.5576 12.6355 14.7457 10.5976 10.4609 12.1959 10.1979 9.52001 9.02153 10.0991 18.0551 9.31256 18.2931 11.1218 10.9171 7.90641 7.74016 7.62175 12.4402 9.09556 15.5901 11.4866 15.2098 10.5111 7.34914 7.28107 8.37547 8.91286
threshold=0.40394482016563421 0.030650624074041805 0.83387023210525524 0.0065735245589166507 0.0011941371485590503 0.49200911819934845 0.069069825112819658 0.084735050797462463 0.018152449280023502 0.090615428984165164 0.034422859549522351 0.018475350923836203 0.0024070134386419504 0.012421878520399303 0.01324481889605515 0.084335558116435963 0.037302395328879308 0.0059255366213619006 0.026583564467728103 0.11929715797305102 0.0012186045059934003 0.22453432530164719 0.027700008824467603 0.13623992353677747 0.15659271180629727 0.20170527696609494 0.054219121113419456 0.00047175340296230008 0.0033152716932817504 0.0015389636391773501
decision_type=2 2 2 2 2 2 2 2 2 2 2 2 2 2 2 2 2 2 2 2 2 2 2 2 2 2 2 2 2 2
left_child=1 -1 3 -2 27 8 7 19 -4 17 -10 -12 -13 16 -15 26 -14 -7 -11 20 -6 22 -21 24 -24 -25 -16 -5 29 -29
right_child=2 -3 5 4 6 9 -8 -9 10 18 11 12 13 14 15 -17 -18 -19 -20 21 -22 -23 23 25 -26 -27 -28 28 -30 -31
leaf_value=-0.07916857873236921 -0.081138457204289124 -0.016844601994988655 -0.042239045989495627 -0.038747399875893269 0.12090908394539342 -0.0089377958303527311 -0.015735344099769483 0.21070804095950135 0.18653442363893122 0.078741928693574728 -0.013243983080316239 0.25752317084914433 0.15261311866295044 0.21963107606830479 -0.067465166700690637 0.23729111908216913 0.028432288728899788 0.19144077593030404 -0.07642949963540499 0.033084180955016348 -0.042085893330102341 -0.0079601177351556716 0.085852028513635548 0.15961179993039287 0.38900893025763206 -0.066645894781516876 0.082505750275340003 0.099535284879218158 0.021540223572221309 0.24970182884448675
leaf_weight=232.39364222437143 11.454940892755983 242.11945204436779 5.737744837999343 3.513554751873019 5.5256366506218901 3.4812621921300906 66.696858152747154 3.610072895884513 9.7599867880344373 4.5842662304639807 9.3571811616420728 6.4405674040317527 8.66908450424671 12.252982139587401 3.4918967857956877 4.450898900628089 38.607752427458763 4.5334310382604599 10.759206369519232 201.40359658002853 30.687595352530479 47.409735530614853 3.3140848577022544 4.7040869295597059 3.3057881444692612 3.643602266907692 50.858480125665665 11.261275127530103 6.8339764028787604 6.0899420976638785
leaf_count=1898 94 1710 39 21 32 21 430 23 50 27 51 34 44 65 21 23 210 27 65 1251 194 295 20 28 20 23 273 67 41 37
internal_value=0 -0.0473679 0.0391323 0.0224087 0.0253889 0.0787171 0.0201246 0.0280024 0.0884966 0.0160724 0.0937098 0.0869554 0.0944698 0.085595 0.108478 0.0853161 0.0512031 0.104404 -0.030068 0.0258037 -0.0172151 0.0317096 0.0404017 0.138867 0.237241 0.0608548 0.0728704 0.0957671 0.115309 0.152241
internal_weight=0 474.513 582.439 409.455 398 172.985 370.301 303.604 149.627 23.3582 143.889 134.129 124.772 118.331 71.0543 58.8013 47.2768 8.01469 15.3435 299.994 36.2132 263.781 216.371 14.9676 6.61987 8.34769 54.3504 27.6987 24.1852 17.3512
internal_count=7134 3608 3526 2576 2482 950 2316 1886 810 140 771 721 670 636 382 317 254 48 92 1863 226 1637 1342 91 40 51 294 166 145 104
is_linear=0
shrinkage=0.1


Tree=12
num_leaves=31
num_cat=0
split_feature=36 39 40 78 19 55 47 70 97 56 8 94 82 86 15 39 37 86 99 31 92 98 86 81 80 16 14 20 28 16
split_gain=535.801 145.446 130.785 161.98 37.3879 34.9045 22.1167 17.1323 16.7158 13.8475 12.6909 11.2284 11.0245 10.7529 10.4329 10.0828 9.55058 8.99607 8.23077 8.18612 8.06085 7.90173 8.32996 7.79395 8.15879 7.83319 7.91805 7.67197 8.0221 9.72285
threshold=0.039424562826752607 0.075896866619586903 0.95916396379470836 0.57288172841072094 0.088608380407094914 0.35266943275928503 0.19727419316768643 0.21584283560514453 0.24082926660776138 0.15515308082103732 0.035736713558435405 0.0040193339809774511 0.35326512157917028 0.077775537967681871 0.18327462673187253 0.40315312147140508 0.0081679187715053021 0.19589357078075406 0.037436954677104908 0.043552208691835355 0.00060364653472780013 0.00039448194729625009 0.10797392576932906 0.0027787446742876501 0.0017793396255000502 0.35562688112258917 0.0060074757784604515 0.071459446102380711 0.10143788158893581 0.90852156281471264
decision_type=2 2 2 2 2 2 2 2 2 2 2 2 2 2 2 2 2 2 2 2 2 2 2 2 2 2 2 2 2 2
left_child=1 10 3 4 6 8 9 13 11 19 -1 18 27 -3 -13 21 -9 -12 -5 -2 -11 -8 -23 24 -15 -25 -27 -7 29 -29
right_child=2 7 -4 5 -6 12 15 16 -10 20 17 14 -14 23 -16 -17 -18 -19 -20 -21 -22 22 -24 25 -26 26 -28 28 -30 -31
leaf_value=0.11239846906777906 0.074184991729380909 0.088807385163282848 -0.13447970066879772 -0.020972012363362654 -0.053990732984808276 -0.1276244018594607 -0.091231687218128757 -0.09752407198650126 -0.057566446858871349 -0.088455594347998295 0.078608649695932425 0.024571598110055111 -0.12283501348753237 -0.049754722871120254 -0.10452716503078928 -0.087166249609788957 -0.014426099312506388 -0.046864317654520982 -0.090217817732355765 -0.034781759111834856 0.022459340272776497 0.031269157443648873 0.0009717250064550792 0.033309006429817871 0.053803355002164224 -0.089012479114749077 0.015392011763169617 0.025213772644274324 -0.075082393512510753 -0.10362329410032596
leaf_weight=394.28464570641518 115.01936295628548 19.733371019363403 116.21606543660164 69.100039184093475 78.74621257185936 24.210902273654938 7.6470605731010428 21.474239975214005 190.20826262235641 7.6842913329601279 75.735240012407303 71.728958666324615 56.212436586618423 9.28086870908737 6.8583453297615042 11.089537233114241 38.858003079891205 6.1804706752300254 22.838883996009827 7.3338950872421256 44.483881771564484 138.24414548277855 264.1239387691021 17.274643033742905 42.201260477304459 19.747636318206791 11.490949064493178 17.948378950357441 209.91808140277863 8.6951947808265668
leaf_count=1436 397 67 383 224 254 78 25 70 613 25 266 235 181 31 22 36 127 21 74 25 149 462 871 58 141 65 38 58 674 28
internal_value=0 0.0760089 -0.0326813 -0.0239314 0.0107664 -0.0584579 0.0193278 -0.000550199 -0.0371843 0.0492603 0.104957 -0.0144496 -0.0826676 0.0213462 0.0133051 0.00692262 -0.0440034 0.0691418 -0.0381736 0.0676535 0.00612174 0.00946741 0.0113812 0.00803324 0.0351346 -0.0207266 -0.0506078 -0.0740091 -0.0685218 -0.0168325
internal_weight=0 656.261 1468.31 1352.09 674.372 677.719 595.626 180.061 360.734 174.521 476.2 170.526 316.985 119.729 78.5873 421.105 60.3322 81.9157 91.9389 122.353 52.1682 410.015 402.368 99.9954 51.4821 48.5132 31.2386 260.773 236.562 26.6436
internal_count=7134 2320 4814 4431 2244 2187 1990 597 1168 596 1723 555 1019 400 257 1394 197 287 298 422 174 1358 1333 333 172 161 103 838 760 86
is_linear=0
shrinkage=0.1


Tree=13
num_leaves=31
num_cat=0
split_feature=87 77 90 49 14 14 77 63 49 58 73 93 74 94 6 7 39 35 90 96 58 32 69 75 108 76 22 104 87 97
split_gain=86.4049 30.5583 13.9046 12.9053 17.4396 19.3755 12.6857 11.1651 13.9417 9.79208 9.19865 12.406 8.77144 8.61676 13.8724 8.25138 8.07432 7.4664 7.13374 12.8283 14.0838 36.0493 10.2289 12.9699 16.2257 17.5818 13.5829 16.7865 10.9694 6.4854
threshold=0.022346049547195403 0.12532830983400342 0.11203284934163092 0.015218185726553202 0.0064762383699416507 0.0058734617196023005 0.0066214292310178011 0.0050455254968255507 0.0047529169823974007 0.42022432386875158 0.15209593623876569 0.39433801174163824 0.0025459291646256505 0.0034789004130288503 0.0025321636348962502 0.098705213516950566 0.027782655321061552 0.0018605227232910001 0.054328724741935709 0.0067366319708525501 0.2274855971336365 0.14186186343431473 0.038203813135623911 0.042601237073540611 0.0034410877851769003 0.0041370859835296011 0.0034108555410057007 0.0018845887971110503 0.17517052590847018 0.037237443029880461
decision_type=2 2 2 2 2 2 2 2 2 2 2 2 2 2 2 2 2 2 2 2 2 2 2 2 2 2 2 2 2 2
left_child=6 18 3 4 5 9 -1 8 -8 13 -11 -12 17 14 16 -14 -3 -9 19 22 21 -21 23 24 29 26 27 -26 -24 -2
right_child=1 2 -4 -5 -6 -7 7 12 -10 10 11 -13 15 -15 -16 -17 -18 -19 -20 20 -22 -23 28 -25 25 -27 -28 -29 -30 -31
leaf_value=-0.068078094797915448 0.11293063478931871 0.20286252424962836 -0.084553632483471378 0.4495546895045115 -0.018161677672047221 0.53697718985067 0.0039670189804396376 0.019075178733242951 0.54863245476543154 0.42463205361660955 0.097462349813994875 0.37973909353366231 -0.029960999286565065 -0.084744329560574705 0.34722533554724255 0.29526978396150744 -0.087442666894880144 0.4359961972915149 0.0028834503380931117 0.065262515152160985 0.025359916081604879 0.8711952690514787 -0.0070557309238013276 0.36443377632962948 0.44916462865078244 -0.08331256299113457 0.54621754242715104 -0.083358563654984147 0.34466919356216547 -0.082847283799405702
leaf_weight=106.39921948872507 2.5406080167740566 1.6796533800661726 2.1526566669344893 1.6618489734828461 4.4052057042717925 1.5884171277284611 1.1553864497691382 0.97507412545382866 0.79217189736664284 2.1389276571571809 4.8428722620010376 2.2947302311658859 53.224345520138741 2.0501957200467587 2.2896071560680866 0.79169092699885268 2.2301230505108833 0.76774880848824978 34.863835196942091 1.3498901538550847 1.8434573374688623 0.94252933189272869 23.511858988553289 1.7832092028111208 1.120707897469402 1.4971029032021759 1.5803530886769293 1.2546326406300066 0.92144917696714301 5.0659198071807623
leaf_count=3335 59 13 50 14 66 18 33 25 22 25 66 13 1475 37 27 16 34 16 864 34 45 21 544 35 18 35 23 29 12 130
internal_value=0 0.0683576 0.159385 0.180238 0.161209 0.202547 -0.0476024 -0.0098492 0.22551 0.172237 0.242726 0.188214 -0.0180699 0.0929742 0.151747 -0.0251942 0.0372734 0.202737 0.0365704 0.0636243 0.231142 0.396622 0.0459841 0.111461 0.0769184 0.20857 0.319037 0.167891 0.00620881 -0.0174567
internal_weight=0 105.61 27.3342 25.1816 23.5197 19.1145 164.106 57.7064 1.94756 17.5261 9.27653 7.1376 55.7589 8.24958 6.19938 54.016 3.90978 1.74282 78.2756 43.4117 4.13588 2.29242 39.2758 14.8425 13.0593 5.4528 3.95569 2.37534 24.4333 7.60653
internal_count=7134 2212 363 313 299 233 4922 1587 55 215 104 79 1532 111 74 1491 47 41 1849 985 100 55 885 329 294 105 70 47 556 189
is_linear=0
shrinkage=0.1


Tree=14
num_leaves=31
num_cat=0
split_feature=86 97 105 47 41 24 86 64 46 40 79 48 0 31 23 31 65 65 80 76 15 98 59 102 29 36 22 19 78 28
split_gain=336.923 58.556 38.0845 19.9298 18.4881 17.9899 16.6945 15.3722 11.754 11.6145 11.5566 13.0998 10.8166 10.8062 16.1653 11.9113 10.2949 10.0002 9.76176 11.7913 9.53821 9.47386 12.2947 9.12718 9.06731 16.2073 13.9907 9.02464 8.73944 11.9123
threshold=0.16130457073450086 0.41155675053596502 0.070628747344017015 0.4931600689888001 0.028568721376359452 0.3074509352445603 0.35175846517086035 0.024582366459071605 0.2644572407007218 0.43446364998817449 0.0023907721042633005 0.080265112221241011 26.500000000000004 0.0019512911676428503 0.0088511090725659509 0.0043622490484267014 0.0097036869265139016 0.0055446811020373509 0.026962670497596205 0.011177090462297151 0.030861585400998554 0.0026519719976931502 0.028473675251007 0.031239996664226003 0.062065120786428403 0.3530520498752594 0.077462960034608813 0.0017322640051133501 0.60305386781692516 0.057688564062118509
decision_type=2 2 2 2 2 2 2 2 2 2 2 2 2 2 2 2 2 2 2 2 2 2 2 2 2 2 2 2 2 2
left_child=2 3 -1 -2 6 -3 8 9 10 -8 11 27 16 -7 15 17 -12 -15 19 20 -16 -10 -23 -20 25 -25 -26 -5 -24 -30
right_child=1 5 -4 4 -6 13 7 -9 21 -11 12 -13 -14 14 18 -17 -18 -19 23 -21 -22 22 28 24 26 -27 -28 -29 29 -31
leaf_value=-0.079374716117614597 -0.011094305478139927 0.0035162075736281809 -0.02215182064046857 0.10360923025684693 -0.034368347071424714 0.27095634631457016 0.070322800771255745 0.24689830984772115 0.0016771503120790723 0.2115289788044438 0.24361018602190454 0.27567098003135782 -0.010815670481020861 0.017608981049998623 0.25272912524002755 -0.027360882542621513 0.035073104587559453 0.22805229861966814 0.26971428543114262 0.057492321834282024 0.096413380729949968 0.23682332350073693 0.17982797830855041 0.15052182893454025 0.29206427848325428 -0.021044130053220512 0.075156975624639119 -0.070957707146277735 -0.013331518401559987 0.11446659728849128
leaf_weight=306.12287582457066 67.387809351086617 13.389901734888552 187.57432020455599 10.143767319619657 23.392847046256065 4.8962122946977606 57.906108722090721 6.4112808704376212 12.578940622508524 6.4764434695243827 3.2658137381076804 3.2267953604459754 69.747876882553101 4.4125747829675692 7.0896790772676459 11.764052763581274 8.6044861525297147 4.6246640980243683 6.7964871674776068 26.534677848219872 8.6861275285482389 5.7232072204351416 6.963857799768447 36.836159452795982 8.8515904098749143 6.4738399982452384 4.4780386090278617 4.182548761367797 13.599127545952799 15.730352640151976
leaf_count=2741 501 89 1481 67 151 28 354 38 83 37 22 19 486 26 37 71 59 27 37 150 46 36 47 194 42 35 21 26 87 96
internal_value=0 0.0613039 -0.0576336 0.0371288 0.0502347 0.113939 0.0590479 0.0992319 0.0405473 0.0845272 0.0200334 0.0936437 0.00420251 0.125188 0.119548 0.0389635 0.0924468 0.1253 0.1354 0.0981971 0.166662 0.0778102 0.100603 0.160213 0.147074 0.124877 0.219195 0.0526446 0.0791219 0.0552108
internal_weight=0 460.175 493.697 315.341 247.953 144.834 224.561 70.7938 153.767 64.3826 99.1713 17.5531 81.6182 131.444 126.548 20.8013 11.8703 9.03724 105.747 42.3105 15.7758 54.5955 42.0165 63.4361 56.6396 43.31 13.3296 14.3263 36.2933 29.3295
internal_count=7134 2912 4222 2109 1608 803 1457 429 1028 391 679 112 567 714 686 124 81 53 562 233 83 349 266 329 292 229 63 93 230 183
is_linear=0
shrinkage=0.1


Tree=15
num_leaves=31
num_cat=0
split_feature=48 1 67 56 100 75 81 101 46 36 59 1 63 59 36 21 74 106 100 70 75 16 36 79 69 49 82 72 35 40
split_gain=472.12 66.2955 15.8427 13.6399 9.53185 8.15213 7.93665 10.329 13.1043 9.98263 8.57769 10.2029 11.0767 12.681 9.98447 8.81471 7.42551 10.1056 9.36243 7.37615 7.71188 9.24283 6.76493 6.59526 6.07586 5.99015 5.46909 5.44337 10.6761 5.45889
threshold=0.95078215003013622 0.0069274955894797511 0.030043805018067301 0.034389296546578359 0.0019852884579449506 0.0020317175658419507 0.18178371340036392 0.65083760023117077 0.42461515963077551 0.13868086785078046 0.16877507418394086 0.13548882305622104 0.030312115326523757 0.015889745205640755 0.23439311981201175 0.092773620039224555 0.16297563910484314 0.0042356161866336514 0.0045882223639636512 0.069552283734083162 0.042601237073540611 0.29865428805351263 0.18556538224220279 0.036403421312570509 0.024022874422371353 0.0014036283828317501 0.0082565094344317514 0.0061270648147910512 0.032941119745373657 0.035750372335314702
decision_type=2 2 2 2 2 2 2 2 2 2 2 2 2 2 2 2 2 2 2 2 2 2 2 2 2 2 2 2 2 2
left_child=1 3 5 -1 -2 -3 7 8 9 -4 11 12 -11 19 22 -13 17 18 25 23 -21 -22 -12 -14 -7 -8 -25 29 -29 -5
right_child=4 2 6 27 -6 24 16 -9 -10 10 14 15 13 -15 -16 -17 -18 -19 -20 20 21 -23 -24 26 -26 -27 -28 28 -30 -31
leaf_value=-0.080288176208482775 0.19454018369679926 0.16248688549993839 -0.019691710631221195 -0.012606283755578099 0.061497080490522063 -0.01794282644040229 0.13243704620581723 -0.021423648302493159 -0.074920643351903293 0.19703162938145155 0.15714630587517781 0.24270029960981879 -0.091856101594176648 -0.020269392258861676 0.28129883631226715 0.067613081435568517 0.18884819924523555 -0.031262315944201209 0.23418722992638219 0.26170194380575301 0.19573630440701709 -0.012636830742514083 -0.035235691585785919 0.1322478910048345 -0.058899299999935574 -0.0093616679934836779 -0.013316680867340603 0.16980476923896617 -0.023241869584029629 -0.06962373336906244
leaf_weight=192.76605361700058 109.74999138712883 2.3455310463905326 29.384917065501213 23.520426779985428 5.6629460304975501 216.96488687396049 5.1626429259777122 89.106702990829945 12.698124468326567 3.4051428064703932 3.9609993994235975 3.7777980268001548 3.8801210373640087 44.152292564511299 3.1433919221162796 12.037672601640223 3.8632822483777991 11.360031738877295 3.5967356711626044 3.1004676446318618 3.7649901956319791 4.8981720358133316 3.3940057158470154 5.2776162028312665 43.479966521263123 7.0439129024744034 5.0516911298036575 3.0772758573293677 41.482455551624298 58.693163558840752
leaf_count=1875 363 17 225 207 27 1686 28 636 100 21 25 19 28 308 17 67 23 78 20 21 23 32 22 33 329 45 35 25 321 478
internal_value=0 -0.0276223 -0.0057591 -0.0635332 0.188012 -0.0231089 0.011639 0.00526152 0.0220153 0.0315403 0.0466183 0.036571 0.0208988 0.0123461 0.132125 0.109436 0.0591275 0.0406781 0.0923916 0.0677901 0.126359 0.0779217 0.0683706 0.0193019 -0.0247803 0.0506107 0.0610575 -0.0380564 -0.00991015 -0.0533117
internal_weight=0 844.39 524.851 319.539 115.413 262.79 262.061 231.034 141.927 129.229 99.8444 89.346 73.5305 70.1254 10.4984 15.8155 31.0266 27.1633 15.8033 25.9731 11.7636 8.66316 7.35501 14.2094 260.445 12.2066 10.3293 126.773 44.5597 82.2136
internal_count=7134 6744 3838 2906 390 2032 1806 1612 976 876 651 587 501 480 64 86 194 171 93 172 76 55 47 96 2015 73 68 1031 346 685
is_linear=0
shrinkage=0.1


Tree=16
num_leaves=31
num_cat=0
split_feature=70 101 16 10 4 60 55 79 101 44 54 0 0 103 107 80 20 106 45 30 90 12 99 99 37 35 86 59 91 56
split_gain=159.402 56.403 10.3021 10.7566 11.7639 9.82301 11.2275 12.28 9.78161 9.88904 13.6843 9.43344 9.64415 9.3461 9.78379 9.08702 13.895 8.85357 14.9143 8.5271 12.9884 19.2124 8.41079 18.4671 10.4143 10.9703 9.51475 10.8829 9.5181 12.3952
threshold=0.030650624074041805 0.65418046712875377 0.1972764655947685 0.0014124254812486004 0.014059991110116202 0.029444825835525951 0.098145283758640262 0.0031536594033241007 0.83387023210525524 0.16741889715194699 0.24991774559020996 28.500000000000004 37.000000000000007 0.020178039558231754 0.013169473037123651 0.012008721008896753 0.071459446102380711 0.0023612410295754008 0.00075357296736905009 0.0057078001555055007 0.029048970900475955 0.013824164401739803 0.057834971696138306 0.069329347461461965 0.0016901263734325504 0.01365601550787685 0.30152282118797308 0.077157527208328205 0.0056390287354588014 0.034389296546578359
decision_type=2 2 2 2 2 2 2 2 2 2 2 2 2 2 2 2 2 2 2 2 2 2 2 2 2 2 2 2 2 2
left_child=-1 2 -2 17 -5 6 -6 -8 9 10 22 15 -13 14 -11 -7 -17 -4 -19 20 21 -20 24 -24 25 -3 27 28 29 -25
right_child=1 8 3 4 5 11 7 -9 -10 13 -12 12 -14 -15 -16 16 -18 18 19 -21 -22 -23 23 26 -26 -27 -28 -29 -30 -31
leaf_value=-0.075144592960265266 -0.03191744033333465 -0.012588858610199481 0.012455141903353591 -0.068207099848215588 -0.021744670141879138 0.012030972373672321 0.06814255560324381 0.28412838071849439 0.066433687371753022 0.0056966806360032847 0.22260165703564755 -0.028037296382029689 0.022654127319837236 -0.0010244517508072686 0.23305801507530988 0.29116312759682611 0.044681876191147343 -0.071460846411311604 0.22509115729557427 0.017240475470216159 0.33116949022530523 -0.033603057280050044 0.26728131334416033 -0.028581999812513876 -0.03177893072824433 0.20283654846645838 0.019121787540999375 0.22494524882293679 -0.071152626929319715 0.18181927602487954
leaf_weight=219.6643857806921 94.404358871281147 4.7959460765123385 39.536339454352856 25.206367008388042 11.209746174514295 48.333133541047573 15.46666879206896 3.1722771972417823 183.16121923178434 3.9286122843623152 4.6857181638479224 138.33436077833176 51.50525327026844 78.759800523519516 3.6521318107843399 3.1147205233573905 8.607796370983122 4.758948981761935 6.5928785279393214 5.4218132570385924 3.5372947305440894 5.0851089060306549 4.3810967952013007 4.3465343713760429 22.128969699144363 4.6614834666252136 32.052718088030815 5.5989467203617087 3.9772672057151786 7.8693575412034988
leaf_count=1986 702 29 261 180 76 318 102 20 942 23 26 893 335 481 22 20 53 33 44 36 24 35 24 24 136 26 185 32 23 43
internal_value=0 0.0206735 -0.00243212 0.00509336 -0.0027757 0.00312001 0.0573399 0.104903 0.0501451 0.0336473 0.0559999 -0.00335627 -0.0142842 0.00918286 0.115231 0.0311877 0.110173 0.0420498 0.0881225 0.124923 0.163294 0.112444 0.0473079 0.0698473 0.00575908 0.0935924 0.053783 0.104764 0.0632103 0.106956
internal_weight=0 828.287 464.287 369.883 304.95 279.744 29.8487 18.6389 364 180.839 94.498 249.895 189.84 86.3405 7.58074 60.0557 11.7225 64.9324 25.396 20.6371 15.2153 11.678 89.8123 58.2259 31.5864 9.45743 53.8448 21.7921 16.1932 12.2159
internal_count=7134 5148 3132 2430 1997 1817 198 122 2016 1074 548 1619 1228 526 45 391 73 433 172 139 103 79 522 331 191 55 307 122 90 67
is_linear=0
shrinkage=0.1


Tree=17
num_leaves=31
num_cat=0
split_feature=32 42 47 42 24 24 24 86 5 27 34 101 40 56 0 9 67 79 94 8 0 92 47 100 28 16 7 8 1 45
split_gain=423.335 121.511 120.094 56.4738 55.4814 33.6909 24.0444 20.4809 19.9432 13.315 12.7431 10.2922 13.8843 10.1301 9.92727 12.7029 9.47559 9.33362 11.169 9.65773 9.04125 8.64871 8.50088 8.77963 8.49623 7.93851 8.03938 7.34668 7.04913 10.2649
threshold=0.022693203762173604 0.20068249106407163 0.52983769774436962 0.98973625898361217 0.068326227366924272 0.41293326020240789 0.092437673360109315 0.24619513005018231 0.23558221012353897 0.0023198063718154502 0.053843040019273758 0.7993738353252412 0.17582201957702639 0.015448751393705601 28.500000000000004 0.086535740643739659 0.03361209668219086 0.0068364941980689009 0.0019678005483001007 0.12999117374420169 26.500000000000004 0.00035632679646365004 0.82020786404609691 0.025861521251499601 0.035895172506570809 0.58748462796211254 0.011978947091847601 0.13342459499835968 0.014472153037786402 0.0013704038574360001
decision_type=2 2 2 2 2 2 2 2 2 2 2 2 2 2 2 2 2 2 2 2 2 2 2 2 2 2 2 2 2 2
left_child=4 2 6 5 -1 8 10 17 14 -8 -2 12 16 27 15 -3 -9 25 -19 -20 24 -16 -23 -24 -11 -4 -27 -6 -22 -30
right_child=1 3 7 -5 13 -7 9 11 -10 20 -12 -13 -14 -15 21 -17 -18 18 19 -21 28 22 23 -25 -26 26 -28 -29 29 -31
leaf_value=0.10287392070368784 0.081823903171613699 -0.026428208955185259 0.044578539746257501 -0.12406028856790241 0.10667487825040133 -0.090320699768492829 -0.059957535689338814 -0.037539743766843381 -0.10391807471277373 0.023612320582600668 0.03610034472254682 -0.07566813511355644 0.053200135778823147 0.0010927420610989007 -0.13122813574007544 -0.1068176149670981 -0.11811819154436692 -0.071748920369757468 0.11250383203710974 0.013358603818857607 0.042937017738277856 -0.0076952379549787564 -0.078330722983282031 0.051485412372614781 -0.087444874302002637 -0.034968145849878923 -0.14571806469773671 0.012682461918938574 -0.083490181183623752 0.017297843017289826
leaf_weight=363.07089096307755 97.626350462436676 55.972459733486176 10.843108773231505 104.15091049671173 19.619961589574814 121.91242775321007 24.513732731342316 114.60309264063835 34.413496434688568 12.81673124432564 162.25833737850189 134.17400825023651 15.184171229600905 75.178988724946976 6.423331767320632 30.295636087656021 16.72339591383934 12.015463739633558 12.393761366605757 47.402975350618362 104.62696436047554 270.12902382016182 32.741452842950821 6.1956132650375357 14.893403768539427 55.370950549840927 7.4344913065433493 14.433328866958616 11.40376430749893 88.726101875305176
leaf_count=1418 358 184 36 364 70 397 82 370 112 43 560 434 49 256 21 98 54 39 41 154 353 882 106 20 49 180 24 48 38 294
internal_value=0 -0.0236306 -0.000574565 -0.056462 0.0840746 -0.0438466 0.031829 -0.0398763 -0.0308568 0.010139 0.0532765 -0.0556582 -0.0373332 0.0215885 -0.0245986 -0.0546594 -0.0478008 -0.00942318 0.0162296 0.0339079 0.0175307 -0.0163787 -0.0139918 -0.0576746 -0.0360777 -0.0344364 -0.048078 0.0668366 0.0247857 0.00581912
internal_weight=0 1605.25 943.011 662.234 472.303 558.083 516.865 426.145 436.171 256.981 259.885 280.685 146.511 109.232 401.758 86.2681 131.326 145.461 71.8122 59.7967 232.467 315.489 309.066 38.9371 27.7101 73.6486 62.8054 34.0533 204.757 100.13
internal_count=7134 5342 3158 2184 1792 1820 1777 1381 1423 859 918 907 473 374 1311 282 424 474 234 195 777 1029 1008 126 92 240 204 118 685 332
is_linear=0
shrinkage=0.1


Tree=18
num_leaves=31
num_cat=0
split_feature=87 87 77 66 106 63 90 37 68 92 100 0 78 93 63 44 32 21 93 52 7 11 90 37 22 45 33 79 17 8
split_gain=68.4181 20.5629 11.7524 9.64216 8.8945 8.34381 8.34035 9.8666 11.6279 10.8329 15.5282 8.4161 11.6173 10.7636 15.5822 10.8405 14.9532 9.24157 7.91888 7.23578 8.07529 14.2152 7.12085 7.03402 6.83436 9.29664 7.72483 6.63599 9.83288 6.14966
threshold=0.022346049547195403 0.20424508303403852 0.0066214292310178011 0.0091012697666882515 0.0002939735277322501 0.0036262396024539507 0.062613032758235918 0.0025404868647456004 0.0025892267003655004 0.0049700578674673505 0.0016102815861813503 26.500000000000004 0.37056982517242437 0.029973610304295951 0.038754194974899257 0.32447279989719396 0.39406745135784149 0.12989023327827451 0.0018181290943175001 0.45052926242351538 0.057829417288303306 0.087645478546619374 0.045743709430098506 0.0044625913724303011 0.0022828048095107005 0.015665480867028205 0.0072478794027119511 0.021923689171671853 0.022024679929017955 0.74590912461280834
decision_type=2 2 2 2 2 2 2 2 2 2 2 2 2 2 2 2 2 2 2 2 2 2 2 2 2 2 2 2 2 2
left_child=2 6 -1 -3 -4 -6 7 19 9 10 -9 12 -10 14 23 -15 17 -17 -7 27 -21 -22 -14 -13 -5 26 -26 28 -2 -8
right_child=1 3 4 24 5 18 29 8 11 -11 -12 13 22 15 -16 16 -18 -19 -20 20 21 -23 -24 -25 25 -27 -28 -29 -30 -31
leaf_value=-0.06657058796682723 -0.016023196465386035 0.29527471784993842 0.34550616787249849 -0.019234674529432536 0.31828644399277206 0.2953140689405977 -0.0038992069224904322 0.361749727688432 0.41969461086128235 0.44991753110370158 -0.083617253199576913 0.23679553530067787 -0.03187176982436956 -0.041075808458406277 0.46253461566064796 0.12580923650845371 -0.0035514673154333752 0.46199666122927385 -0.022817509409215453 -0.032235443464878222 0.4590570286050687 0.029988327424287593 0.29282010921755386 -0.083168734276888173 0.13733279514228136 -0.033234664682583265 0.3806755491264866 -0.01996476866011648 0.38122623235210057 0.27239963200677281
leaf_weight=97.27765298075974 1.4887156859040325 4.2535167858004561 0.69716386683285136 2.7342376150190812 0.74631693959236045 0.79370393417775531 35.207071831449866 1.5339356400072568 1.5793230943381811 1.6681557800620792 1.5988473836332557 1.2319177351892023 1.8995194062590601 11.575806768611075 1.4504894018173216 1.8724520020186886 4.779717680066824 1.4515593498945234 55.127999849617481 1.9023564942181099 1.4427481181919577 1.6612229514867065 1.0481520779430864 1.5534823071211574 3.428011629730463 1.7721472568809984 2.1059340611100197 21.739892283454537 1.0716143082827327 0.82441381737589736
leaf_count=3335 36 22 14 30 16 22 847 17 27 20 36 19 39 241 20 31 82 20 1535 35 15 27 15 39 41 27 20 468 21 17
internal_value=0 0.0569987 -0.0454008 0.169088 -0.00950184 -0.0138694 0.0407463 0.0628224 0.100113 0.244065 0.134452 0.0758146 0.200842 0.0521479 0.19675 0.0210232 0.109729 0.272619 -0.0183022 0.0205223 0.129995 0.229423 0.0835843 0.058344 0.11563 0.166102 0.229936 -0.00203119 0.150244 0.00242261
internal_weight=0 112.875 154.643 14.2938 57.3652 56.668 98.5814 62.5499 33.2434 4.80094 3.13278 28.4424 4.52699 23.9154 4.23589 19.6795 8.10373 3.32401 55.9217 29.3065 5.00633 3.10397 2.94767 2.7854 10.0403 7.30609 5.53395 24.3002 2.56033 36.0315
internal_count=7134 2212 4922 140 1587 1573 2072 1208 606 73 53 533 81 452 78 374 133 51 1557 602 77 42 54 58 118 88 61 525 57 864
is_linear=0
shrinkage=0.1


Tree=19
num_leaves=31
num_cat=0
split_feature=86 70 105 41 86 55 66 69 38 94 89 82 25 105 20 64 39 34 4 60 45 19 73 84 90 79 36 32 55 70
split_gain=265.187 39.3287 35.9369 17.5242 18.5956 12.4042 12.1005 11.4893 11.1594 10.6859 10.3757 10.3152 15.367 10.6987 10.9587 9.37302 12.8847 13.6251 9.15822 14.1377 14.2246 14.6378 10.6405 8.59007 9.14959 9.26787 11.332 9.03699 8.7383 8.48089
threshold=0.16130457073450086 0.40815714001655579 0.070628747344017015 0.028568721376359452 0.35818509757518774 0.26303757727146154 0.22210530936717984 0.10592249035835262 0.29832020401954651 0.019025864079594602 0.0033522502053528504 0.048016047105193103 0.0032364871585741505 0.24027678370475766 0.033866088837385101 0.012523250188678453 0.48389366269111639 0.081231527030467959 0.15264651924371717 0.27510635554790502 0.0055212003644555504 0.13141357153654096 0.060410529375076259 0.0093050282448530024 0.24388067424297333 0.053365364670753458 0.21253558248281476 0.10140146687626837 0.4499297589063645 0.31809249520301824
decision_type=2 2 2 2 2 2 2 2 2 2 2 2 2 2 2 2 2 2 2 2 2 2 2 2 2 2 2 2 2 2
left_child=2 3 -1 4 8 -3 7 -6 10 15 11 13 -13 14 -2 16 17 -7 19 22 -21 -22 -10 -11 25 26 27 -25 -29 -4
right_child=1 5 29 -5 6 9 -8 -9 18 23 -12 12 -14 -15 -16 -17 -18 -19 -20 20 21 -23 -24 24 -26 -27 -28 28 -30 -31
leaf_value=-0.077356577336921806 0.096717138874862704 -0.024148651474519129 -0.025163667390196594 -0.047401834955071658 0.062658229765400003 0.16861629107251477 0.25924271340651706 0.24218898323562527 0.090179734074477019 0.20365299488501282 -0.0027787277994653389 -0.033011714733025235 0.16707474026380445 0.010711516232950016 0.31396104739809144 0.0035115883426104521 0.15847935161164051 -0.033732766074177682 -0.093818352975233679 0.004724310914072472 0.025947330016499005 0.20154692254172635 0.33854950885929541 -0.020114725624383226 0.12984423562243569 0.1666499962293671 -0.04759895133902696 0.21674406827883261 0.039912436115292244 0.074015101307384354
leaf_weight=276.58711458742619 5.7741973027586919 8.7789294794201833 174.14063643664122 26.095147185027599 66.890469916164875 4.8315049856901195 3.637852042913436 3.7653078883886328 3.7048083096742621 10.135891318321226 129.17005444318056 16.71049273759127 4.9830611050128928 5.63729104399681 3.8838255852460861 18.530658602714539 15.340453669428824 10.690776422619818 3.5200321823358527 26.239455886185169 9.0292249470949191 10.009728193283079 3.2276475951075554 5.2785879671573701 60.95226077735424 7.0478170514106742 9.8149318844079954 6.3010833859443647 5.0215842574834824 9.0710366144776327
leaf_count=2741 38 61 1414 176 384 25 20 18 21 50 904 115 33 35 22 99 76 57 23 168 54 55 20 31 282 34 53 32 26 67
internal_value=0 0.0513931 -0.0546031 0.0311585 0.0380801 0.0914679 0.081383 0.0722256 0.0235813 0.0980611 0.0105934 0.0572907 0.0129486 0.120182 0.184078 0.0597298 0.0934845 0.0292509 0.0623039 0.0728296 0.0524682 0.118269 0.205817 0.11617 0.106778 0.0647653 0.0375826 0.0879433 0.13832 -0.0202532
internal_weight=0 485.003 459.799 322.279 296.183 162.724 74.2936 70.6558 221.89 153.946 166.159 36.9889 21.6936 15.2953 9.65802 49.3934 30.8627 15.5223 55.7309 52.2109 45.2784 19.039 6.93246 104.552 94.4163 33.464 26.4162 16.6013 11.3227 183.212
internal_count=7134 2912 4222 2086 1910 826 422 402 1488 765 1147 243 148 95 60 257 158 82 341 318 277 109 41 508 458 176 142 89 58 1481
is_linear=0
shrinkage=0.1


Tree=20
num_leaves=31
num_cat=0
split_feature=48 11 67 16 92 80 23 10 43 98 54 16 17 0 21 0 21 60 48 67 8 7 32 50 27 8 52 89 19 106
split_gain=355.658 58.7124 15.5686 9.32935 8.67429 8.06632 7.58627 6.84025 8.71541 8.17437 8.23549 7.83049 7.76767 7.63428 7.28592 6.27352 9.46401 8.5358 6.6504 6.37943 7.33599 6.86684 9.12843 9.35036 8.75702 18.2245 6.43312 5.85975 7.29111 5.58241
threshold=0.95078215003013622 0.0044488648418337011 0.030043805018067301 0.30404604971408844 0.00027231984131500007 0.0020948804449289504 0.020818927325308254 0.028699478134512856 0.19883311539888382 0.020126697607338404 0.58202996850013744 0.9020305871963501 0.17867017537355423 30.500000000000004 0.031723940744996008 35.500000000000007 0.0021519860019907004 0.076246269047260215 0.29987253248691564 0.016224066726863304 0.29857635498046881 0.012467897962778801 0.085106585174798952 0.11133698374032971 0.012897953391075101 0.24138846248388288 0.16687954217195508 0.018761490471661053 0.021828922443091803 0.0028532649157568001
decision_type=2 2 2 2 2 2 2 2 2 2 2 2 2 2 2 2 2 2 2 2 2 2 2 2 2 2 2 2 2 2
left_child=1 3 4 -1 -3 -2 -4 8 9 10 27 -12 14 -10 -9 16 -6 -17 -18 21 -21 22 23 -19 25 -23 -25 -8 -29 -30
right_child=5 2 6 -5 15 -7 7 12 13 -11 11 -13 -14 -15 -16 17 18 19 -20 20 -22 24 -24 26 -26 -27 -28 28 29 -31
leaf_value=-0.082221208381784247 0.16536574888279715 0.132463920575564 -0.052361214299020589 -0.042456374242965694 0.16384387642449219 0.041982614262238135 -0.092560406297965539 0.089722972825384967 0.02095049699112906 -0.091179373618633305 -0.091379930857423144 0.10258119384981346 0.12293169564841509 0.15835881971177673 -0.057326961370638876 -0.049535759953739961 -0.031271832653778135 0.2112501157124525 -0.09006647410399414 -0.052123960466737701 0.090381073198705988 0.32848362239469553 -0.034580722842136855 -0.090876024815740267 0.011179576288191218 0.042462630086934634 0.11587090436304931 0.16324654328139135 0.050111343004382594 0.011594287272296895
leaf_weight=147.44071864336729 113.43724724650383 3.5381163135170928 18.218204312026501 98.360099881887436 2.3580530360341063 5.5582563877105704 4.1139719113707534 3.8120951056480399 7.8314210623502758 6.923037312924861 11.145336367189882 2.5593928173184386 3.2015344575047484 8.3592103868722898 29.015543200075626 30.166349671781063 176.45531171560287 3.6325720176100749 21.592761792242527 20.558759696781639 4.3824753910303107 3.5698837861418742 19.2784054428339 3.1418240666389465 8.7152880206704122 5.9252504929900169 2.8888789862394333 3.9071723222732535 57.807862348854542 107.79367446899414
leaf_count=1623 364 27 143 870 19 26 29 25 52 52 84 18 20 41 213 263 1426 27 177 156 31 26 141 24 63 41 21 28 356 748
internal_value=0 -0.0254467 -0.00785332 -0.0663088 -0.0232069 0.159603 0.0099084 0.0145111 0.0214043 0.015529 0.0194726 -0.0551572 -0.0257505 0.0918943 -0.0402509 -0.0250267 -0.0353109 -0.00487191 -0.0376821 0.013817 -0.0270841 0.0354517 0.00518078 0.0845057 0.0835611 0.149998 0.00816166 0.0253634 0.0282254 0.0250397
internal_weight=0 816.693 570.892 245.801 306.204 118.996 264.688 246.47 210.441 194.25 187.327 13.7047 36.0292 16.1906 32.8276 302.666 200.406 102.26 198.048 72.0933 24.9412 47.1521 28.9417 9.66328 18.2104 9.49513 6.0307 173.623 169.509 165.602
internal_count=7134 6744 4251 2493 2442 390 1809 1666 1408 1315 1263 102 258 93 238 2415 1622 793 1603 530 187 343 213 72 130 67 45 1161 1132 1104
is_linear=0
shrinkage=0.1


Tree=21
num_leaves=31
num_cat=0
split_feature=70 101 44 38 86 60 60 94 0 28 102 83 81 99 35 29 15 69 41 47 17 38 44 87 101 16 58 58 73 48
split_gain=132.006 41.1082 8.47288 8.85351 11.1727 8.31216 10.6579 9.91415 8.53356 11.8227 12.1436 8.23307 7.78332 8.19846 10.2679 6.94382 9.15433 6.86075 7.54894 11.5811 10.1577 9.57495 17.0065 9.00276 6.71588 11.3615 9.89114 7.98133 7.13347 6.51894
threshold=0.030650624074041805 0.65418046712875377 0.0094461962580680518 0.17911729216575623 0.77163144946098339 0.71005761623382579 0.57807695865631115 0.0029775230213999007 28.500000000000004 0.0063716641161590511 0.0057696169242262511 0.00047669548075640004 0.031370580196380553 0.0049035190604626508 0.0025847225915640506 0.011086445767432401 0.019561868160963003 0.087751291692256858 0.00064673836459400006 0.079159483313560472 0.0029784678481518507 0.10535000637173646 0.083742126822471563 0.00033958430867635003 0.83387023210525524 0.6765456795692445 0.21465027332305908 0.49200911819934845 0.015377494972199151 0.17953255772590637
decision_type=2 2 2 2 2 2 2 2 2 2 2 2 2 2 2 2 2 2 2 2 2 2 2 2 2 2 2 2 2 2
left_child=12 5 -3 4 11 6 8 -8 9 -2 -11 -4 -1 14 -14 -12 -17 18 20 -20 -10 22 -22 -21 25 26 -5 28 -26 -13
right_child=1 2 3 24 -6 -7 7 -9 17 10 15 29 13 -15 -16 16 -18 -19 19 23 21 -23 -24 -25 27 -27 -28 -29 -30 -31
leaf_value=-0.077071577422440862 0.17601219494016199 -0.090848510231613833 0.18902178795082714 0.24000032398826654 0.18466255601182016 -0.092889155313736871 0.22373697305958778 0.0108309624068261 -0.038752337702478802 -0.010357769361277056 0.12005582943273781 0.041581094229481051 -0.04941510163243383 -0.08918726285778078 0.22826286583894376 -0.066003733635251874 0.076873454744356473 -0.053092327153685649 -0.084956750364934316 0.13011551316987716 0.04079733871251566 0.030848398431096682 0.38632048338611247 -0.0062995353519011109 0.010176236715820741 -0.006797527991968276 0.034749356918704559 -0.0054330192738532811 0.081068609305418843 0.087993872563860306
leaf_weight=188.26402600109577 4.848691798746585 4.7006501927971831 4.4355367869138709 3.5635301917791349 6.8203386068344107 9.8195186257362348 4.0612670332193357 4.7396478876471519 7.4951049834489849 61.587141036987305 13.461108610033987 146.69613791257143 2.514702804386614 4.1907140389084816 2.830663651227951 6.8975249826908138 12.817639857530592 32.720269046723843 18.812810145318508 4.927454061806201 3.011433966457842 7.1941009014844894 2.7031828239560127 265.99027431756258 19.298884436488152 72.341139890253544 6.8825277388095856 22.830143585801125 53.658622145652771 38.12777903676033
leaf_count=1903 35 38 21 20 29 67 24 30 55 418 82 763 22 37 24 43 80 224 150 34 22 47 18 1803 91 438 41 127 254 194
internal_value=0 0.0181915 0.042574 0.044248 0.0589182 -0.00186901 0.000111579 0.109078 -0.00205583 0.0237088 0.015916 0.0543868 -0.0726071 0.0155318 0.0976306 0.0646896 0.0268866 -0.00954142 -0.00494665 -0.0090869 0.0538442 0.107608 0.20424 -0.00381842 0.0281398 0.00727976 0.104768 0.0461686 0.062316 0.0511557
internal_weight=0 840.442 379.355 374.655 196.08 461.087 451.268 8.80091 442.467 99.6121 94.7634 189.259 197.8 9.53608 5.34537 33.1763 19.7152 342.855 310.134 289.731 20.4038 12.9087 5.71462 270.918 178.575 82.7872 10.4461 95.7877 72.9575 184.824
internal_count=7134 5148 2016 1978 1007 3132 3065 54 3011 658 623 978 1986 83 46 205 123 2353 2129 1987 142 87 40 1837 971 499 61 472 345 957
is_linear=0
shrinkage=0.1


Tree=22
num_leaves=31
num_cat=0
split_feature=32 42 47 52 55 97 78 70 1 107 21 0 1 0 19 98 34 54 9 12 55 74 14 37 92 0 29 36 30 33
split_gain=339.119 106.855 102.056 47.7259 27.5472 27.3795 24.9394 17.8563 15.6241 12.4997 11.9777 8.09233 9.2307 7.91319 7.92568 7.53603 7.49495 9.56042 7.29604 7.25 6.83002 10.7164 8.08086 9.24051 7.98516 8.36953 8.12783 10.1367 9.52618 9.09648
threshold=0.014949259813874903 0.20068249106407163 0.52983769774436962 0.99016565084457409 0.35266943275928503 0.066301006823778111 0.19029116630554196 0.30808655917644506 0.25486096739768987 0.22040230780839917 0.027209295891225251 28.500000000000004 0.09529903903603551 37.000000000000007 0.0037015047855674505 0.0016470150439999501 0.16355216503143313 0.20210227370262149 0.0070819908287376009 0.072859335690736771 0.11620000749826431 0.096529971808195073 0.0016104531823657002 0.012497571762651151 0.018198903650045353 24.500000000000004 0.045255700126290259 0.11509098112583162 0.0022685762960463506 0.0026894272305070508
decision_type=2 2 2 2 2 2 2 2 2 2 2 2 2 2 2 2 2 2 2 2 2 2 2 2 2 2 2 2 2 2
left_child=5 2 6 4 8 -1 10 9 11 16 -2 12 -3 -13 -15 -12 17 -4 -11 -7 22 24 -8 -24 25 -22 27 28 -27 -29
right_child=1 3 7 -5 -6 19 20 -9 -10 18 15 13 -14 14 -16 -17 -18 -19 -20 -21 21 -23 23 -25 -26 26 -28 29 -30 -31
leaf_value=0.099270265837191077 0.067144579767764875 -0.023364068156263202 -0.0052413073140962106 -0.11509167698962215 -0.074062059375110137 0.038975277954828157 0.0035143947787071445 -0.053920409898426828 -0.097886137901709303 -0.14329805897149475 -0.023487614135355411 0.00055465694957082306 -0.094465466566297951 0.041498435378493403 -0.045359577838217369 0.076653830591707217 0.042984802405261376 -0.077242171533426995 -0.019536344535658542 -0.058932278225282277 -0.10065659615208218 0.03778885801056147 0.062036132861897665 -0.04833151936979431 -0.081540976023237843 -0.094661432087562947 0.066407956628091777 0.035750288187759598 0.022053836297435188 -0.097839709671819861
leaf_weight=311.2151318192482 181.13372242450714 55.100520819425583 152.64442956447601 96.362099975347519 158.49750883877277 46.521598219871521 65.539579883217812 223.77597704529762 27.178784221410751 11.1263425052166 26.62728913128376 188.95981496572495 27.308461487293243 11.990384161472319 84.831571251153946 10.469447970390318 26.684208542108536 20.975923210382462 8.3292643129825574 9.031478136777876 8.5618634223937971 57.21744579076767 73.411114931106567 8.4602344930171949 15.373709768056868 7.8104721903800955 16.682574450969696 6.9322298169136074 66.813631027936935 19.254763424396515
leaf_count=1319 688 181 499 364 525 163 229 728 90 36 92 617 89 40 278 37 87 68 27 30 28 190 256 29 51 26 55 23 225 64
internal_value=0 -0.0185344 0.00185658 -0.0501395 -0.0388391 0.0877267 0.030069 -0.0340366 -0.0247187 -0.0137895 0.0565423 -0.0193177 -0.0469255 -0.0113567 -0.0346031 0.00477432 -0.00635665 -0.0139401 -0.0903136 0.0230581 0.0133744 0.0012723 0.0296829 0.0506312 -0.0135011 -0.00520292 0.00175287 -0.00894648 0.00983793 -0.0624757
internal_weight=0 1658.05 1007.82 650.229 553.867 366.768 564.288 443.536 395.37 219.76 218.23 368.191 82.409 285.782 96.822 37.0967 200.305 173.62 19.4556 55.5531 346.058 198.647 147.411 81.8713 141.429 126.056 117.494 100.811 74.6241 26.187
internal_count=7134 5622 3438 2184 1820 1512 1993 1445 1295 717 817 1205 270 935 318 129 654 567 63 193 1176 662 514 285 472 421 393 338 251 87
is_linear=0
shrinkage=0.1


Tree=23
num_leaves=31
num_cat=0
split_feature=65 77 16 18 85 83 11 14 22 56 34 63 93 89 15 87 19 77 107 71 7 86 2 21 23 37 2 101 83 63
split_gain=55.4829 18.1771 7.19868 9.67196 8.97753 9.50901 6.82392 7.36569 16.1257 8.28556 11.62 12.8671 9.35251 7.23737 9.28844 7.64932 6.73424 18.7722 5.94223 5.89946 7.9516 5.9378 9.17395 5.8016 17.6403 5.71881 6.55292 7.54792 5.63533 6.53908
threshold=0.011079226154833951 0.12532830983400342 0.69296836853027355 0.046541269868612255 0.11609887331724165 0.12806768715381622 0.078086718916892964 0.00032596070377615007 0.00062044584774405005 0.079061198979616151 0.063637778162956168 0.018723648041486702 0.0067513654939830008 0.018421962857246354 0.012526974547654352 0.031854182481765705 0.0073683531954884009 0.017929646186530552 0.098732557147741304 0.12046394124627112 0.28137023746967321 0.074682891368865925 0.0036286700051277004 0.036971354857087059 0.039790499955415705 0.0043937319424003007 0.0084679783321916519 0.63078328967094432 0.008012522943317852 0.0050455254968255507
decision_type=2 2 2 2 2 2 2 2 2 2 2 2 2 2 2 2 2 2 2 2 2 2 2 2 2 2 2 2 2 2
left_child=28 2 3 4 6 -6 7 8 -2 -9 11 -11 -12 -14 15 -15 17 -4 19 -3 21 -21 -23 -18 -25 -24 -27 -28 -1 -30
right_child=1 18 16 -5 5 -7 -8 9 -10 10 12 -13 13 14 -16 -17 23 -19 -20 20 -22 22 25 24 -26 26 27 -29 29 -31
leaf_value=-0.066455891172651077 0.39700700693164603 0.2481423148276839 -0.011530377293334353 0.36059246093669101 0.37313700016565471 0.059845568198615209 -0.054271774854429015 -0.060574886852085709 -0.082958045397774266 0.02363128017091258 0.34813462289247643 0.54519272033755672 -0.050995860171290944 0.47613110461013575 0.036146866366180024 0.046446663541773736 -0.076442666242481194 0.53569940886087064 -0.046648670627103421 0.16666007822267989 0.17105655323857175 -0.086860299600819077 0.19895455951438101 0.41566827481625235 -0.018172703050821998 -0.085481732234291244 0.2552491141808817 -0.0070273222391567152 0.087765004184321191 -0.042003781851089411
leaf_weight=90.924189263954759 1.6366223338991397 2.9203502051532295 2.8171565029770131 0.90026302263140578 1.5215348191559304 2.6669221390038729 9.8849808238446695 9.1333673503249866 1.2231584340333936 0.94124902226030716 0.92932644858956237 0.95083427242934704 9.4963063485920411 0.89348983019590267 42.147639060392976 0.77252652123570442 15.937106611207126 0.80628133192658413 2.5263537317514411 4.1459155417978826 10.019549846649168 4.55232810974121 3.0331265740096551 0.99844592995941894 15.285124044865368 2.7676155082881451 1.9895692951977251 2.4465363323688507 5.2696168571710613 14.757893064990638
leaf_count=3375 19 28 80 18 25 46 211 273 33 26 28 16 263 21 915 20 430 16 57 34 63 64 28 22 365 44 17 29 145 423
internal_value=0 0.0369589 0.0184428 0.0346002 0.0310298 0.173655 0.0233721 0.0346383 0.191721 0.0277553 0.0421278 0.285733 0.0336299 0.0281473 0.0453011 0.276888 -0.0190152 0.110238 0.100978 0.112679 0.0990159 0.0608954 0.0312459 -0.0335507 0.00842876 0.0837677 0.0352682 0.110602 -0.0558788 -0.00785916
internal_weight=0 153.344 118.942 83.0982 82.198 4.18846 78.0095 68.1245 2.85978 65.2647 56.1314 1.89208 54.2393 53.31 43.8137 1.66602 35.8441 3.62344 34.4013 31.875 28.9546 18.9351 14.7892 32.2207 16.2836 10.2368 7.20372 4.43611 110.952 20.0275
internal_count=7134 3191 2827 1914 1896 71 1825 1614 52 1562 1289 42 1247 1219 956 41 913 96 364 307 279 216 182 817 387 118 90 46 3943 568
is_linear=0
shrinkage=0.1


Tree=24
num_leaves=31
num_cat=0
split_feature=86 86 66 101 106 83 103 93 8 6 100 73 19 45 89 93 38 15 41 68 32 56 25 57 39 76 106 30 39 8
split_gain=214.166 47.8368 17.9044 12.2018 10.874 10.5725 10.4749 10.2211 9.88325 9.55428 11.8851 9.00503 8.85312 15.8217 11.1531 9.50889 10.7981 8.20208 8.12505 19.5032 7.92258 8.3394 7.81503 8.40052 7.26126 12.3524 8.32246 16.1758 7.01307 7.46091
threshold=0.093217141926288563 0.35175846517086035 0.30475969612598425 0.4975859522819519 0.0036832517944276008 0.028891767375171153 0.092325709760189015 0.011660542339086503 0.3482819944620133 0.037756662815809201 0.0044918740168213506 0.015772634185850603 0.11940433084964747 0.0055212003644555504 0.080339752137660966 0.0067513654939830008 0.14531986415386197 0.033558912575244855 0.0031897901790216006 0.0034835733240470008 0.1989959999918938 0.19124750792980191 0.20100536942481992 0.010358278639614553 0.13635668903589246 0.0025587517302483004 0.0021537388674914503 0.0050515858456492008 0.40783254802227026 0.46409603953361511
decision_type=2 2 2 2 2 2 2 2 2 2 2 2 2 2 2 2 2 2 2 2 2 2 2 2 2 2 2 2 2 2
left_child=8 2 3 7 -3 17 -4 11 -1 10 -7 -2 15 14 -14 16 18 -6 19 -5 -18 -22 23 -15 -17 26 -26 -28 -20 -30
right_child=1 4 6 12 5 9 -8 -9 -10 -11 -12 -13 13 22 -16 24 20 -19 28 -21 21 -23 -24 -25 25 -27 27 -29 29 -31
leaf_value=-0.071483848666055727 0.0051489322873861775 0.21340940791959234 0.2504836938259335 0.017552568910472601 0.05447168783921158 0.202041327475596 0.037611454333571721 -0.039607154949383543 0.14495673672243567 0.13075590623436198 0.052677641345098197 0.17151075865488882 0.1731918205581823 0.27634191519782009 -0.041203468721508124 -0.057622888865811621 0.18337392892496485 -0.026791262544811068 -0.024183859689279125 0.25444462221493763 -0.051173950618473643 0.12691853282760832 0.044621783517151729 0.10303126633829396 -0.037745039078895093 -0.0073067069670530553 0.24161082990340468 -0.0061586108043937401 0.18930044872695234 -0.00012988536611882554
leaf_weight=296.22191141545773 61.671259708702564 4.9821409732103339 4.813601687550543 14.423866152763368 128.05516820400953 5.8568717390298835 4.4472663179039955 78.872751131653786 2.1248415634036055 35.450758010149002 58.926335729658604 3.4349251314997664 2.9711219370365169 5.3136645853519457 13.235089182853697 20.940357871353626 7.8587414845824268 13.754605501890181 34.292635925114155 4.5786159560084334 4.5694486051797849 6.192654199898243 6.1178887337446204 5.9045119434595108 3.6566235646605483 85.578433983027935 6.2294013798236829 4.5664913803339005 3.4977303892374021 5.1266630291938782
leaf_count=3141 490 22 25 101 676 27 27 629 17 147 287 27 19 28 86 160 48 73 228 29 29 36 31 31 26 573 39 30 21 31
internal_value=0 0.032768 0.0108816 0.00752506 0.0671709 0.0641607 0.148258 -0.0153999 -0.0699423 0.08902 0.0661812 0.013926 0.0215674 0.0691358 -0.00189789 0.0136495 0.040272 0.0465897 0.0201925 0.0746313 0.107042 0.0513028 0.13554 0.185123 -0.00407528 0.00713431 0.0926446 0.136808 -0.00391155 0.076696
internal_weight=0 635.32 388.294 379.033 247.026 242.044 9.26087 143.979 298.347 100.234 64.7832 65.1062 235.054 33.5423 16.2062 201.512 80.5404 141.81 61.9195 19.0025 18.6208 10.7621 17.3361 11.2182 120.971 100.031 14.4525 10.7959 42.917 8.62439
internal_count=7134 3976 2744 2692 1232 1210 52 1146 3158 461 314 517 1546 195 105 1351 523 749 410 130 113 65 90 59 828 668 95 69 280 52
is_linear=0
shrinkage=0.1


Tree=25
num_leaves=31
num_cat=0
split_feature=56 3 67 67 17 23 0 58 58 48 93 23 27 58 34 81 0 10 93 74 35 91 46 8 1 55 69 63 29 27
split_gain=276.823 50.7972 14.2863 14.1221 8.51544 6.62245 6.05245 8.33584 9.40632 7.20223 6.69331 8.44361 6.99146 9.05471 5.97199 5.85572 6.81731 7.92772 6.28146 10.3829 12.4819 7.69534 6.27332 8.67794 7.88403 12.7504 7.21873 10.5175 6.74639 6.20981
threshold=0.99107643961906444 0.0031784472521394001 0.030043805018067301 0.0018259396892971501 0.010743671096861302 0.019686141051352003 35.500000000000007 0.18400850147008899 0.20027954876422882 0.29987253248691564 0.03216754458844661 0.0098382122814654523 0.012400438077747803 0.27501830458641058 0.81134516000747692 0.18178371340036392 30.500000000000004 0.019320735707879004 0.042125297710299457 0.053820740431547102 0.08502587676048276 0.039162559434771503 0.28613160550594335 0.27948318421840673 0.13548882305622104 0.12437824532389642 0.061015270650386755 0.062305584549903856 0.09293812140822412 0.030515951104462102
decision_type=2 2 2 2 2 2 2 2 2 2 2 2 2 2 2 2 2 2 2 2 2 2 2 2 2 2 2 2 2 2
left_child=1 4 3 -3 -1 -4 9 -8 -9 -5 11 -10 -13 -14 15 16 17 18 19 21 -21 -7 24 -24 26 -26 27 -18 -28 -19
right_child=-2 2 5 6 -6 14 7 8 10 -11 -12 12 13 -15 -16 -17 22 29 -20 20 -22 -23 23 -25 25 -27 28 -29 -30 -31
leaf_value=-0.07210377611043875 0.14479985147795313 0.13015075272917917 -0.05663524643334366 -0.029065651061188622 0.088710288243474461 -0.031383658626033567 -0.023936206338364813 0.17582208949419467 -0.051064367347131906 -0.089590497772607414 -0.07640969074087646 0.1797181191527385 -0.070911345331528694 0.10301279535682961 -0.091069880464607886 0.054857463286167543 0.04230474746724134 0.065323097098000535 -0.010943290961287738 0.28661779450378394 0.04061456809647223 0.14950587292389442 -0.040787545516751629 0.063626618051953576 0.0051960952312002165 0.26004975327611968 -0.048498866939876872 0.23669645045248738 0.086278511030699501 -0.07113847841149526
leaf_weight=179.18066061288118 112.41043499112129 5.95993598550558 14.833986327052115 196.07276340574026 3.3543955609202376 12.923205234110357 87.722865447402 4.107386238873004 7.4272205382585588 21.851872190833092 6.3930612429976454 4.7517650350928333 4.797149829566477 7.9606007859110832 5.4871963933110228 31.258991241455078 37.73990186303854 3.8355856165289905 56.729495197534561 3.4129263311624509 5.2126759216189384 2.8750035613775244 24.521562352776527 11.785208873450754 3.7484596371650687 4.1216204017400742 15.514172390103342 3.0048839896917334 4.8828839510679236 25.536124534904957
leaf_count=2057 364 42 121 1653 28 92 740 30 56 188 46 31 35 50 42 183 247 29 386 22 34 19 172 74 20 20 105 19 28 201
internal_value=0 -0.0228288 -0.00906893 -0.0224539 -0.0691485 0.00830116 -0.0251204 -0.00740087 0.0335315 -0.0351346 0.0148769 0.0382802 0.0761786 0.0376141 0.0121147 0.0144061 0.00854778 -0.00880061 0.00731161 0.0497125 0.137952 0.00153514 0.0267538 -0.00689462 0.044456 0.138665 0.0323296 0.0566409 -0.0162343 -0.0533183
internal_weight=0 797.004 614.469 347.045 182.535 267.424 341.085 123.16 35.4372 217.925 31.3298 24.9367 17.5095 12.7578 252.59 247.103 215.844 110.525 81.1533 24.4238 8.6256 15.7982 105.319 36.3068 69.0119 7.87008 61.1418 40.7448 20.3971 29.3717
internal_count=7134 6770 4685 2871 2085 1814 2829 988 248 1841 218 172 116 85 1693 1651 1468 783 553 167 56 111 685 246 439 40 399 266 133 230
is_linear=0
shrinkage=0.1


Tree=26
num_leaves=31
num_cat=0
split_feature=70 16 92 85 16 10 68 69 84 47 89 40 17 34 97 4 99 91 72 13 21 43 85 75 21 15 101 100 79 81
split_gain=109.086 31.3232 9.56907 8.18038 8.14059 8.34556 11.2423 9.28201 10.0559 9.00719 9.55934 9.40599 12.8413 11.3584 8.75241 9.99088 9.75069 9.91339 8.5808 8.1224 8.74023 8.0699 7.9214 8.19411 10.6608 7.88177 7.80007 7.73673 7.22288 7.1375
threshold=0.030650624074041805 0.76543056964874279 0.061735209077596657 0.027770368382334654 0.1972764655947685 0.0014124254812486004 0.0038064387626945504 0.0081343706697225519 0.021435516886413052 0.22640299052000043 0.0036027166061103001 0.098910726606845814 0.0083352578803896505 0.063637778162956168 0.15359821915626529 0.014059991110116202 0.015174183994531602 0.043547166511416407 0.021045287139713754 0.014302696101367451 0.010080572217702852 0.011280682403594202 0.0056850002147256504 0.012342240661382601 0.0067227550316601012 0.017560792155563804 0.37649922072887421 0.0019458882161415502 0.021479407325386952 0.031370580196380553
decision_type=2 2 2 2 2 2 2 2 2 2 2 2 2 2 2 2 2 2 2 2 2 2 2 2 2 2 2 2 2 2
left_child=29 2 4 -3 21 22 14 8 9 -8 18 13 -13 26 15 -7 17 -17 -11 -9 -21 -2 -6 24 -24 -25 -12 28 -27 -1
right_child=1 3 -4 -5 5 6 7 19 -10 10 11 12 -14 -15 -16 16 -18 -19 -20 20 -22 -23 23 25 -26 27 -28 -29 -30 -31
leaf_value=-0.074845645962366272 0.014234914314607317 0.055379536759846942 0.15961093868548376 0.018129933156712966 -0.013114272443899268 -0.067228150121139515 0.20168140696003944 -0.037271343966152136 -0.062334664764272733 -0.0023708989027291577 -0.02545910718608272 0.28421761717704697 0.026476163913334228 -0.077017370411221586 -0.06462407926722602 0.20082689758254801 -0.0026943155161485294 -0.014291899739725175 0.14272870252942202 0.14902378100381949 0.0069357792919029701 -0.049074092173563337 -0.015298315327642406 -0.093556368445743443 0.18548335007025862 0.12287238168735184 0.12538730158668135 0.16068907659956949 0.0066027851062519533 0.013461481082439228
leaf_weight=168.07929439842701 31.427092730998993 190.03464824706316 3.8658665865659705 85.473632544279099 22.185448825359344 20.806398555636406 3.7389064505696288 45.053482905030251 8.8257912546396238 39.644270792603493 4.5048806071281495 4.7046601325273505 3.2812367677688599 5.2483298033475867 36.997901476919651 5.0890038013458234 58.503322876989841 3.6995668113231659 4.5426407456398001 4.4637069404125205 143.66959550976753 56.032630443572998 3.7186494618654242 4.2104715704917899 9.1549764573574048 6.8201066851615932 14.338517248630522 5.4642050117254248 24.667841352522373 9.6799437925219518
leaf_count=1903 246 906 21 452 148 159 26 280 51 242 32 26 20 31 234 34 395 24 24 25 903 455 23 28 52 40 80 33 158 83
internal_value=0 0.0161016 0.00281108 0.0438232 0.00174911 0.00682917 0.00114344 0.0122111 0.0389655 0.0501407 0.0427113 0.0842639 0.178317 0.0530873 -0.0238075 -0.00666604 0.0120595 0.110272 0.0125461 -9.08176e-05 0.0112173 -0.0263251 0.0371976 0.0578539 0.127486 0.0360764 0.0893245 0.0508473 0.0317861 -0.0700368
internal_weight=0 850.168 574.66 275.508 570.794 483.334 407.112 282.016 88.8292 80.0034 76.2645 32.0776 7.9859 24.0917 125.096 88.0983 67.2919 8.78857 44.1869 193.187 148.133 87.4597 76.2217 54.0363 12.8736 41.1626 18.8434 36.9522 31.4879 177.759
internal_count=7134 5148 3790 1358 3769 3068 2586 1740 532 481 455 189 46 143 846 612 453 58 266 1208 928 701 482 334 75 259 112 231 198 1986
is_linear=0
shrinkage=0.1


Tree=27
num_leaves=31
num_cat=0
split_feature=32 42 47 42 20 16 105 86 65 42 16 64 1 74 40 22 58 23 38 78 35 79 13 9 20 39 56 42 23 90
split_gain=274.762 83.8702 78.0248 41.2792 25.2628 23.3631 21.0659 14.8763 10.541 9.77582 9.58788 9.38904 9.11497 9.54181 9.11232 8.95862 8.9819 8.72748 8.6014 7.73832 7.72822 7.66085 7.54327 7.32689 9.58296 7.32016 7.29347 11.657 9.01495 7.6313
threshold=0.014949259813874903 0.20068249106407163 0.52983769774436962 0.98973625898361217 0.030334782786667302 0.78107160329818737 0.042753893882036161 0.21745843440294263 0.013447346165776202 0.23947194963693616 0.79000279307365429 0.0071649067103862511 0.25486096739768987 0.24941071122884753 0.17582201957702639 0.015942528843879655 0.015261782798916051 0.03409292362630361 0.18242073059082028 0.19029116630554196 0.014503034297376802 0.024231326766312056 0.024376244284212551 0.014689531642943602 0.093912519514560658 0.15689434856176374 0.099707920104265171 0.080896049737930256 0.0022109244018792503 0.013528684154152851
decision_type=2 2 2 2 2 2 2 2 2 2 2 2 2 2 2 2 2 2 2 2 2 2 2 2 2 2 2 2 2 2
left_child=4 2 6 5 20 12 17 23 9 -7 14 -11 13 18 22 16 -6 -2 -3 26 -1 -16 -9 24 -4 -10 28 -28 -8 -29
right_child=1 3 7 -5 15 8 19 10 25 11 -12 -13 -14 -15 21 -17 -18 -19 -20 -21 -22 -23 -24 -25 -26 -27 27 29 -30 -31
leaf_value=0.097383712169118467 0.071441784332325481 -0.083861244958756812 -0.024299174453000099 -0.10843683836548804 0.052031074640294286 -0.12091041683366271 -0.021312025310393043 -0.021260669399853705 0.022734094829150564 -0.047987808307746488 -0.060567670775328375 0.081449028095318315 -0.086431430484386756 -0.073640503944377239 0.13349636999758704 0.1140940597120961 -0.054575579546415148 -0.0097188361800654086 -0.0089563067240225908 0.0083847473033730521 0.040868119251536772 -0.0065588479649128202 -0.077042405535659886 0.038170532862032681 0.092123002380548769 -0.082315828464724031 -0.13057026652874612 -0.018422329562029972 0.075497642959215017 0.088933576308359241
