tree
version=v3
num_class=1
num_tree_per_iteration=1
label_index=0
max_feature_idx=976
objective=binary sigmoid:1
feature_names=qp 0 1 2 3 4 5 6 7 8 9 10 11 12 13 14 15 16 17 18 19 20 21 22 23 24 25 26 27 28 29 30 31 32 33 34 35 36 37 38 39 40 41 42 43 44 45 46 47 48 49 50 51 52 53 54 55 56 57 58 59 60 61 62 63 64 65 66 67 68 69 70 71 72 73 74 75 76 77 78 79 80 81 82 83 84 85 86 87 88 89 90 91 92 93 94 95 96 97 98 99 100 101 102 103 104 105 106 107 108 109 110 111 112 113 114 115 116 117 118 119 120 121 122 123 124 125 126 127 128 129 130 131 132 133 134 135 136 137 138 139 140 141 142 143 144 145 146 147 148 149 150 151 152 153 154 155 156 157 158 159 160 161 162 163 164 165 166 167 168 169 170 171 172 173 174 175 176 177 178 179 180 181 182 183 184 185 186 187 188 189 190 191 192 193 194 195 196 197 198 199 200 201 202 203 204 205 206 207 208 209 210 211 212 213 214 215 216 217 218 219 220 221 222 223 224 225 226 227 228 229 230 231 232 233 234 235 236 237 238 239 240 241 242 243 244 245 246 247 248 249 250 251 252 253 254 255 256 257 258 259 260 261 262 263 264 265 266 267 268 269 270 271 272 273 274 275 276 277 278 279 280 281 282 283 284 285 286 287 288 289 290 291 292 293 294 295 296 297 298 299 300 301 302 303 304 305 306 307 308 309 310 311 312 313 314 315 316 317 318 319 320 321 322 323 324 325 326 327 328 329 330 331 332 333 334 335 336 337 338 339 340 341 342 343 344 345 346 347 348 349 350 351 352 353 354 355 356 357 358 359 360 361 362 363 364 365 366 367 368 369 370 371 372 373 374 375 376 377 378 379 380 381 382 383 384 385 386 387 388 389 390 391 392 393 394 395 396 397 398 399 400 401 402 403 404 405 406 407 408 409 410 411 412 413 414 415 416 417 418 419 420 421 422 423 424 425 426 427 428 429 430 431 432 433 434 435 436 437 438 439 440 441 442 443 444 445 446 447 448 449 450 451 452 453 454 455 456 457 458 459 460 461 462 463 464 465 466 467 468 469 470 471 472 473 474 475 476 477 478 479 480 481 482 483 484 485 486 487 488 489 490 491 492 493 494 495 496 497 498 499 500 501 502 503 504 505 506 507 508 509 510 511 512 513 514 515 516 517 518 519 520 521 522 523 524 525 526 527 528 529 530 531 532 533 534 535 536 537 538 539 540 541 542 543 544 545 546 547 548 549 550 551 552 553 554 555 556 557 558 559 560 561 562 563 564 565 566 567 568 569 570 571 572 573 574 575 576 577 578 579 580 581 582 583 584 585 586 587 588 589 590 591 592 593 594 595 596 597 598 599 600 601 602 603 604 605 606 607 608 609 610 611 612 613 614 615 616 617 618 619 620 621 622 623 624 625 626 627 628 629 630 631 632 633 634 635 636 637 638 639 640 641 642 643 644 645 646 647 648 649 650 651 652 653 654 655 656 657 658 659 660 661 662 663 664 665 666 667 668 669 670 671 672 673 674 675 676 677 678 679 680 681 682 683 684 685 686 687 688 689 690 691 692 693 694 695 696 697 698 699 700 701 702 703 704 705 706 707 708 709 710 711 712 713 714 715 716 717 718 719 720 721 722 723 724 725 726 727 728 729 730 731 732 733 734 735 736 737 738 739 740 741 742 743 744 745 746 747 748 749 750 751 752 753 754 755 756 757 758 759 760 761 762 763 764 765 766 767 768 769 770 771 772 773 774 775 776 777 778 779 780 781 782 783 784 785 786 787 788 789 790 791 792 793 794 795 796 797 798 799 800 801 802 803 804 805 806 807 808 809 810 811 812 813 814 815 816 817 818 819 820 821 822 823 824 825 826 827 828 829 830 831 832 833 834 835 836 837 838 839 840 841 842 843 844 845 846 847 848 849 850 851 852 853 854 855 856 857 858 859 860 861 862 863 864 865 866 867 868 869 870 871 872 873 874 875 876 877 878 879 880 881 882 883 884 885 886 887 888 889 890 891 892 893 894 895 896 897 898 899 900 901 902 903 904 905 906 907 908 909 910 911 912 913 914 915 916 917 918 919 920 921 922 923 924 925 926 927 928 929 930 931 932 933 934 935 936 937 938 939 940 941 942 943 944 945 946 947 948 949 950 951 952 953 954 955 956 957 958 959 960 961 962 963 964 965 966 967 968 969 970 971 972 973 974 975
feature_infos=[23:46] [7.0375441282521933e-05:0.096096090972423498] [6.343350833049044e-05:0.087870098650455405] [7.4282514106016606e-05:0.097683347761630998] [0.00047562440158789999:0.33470121026039118] [7.2655006079003215e-05:0.093346230685710893] [0.0001607400481589:0.077426441013813005] [7.3045914177782834e-05:0.090504415333270999] [0.0039933724328875004:0.55877202749252319] [9.4966228061821325e-05:0.114094465970993] [0.0001063208401319:0.082965336740016896] [9.0044217358808964e-05:0.1183389648795127] [0.00063998968107619998:0.45991146564483643] [0.0001182962660095:0.13793870806694031] [8.1027726992033422e-05:0.060569901019334703] [0.0001438449107808:0.13560663163661951] [0.00070322648389259997:0.8835332989692688] [5.7565346651244909e-05:0.080647736787796007] [7.9800374805927277e-05:0.063658617436885806] [5.74805962969549e-05:0.077352322638034807] [0.00050001329509540005:0.36166775226593018] [5.8930505474563688e-05:0.071033835411071694] [7.5507778092287481e-05:0.069621637463569599] [5.6809716625139117e-05:0.072050973773002597] [0.0036549654323606998:0.92241203784942638] [3.1503474019700661e-05:0.075336739420890794] [0.00014643617032560001:0.090974375605583094] [3.2489086152054369e-05:0.077003881335258401] [0.0003760638646781:0.28846138715744019] [2.8937834940734319e-05:0.071279615163803101] [0.0001103066751966:0.091642722487449604] [2.9024677132838409e-05:0.071900270879268605] [0.0004378375015221:0.25406455993652338] [5.9494879678823054e-05:0.090605020523071206] [0.00046873808605589999:0.25383037328720093] [0.00045975428656669999:0.32854825258254999] [0.00043792533688239999:0.25041437149047852] [0.00015038058336350001:0.073369003832340199] [0.00040355097735299999:0.25245732069015497] [0.0039094737730920003:0.55258768796920776] [0.00044533790787680002:0.3078896701335907] [9.9618162494152784e-05:0.092839397490024497] [0.00050359539454799998:0.3191231489181518] [0.00067921594018110001:0.45834892988204951] [0.00041468162089580002:0.2760082483291626] [7.7372213127091527e-05:0.0605208240449428] [0.00040349003393200001:0.27107474207878107] [0.00070170522667460005:0.88225662708282471] [0.0004815239808522:0.26157012581825251] [5.9899979532929137e-05:0.053731270134448998] [0.00043343703146090002:0.26097097992897028] [0.00048972084186969995:0.37348690629005432] [0.00047913374146439999:0.27170091867446899] [7.487528637284413e-05:0.069113515317440005] [0.000477377907373:0.27092713117599487] [0.0035795201547442999:0.91924607753753662] [0.00050098466454070003:0.25872385501861572] [0.00013506964023690001:0.090037979185581193] [0.00048259782488449998:0.25438126921653748] [0.0003787754685617:0.29578381776809692] [0.00051241461187600005:0.28439462184906] [0.000106012172182:0.098196782171726199] [0.00049961818149310002:0.28621101379394531] [8.5201267211232334e-05:0.097768425941467202] [6.4701380324549973e-05:0.079795867204666096] [8.6198851931840181e-05:0.1015437766909599] [0.0003977350716013:0.34178763628005981] [7.026003731880337e-05:0.089451916515827096] [0.0001027218459057:0.077539995312690693] [6.6874046751763672e-05:0.087786853313446003] [0.0037501689512281998:0.57035630941390991] [8.7240805441979319e-05:0.1070092022418975] [9.393014624947682e-05:0.085298493504524203] [8.7230153440032154e-05:0.1142075508832931] [0.00050740793813010005:0.41564595699310303] [7.6626572990790009e-05:0.1070450246334075] [7.7547418186441064e-05:0.0607781112194061] [7.4124152888543904e-05:0.10382005572319029] [0.00069880386581640003:0.88604623079299927] [3.1038569431984797e-05:0.1250220835208892] [6.4079431467689574e-05:0.066588066518306704] [2.6743333364720456e-05:0.1226315647363662] [0.00049039343139149999:0.41480812430381769] [2.102973303408362e-05:0.1121987476944923] [0.0001081372829503:0.071753911674022605] [1.8519931472837925e-05:0.11577281355857839] [0.0027404413558542:0.90622544288635243] [2.9724689738941379e-05:0.117879994213581] [0.0001114264305215:0.078554712235927499] [2.92222266580211e-05:0.1238878071308136] [0.00040125226951200001:0.36200827360153198] [3.5381650377530605e-05:0.1129182875156402] [0.0001081259397324:0.087786972522735596] [3.0864714062772691e-05:0.1043672412633895] [0.0030387365259229998:0.54670131206512451] [6.0606369515880942e-05:0.072126150131225503] [0.0031449971720576:0.5510898232460022] [0.00043216077028770001:0.35362070798873901] [0.0036960861179977001:0.55499404668807983] [0.0001003858051262:0.076830185949802399] [0.0035009291023015:0.55113285779953003] [0.0036311168223619001:0.57070857286453247] [0.0028408167418091999:0.52197760343551636] [9.6055875474121422e-05:0.078238457441329901] [0.0028690595645456999:0.51849108934402466] [0.00047538644867009999:0.40727362036705012] [0.0030248956754802998:0.50946736335754395] [7.7269069151952863e-05:0.060726482421159703] [0.0030977160204201:0.51059335470199585] [0.00069980457192279997:0.88656646013259888] [0.0024011493660509001:0.59024709463119507] [7.2524948336649686e-05:0.066658802330493899] [0.0024715038016437998:0.59041845798492432] [0.00052728859009220004:0.41565722227096558] [0.0023550763726233998:0.57552140951156616] [0.00010665003355820001:0.070641756057739202] [0.0023411158472298999:0.58693856000900269] [0.0027832917403429001:0.90848094224929798] [0.0023225250188261002:0.57755529880523682] [0.0001034485758282:0.075422681868076297] [0.0022929541300981998:0.57612979412078857] [0.00041888112900769999:0.35066148638725281] [0.0022269822657107999:0.54351860284805298] [9.8260345112066716e-05:0.092983663082122803] [0.0019834013655781:0.54449564218521118] [1.1716701010300312e-05:0.046301245689392] [7.4869429226964712e-05:0.067076407372951494] [1.0341415872971991e-05:0.047215037047863] [0.00042592460522420002:0.3363793790340423] [8.0390500443172641e-06:0.049569047987461] [6.9350608100648969e-05:0.070089913904666901] [8.6589452621410601e-06:0.047218929976224899] [0.0034773016814142002:0.54500883817672729] [8.2247388490941375e-06:0.045322272926568902] [8.7755113781895489e-05:0.047118786722421598] [8.6909703895798884e-06:0.048181723803281701] [0.0003423055459279:0.3682961761951446] [8.0821591836865991e-06:0.045305028557777398] [3.7544352380791679e-05:0.050673779100179603] [8.6554446170339361e-06:0.045340813696384402] [0.00059797166613859999:0.90518265962600719] [1.4942543202778324e-05:0.0474209487438201] [5.6909488193923607e-05:0.081254184246063205] [1.3282047802931627e-05:0.052642583847045898] [0.0004038662009406:0.48469850420951838] [1.2277222595002968e-05:0.056106559932231903] [3.6226992961019278e-05:0.073937579989433205] [1.2031360711262096e-05:0.051885563880205099] [0.0023297611624002001:0.90967172384262085] [1.7883965483633801e-05:0.053056221455335603] [7.6392083428800106e-05:0.056322924792766502] [1.899394737847615e-05:0.054605696350335999] [0.00029746373184020002:0.36087876558303827] [1.255558254342759e-05:0.057082712650299003] [7.6226613600738347e-05:0.11789315938949579] [1.149127729149768e-05:0.057378739118576001] [0.00029562829877239998:0.21922752261161799] [6.7624358052853495e-05:0.073343396186828599] [0.0003034790279343:0.2236132025718689] [0.00042656148434610001:0.3460866510868072] [0.0002932129136752:0.2440069764852523] [7.1896327426657081e-05:0.068297624588012695] [0.00030119586153880002:0.24672643840312949] [0.0033781887032091002:0.53202009201049805] [0.00040356136742040002:0.36634230613708491] [7.9368779552169144e-05:0.049936212599277399] [0.00045999078429299998:0.36690080165863032] [0.0003657937631942:0.37490886449813843] [0.00044177394011049999:0.32557165622711182] [4.1177358070854098e-05:0.051297929137945099] [0.00045008922461419999:0.34972530603408808] [0.00059728446649379998:0.90456509590148915] [0.00037839129799970001:0.2638428807258606] [5.1688330131582923e-05:0.080517120659351293] [0.00036339243524699999:0.24843846261501309] [0.00043705559801310003:0.48655363917350769] [0.00055029103532429997:0.27520671486854548] [2.8524769732030109e-05:0.073372289538383401] [0.00054623692994930004:0.27875295281410217] [0.0024317144416271998:0.90878659486770641] [0.00044076255289829998:0.26440346240997309] [7.714470848441124e-05:0.055096484720706898] [0.00048423573025499999:0.27040553092956537] [0.00031043053604660001:0.38308313488960261] [0.00039992219535630002:0.25369295477867121] [8.0626479757484049e-05:0.11339808255434029] [0.00039399586967189999:0.24271225929260251] [1.1527694999999999e-05:0.040037736296653699] [4.4871689169667661e-05:0.069510631263256004] [1.0554826985753609e-05:0.040422581136226599] [0.00038548529846590003:0.33887895941734308] [7.8624261732329614e-06:0.036978822201490402] [4.463308141566813e-05:0.049611140042543397] [9.9483586382120848e-06:0.035212941467761903] [0.0039306068792939004:0.51257717609405518] [1.4165240827423986e-05:0.040293164551257997] [8.9034299890045077e-05:0.052754797041416099] [1.2580127986439038e-05:0.035424716770648901] [0.0003908853395842:0.38437679409980768] [1.4977666978666092e-05:0.036582987755536998] [4.2512456275289878e-05:0.048605229705572101] [1.7433194443583488e-05:0.039459496736526399] [0.00058123562484970002:0.90309381484985363] [2.607125134090893e-05:0.046324420720338801] [5.2667590352939442e-05:0.0685143172740936] [2.4377557565458119e-05:0.045720536261796903] [0.00047883100342:0.43055450916290278] [1.595826142875012e-05:0.0458641685545444] [4.339627776062116e-05:0.076124347746372195] [1.3441493138088845e-05:0.041775830090045901] [0.0021091529633849001:0.91380792856216442] [1.9997156414319761e-05:0.041335169225931098] [0.0001104749826481:0.083423458039760506] [1.8854370864573863e-05:0.040399029850959702] [0.00027719986974259999:0.35613477230072021] [1.34906658786349e-05:0.039428360760211903] [0.0001067055782186:0.13190601766109461] [1.4674969861516727e-05:0.0376944541931152] [0.00131897686515:0.80332082509994507] [4.7254019591491669e-05:0.0718070343136787] [0.0013143221149221:0.80241316556930542] [0.00041262558079320001:0.33555018901824951] [0.0013589763548225:0.81259316205978394] [3.9535640098620206e-05:0.052651863545179298] [0.0013430593535304:0.81382948160171509] [0.0039126616902649004:0.50942850112915039] [0.0016168970614671:0.84288769960403442] [8.4695304394699633e-05:0.062657065689563696] [0.0016106680268420999:0.84274059534072876] [0.00041343865450470002:0.38350722193717951] [0.001592090469785:0.83264857530593872] [4.1668441554065794e-05:0.051583595573902102] [0.0015979742165654:0.83466422557830811] [0.00057326379464929999:0.90318357944488525] [0.0014094609068706001:0.8627285361289978] [6.7033673985861242e-05:0.0692478492856025] [0.0014041013782843:0.86243289709091187] [0.0004319554427638:0.4257481694221496] [0.0013916682219132:0.85998827219009399] [5.4471649491460994e-05:0.070754274725914001] [0.0013700207928194999:0.86224645376205444] [0.0022173505276441002:0.91136318445205677] [0.0014193881070241:0.84563440084457397] [0.00010369173105570001:0.082149744033813393] [0.0014545046724379:0.84491103887557983] [0.0002660361933521:0.3453432023525238] [0.0013924728846176999:0.84500980377197266] [8.9146953541785479e-05:0.130643755197525] [0.0014098194660617999:0.84573453664779663] [1.2535876521724276e-05:0.039850771427154499] [6.681979721179232e-05:0.088537476956844302] [1.0702866347855888e-05:0.0369446091353893] [0.00012994209828319999:0.3098050057888031] [1.2543853699753528e-05:0.039149053394794402] [8.6675776401534677e-05:0.087589770555496202] [1.3471959391608834e-05:0.042312901467084801] [0.0030957257840782001:0.57398867607116699] [5.5585260270163417e-06:0.045083265751600203] [0.0001162264888989:0.063266865909099496] [6.1700579863099847e-06:0.045854441821575102] [0.00043166789691889999:0.54488050937652588] [9.6565636340528727e-06:0.056662797927856397] [6.8929170083720237e-05:0.048888113349676098] [9.2366217359085567e-06:0.056302968412637697] [0.00050719763385130004:0.87558126449584961] [3.7936726585030563e-05:0.065655894577503204] [4.5485143346013501e-05:0.070669718086719499] [3.5417804610915482e-05:0.066063724458217593] [0.00056263891747219995:0.39310497045516968] [4.364908454590477e-05:0.072949320077896104] [8.8525834144093096e-05:0.10017728805541989] [3.9034836e-05:0.076682455837726496] [0.0020426912233233001:0.84938114881515503] [2.1846726667718031e-05:0.050054356455802897] [9.6882969955913723e-05:0.0683290660381317] [1.94906497199554e-05:0.0527225472033023] [0.0002947243920061:0.24511498212814331] [2.4163529815268703e-05:0.046404827386140803] [8.0363497545477003e-05:0.083074636757373796] [2.7891634090337902e-05:0.043971739709377199] [0.00032175634987649998:0.18970896303653709] [6.6101165430154651e-05:0.082045741379261003] [0.0003376056847628:0.1915561109781265] [0.00012447567132760001:0.30169031023979181] [0.00042605126509439998:0.1903479993343353] [7.6542513852473348e-05:0.090773537755012498] [0.0004302567394915:0.19027045369148249] [0.0031603046227245998:0.57360637187957764] [0.00051147554768240003:0.21683502197265619] [0.0001170921750599:0.056383412331342697] [0.00049477961147199997:0.2115035206079483] [0.00044118540245100001:0.54201036691665649] [0.00050562061369410001:0.22128993272781369] [6.2356048147194088e-05:0.044095885008573497] [0.00047027360415079997:0.22535461187362671] [0.00051349494606250001:0.87547481060028076] [0.00043985908268950001:0.17981989681720731] [5.2284565754234791e-05:0.070121273398399298] [0.00039522198494520001:0.17795208096504209] [0.00053921021753920001:0.40376397967338562] [0.00046847295016050003:0.1813829243183136] [9.5727154985070242e-05:0.099100247025489793] [0.0004582823603413:0.18019814789295191] [0.0020988788455724001:0.85184842348098755] [0.00033719380735409998:0.16849301755428309] [8.6484054918400943e-05:0.069006271660327897] [0.00032250874210140002:0.15992484986782071] [0.00030419102404259998:0.25450143218040461] [0.00032340441248369998:0.14694298803806299] [6.6173000959679484e-05:0.080027796328067696] [0.00031214646878649998:0.1500644236803054] [2.9791519409627654e-05:0.044145178049802697] [8.1937068898696452e-05:0.10456075519323341] [2.7082936867373064e-05:0.047052323818206697] [0.00011488308518890001:0.31086036562919611] [2.8958678740309551e-05:0.049969706684350898] [8.5784828115720302e-05:0.081836000084877] [2.9552218620665371e-05:0.055290732532739598] [0.0030699479393661001:0.54067778587341309] [1.8684806491364725e-05:0.039155233651399599] [9.3395676231011762e-05:0.078408636152744293] [1.5836672901059501e-05:0.038598719984292901] [0.00038577720988539998:0.49207872152328491] [1.7796413885662332e-05:0.037726089358329697] [5.0084658141713589e-05:0.045357916504144599] [1.8999689928023145e-05:0.038444053381681401] [0.00053956726333119996:0.875160813331604] [1.7231275705853477e-05:0.049130849540233598] [3.8465423131128773e-05:0.077258840203285203] [1.6035315638873726e-05:0.0442999713122844] [0.00049639638746150003:0.43495616316795349] [2.058651989500504e-05:0.049795430153608301] [7.6776152127422392e-05:0.1085031405091285] [2.0736031729029492e-05:0.054040521383285502] [0.0022356170229613:0.87381011247634888] [2.9661654480150901e-05:0.0420842990279197] [8.371991862077266e-05:0.089215852320194203] [2.5726173000000001e-05:0.043154932558536502] [0.00028400355949989998:0.28382381796836847] [2.4262844817712903e-05:0.0392632521688938] [0.0001042667063302:0.093622617423534393] [2.2301050194073468e-05:0.037740442901849698] [0.0016821495955809001:0.49975511431694031] [8.1113161286339164e-05:0.1101561039686203] [0.0016090171411632999:0.50372934341430664] [0.00012033310486:0.30603459477424622] [0.0016535461181774:0.52180689573287964] [0.0001032863292493:0.080806471407413399] [0.0016734160017221999:0.51372158527374268] [0.0030307818669824999:0.53311407566070557] [0.0017245993949472:0.49960136413574219] [9.427849727217108e-05:0.080183953046798706] [0.0017585342284291:0.50459372997283936] [0.00042542221490290001:0.49339455366134638] [0.0018617671448736999:0.51129591464996338] [5.8724839618662372e-05:0.049812130630016299] [0.0019059026381:0.50501364469528198] [0.00053546071285380005:0.87507122755050659] [0.0014443335821851999:0.51993811130523682] [4.2505482269916677e-05:0.076873540878295898] [0.0014882449759170001:0.52355325222015381] [0.00046927348012100001:0.42987304925918579] [0.0014269059756769999:0.50089669227600098] [5.852542381035164e-05:0.092102937400341006] [0.0014234092086552999:0.49739935994148249] [0.0023129442706704001:0.8780902624130249] [0.0017181041184811999:0.46819072961807251] [0.000102571597381:0.10035548359155649] [0.0016874390421435001:0.4712582528591156] [0.00029028620338060002:0.28414663672447199] [0.0017409133724868001:0.45370125770568848] [0.0001047571349772:0.097790151834487901] [0.0018365721916779:0.4525870680809021] [4.5174812839832157e-05:0.1177338734269142] [9.7302472568117082e-05:0.090475022792816107] [4.2570874938974157e-05:0.094897188246250097] [0.00013567155110640001:0.276030033826828] [5.2818988478975371e-05:0.094046637415885898] [9.7496958915144205e-05:0.083319820463657296] [5.2913866966264322e-05:0.091912291944026905] [0.0037273424677549999:0.59307175874710083] [2.8259290047571994e-05:0.071576796472072601] [6.9232068199198693e-05:0.065067343413829803] [3.0366834835149348e-05:0.079025059938430703] [0.00031196200870899998:0.46355867385864258] [2.567999399616383e-05:0.064689643681049305] [5.1223298214608797e-05:0.065439626574516296] [2.6872950911638327e-05:0.0651991516351699] [0.00051403878023840001:0.83298754692077637] [3.1435287382919341e-05:0.074839435517787906] [5.6553890317445621e-05:0.079373016953468295] [3.0390039682970386e-05:0.074916765093803406] [0.00053278100676829997:0.43444153666496271] [2.7990970920654945e-05:0.081447489559650393] [8.6947300587780774e-05:0.13751228153705591] [2.9430215363390744e-05:0.093232631683349595] [0.0022734282538293999:0.83769029378890991] [4.0017868741415441e-05:0.085942506790161105] [0.0001006061211228:0.072516076266765594] [3.2803905924083665e-05:0.079876713454723303] [0.0004945589462295:0.31001722812652588] [4.0083185012917966e-05:0.087045170366763999] [0.0001152158220065:0.060584280639886801] [4.0489918319508433e-05:0.082754977047443307] [0.00031959608895699998:0.22329914569854731] [8.7747997895348817e-05:0.089372299611568395] [0.00030673106084569998:0.22181394696235651] [0.00012949827942059999:0.2813134491443634] [0.00034809450153259997:0.20217885076999659] [9.105254866881296e-05:0.077089920639991705] [0.00035968865267930003:0.20779645442962641] [0.0036191828548907999:0.60047101974487305] [0.00028739144909190002:0.2050721049308776] [6.8555520556401461e-05:0.066718809306621496] [0.0003182130749337:0.21085739135742179] [0.00028293335344639999:0.46154293417930597] [0.0003061572497244:0.21473869681358329] [4.311520024202764e-05:0.061389908194541903] [0.00029558516689570002:0.2079470157623291] [0.00051010621245950005:0.83267706632614136] [0.00049834651872509997:0.25193172693252558] [4.9256083002546802e-05:0.077458485960960305] [0.0004489307466428:0.23808412253856659] [0.00051110802451139999:0.43546605110168451] [0.00052034389227620002:0.25252684950828552] [9.5485003839712604e-05:0.14673878252506251] [0.0005307654500938:0.26875355839729309] [0.0022996519692241998:0.83534705638885498] [0.00047867128159850001:0.29599815607070917] [9.4329858256969601e-05:0.068183146417140905] [0.00045793585013590002:0.29312941431999201] [0.00050531735178080005:0.32624718546867371] [0.00056932558072729999:0.2116839736700058] [0.0001073189705493:0.070102073252200997] [0.00051902676932509995:0.2193247973918914] [5.2034371037734672e-05:0.076260223984718295] [9.2732145276386277e-05:0.087076582014560699] [4.9325277359457687e-05:0.068167872726917197] [0.0001518022763775:0.27892240881919861] [4.759924195241183e-05:0.0645498037338256] [8.8921537098940462e-05:0.090534284710884094] [5.0318903959123418e-05:0.067856177687644903] [0.0035913514439015999:0.63295936584472656] [2.4032147848629396e-05:0.061476107686758] [8.9134038717020303e-05:0.062588468194007804] [2.9950844691484235e-05:0.065096296370029394] [0.00026329280808559999:0.4386441707611084] [3.1139312341110781e-05:0.066826626658439595] [6.2914092268329114e-05:0.059426039457321098] [3.4666732972254977e-05:0.0697941854596138] [0.00056736951228229999:0.83166736364364624] [3.9938422560226172e-05:0.096561141312122303] [7.5622127042151988e-05:0.069656178355216897] [4.1296356357634068e-05:0.097922310233116094] [0.00049916171701620002:0.44954359531402588] [3.3353473554598168e-05:0.087824612855911199] [0.00011128042387999999:0.1125370636582374] [3.2899362850002944e-05:0.089610390365123693] [0.0018723094835877:0.77450472116470337] [4.0486134821549058e-05:0.1082517430186271] [8.8107197370845824e-05:0.063167020678520203] [4.1579685785109177e-05:0.094128303229808793] [0.00051666173385450003:0.33721792697906489] [3.4053187846438959e-05:0.094593234360218006] [9.6321600722149001e-05:0.059683900326490402] [3.4821801818907261e-05:0.089762397110462105] [0.0017235497944055999:0.99976825714111317] [9.4530747446697205e-05:0.090418145060539204] [0.0017450308660044999:0.9997687339782716] [0.00015771485050200001:0.282728761434555] [0.0017406215192750001:0.99977403879165638] [9.4013390480540679e-05:0.091774947941303198] [0.001744492794387:0.99976927042007435] [0.0033511575311422001:0.62128686904907227] [0.0017348728142678:0.99977147579193115] [8.5800209490116686e-05:0.0621084980666637] [0.0017076570075005:0.99976766109466564] [0.00027952497475779999:0.43215575814247131] [0.0017355681629851001:0.99976301193237305] [6.3078936364036053e-05:0.060416247695684398] [0.0017151077045126999:0.99976515769958496] [0.00056690006749700002:0.82988107204437256] [0.0017382476944476:0.99977165460586559] [8.9102926722262055e-05:0.0747437104582786] [0.0017359680496156001:0.9997658133506776] [0.00052370305638760003:0.43877500295639038] [0.0017240536399185:0.99976849555969238] [0.00011402774543960001:0.11613445729017249] [0.0017379341879859001:0.99976766109466564] [0.0018221586942672001:0.77441763877868652] [0.0017317597521468:0.99976867437362682] [8.6943160567898303e-05:0.068436421453952706] [0.0017465756973251:0.9997704029083252] [0.00051609071670099995:0.3372900784015655] [0.001726449932903:0.9997691512107848] [8.7147513113450259e-05:0.058598484843969303] [0.0017191702499985001:0.99976736307144165] [5.3639312682207681e-05:0.1153096631169319] [0.0001013952860375:0.0866077169775962] [5.0525952246971428e-05:0.1126628443598747] [0.00020280026365070001:0.3615490198135376] [3.5662204000000003e-05:0.1052175164222717] [6.1595361330546439e-05:0.086577735841274206] [3.5412129363976419e-05:0.1032258942723274] [0.0019099832279607001:0.62457334995269775] [3.866708e-05:0.087985791265964494] [8.2725062384270132e-05:0.073245368897914803] [4.180213e-05:0.090918585658073398] [0.00022026649094180001:0.32845702767372131] [4.5103915908839554e-05:0.088174536824226296] [7.6476557296700776e-05:0.054625906050205203] [4.2195155401714153e-05:0.089508153498172704] [0.0019158764043822:0.85577654838562012] [3.1478488381253555e-05:0.062491979449987398] [0.00010413812999999999:0.062220029532909303] [3.3427157177357003e-05:0.066509857773780795] [0.00030935037648300001:0.38244539499282831] [3.8233814848354086e-05:0.075924076139926897] [0.00014379033000000001:0.062097452580928802] [4.2803436372196302e-05:0.076192297041416099] [0.0018311265157535:0.90912359952926636] [6.943035259610042e-05:0.0588421002030372] [0.0001621065457584:0.081694908440112998] [5.9134290495421737e-05:0.058458451181650099] [0.00026877943309950003:0.30504304170608521] [5.9451831475598738e-05:0.069360420107841395] [0.000117905823572:0.1348664164543151] [6.5154170442838222e-05:0.070892766118049594] [0.00030044818413439998:0.129714235663414] [0.00010445918451290001:0.083830073475837694] [0.00029851804720230002:0.1261924058198928] [0.00019158599025099999:0.36509457230567932] [0.00028149009449399999:0.13206392526626581] [7.1498398028779775e-05:0.097695611417293493] [0.00027078829589290002:0.13132776319980621] [0.0019682766869664001:0.63668769598007202] [0.00046981635387049998:0.15264682471752161] [9.1633868578355759e-05:0.072749339044094002] [0.00047230281052170001:0.15729883313179011] [0.00020407605916260001:0.32311290502548218] [0.00045417775982049997:0.16623321175575251] [7.3720941145438701e-05:0.052294343709945602] [0.00051834451733150002:0.1634625047445297] [0.0018598461756482:0.85446071624755859] [0.00047867518151170001:0.2098552137613296] [9.2679630000000002e-05:0.062878474593162495] [0.00046884577022859999:0.21008040010929099] [0.0003041031595785:0.36172911524772638] [0.00040848116623229999:0.2461991012096405] [0.00014892069000000001:0.061370611190795898] [0.00044798132148570001:0.25240367650985718] [0.0019040647894144:0.9082491397857666] [0.00037052523111920003:0.1999860405921936] [0.0001919945061672:0.078898005187511402] [0.00036088342312719999:0.19434067606925959] [0.0002479311369825:0.29584783315658569] [0.00030164301279:0.15956704318523399] [0.0001122693138313:0.1450939923524856] [0.00029591677593990002:0.16110830008983609] [3.6702454963233322e-05:0.1066396236419677] [9.9594406492542475e-05:0.085282735526561695] [3.3545442420290783e-05:0.1101711988449096] [0.00018974510021499999:0.3674700260162353] [3.1478310120292008e-05:0.094504714012145996] [4.0591981814941391e-05:0.1066255792975425] [2.9845123208360747e-05:0.096571654081344604] [0.0019772227387875002:0.62202870845794678] [1.8791522961691957e-05:0.074972584843635504] [8.0196681665256619e-05:0.063467495143413502] [2.6998715838999487e-05:0.072600930929183904] [0.00023328262614080001:0.31826514005661011] [2.9631430152221583e-05:0.076744459569454193] [5.9464873629622161e-05:0.054921101778745603] [3.0630253604613245e-05:0.075461506843566895] [0.0018165186047554001:0.85607403516769409] [2.3745038561173715e-05:0.054360043257474899] [0.00012251969:0.072539217770099598] [2.6671837986214086e-05:0.055602837353944702] [0.00032462584204040002:0.39116793870925898] [3.0689174309372902e-05:0.057872079312801299] [0.000174635570147:0.069410078227519906] [2.8466396543080918e-05:0.058138288557529401] [0.0020388471893965998:0.92197805643081676] [3.6372348404256627e-05:0.069506786763668005] [0.00017358802142550001:0.079756058752536704] [3.4092536225216463e-05:0.072360672056674902] [0.0002844411937985:0.32743889093399048] [4.7843299398664392e-05:0.082118324935436193] [0.0001039040434989:0.1379936337471008] [4.1608444007579237e-05:0.083803243935108102] [0.0025738568510860001:0.45163503289222717] [0.0001090053701773:0.087389416992664296] [0.0026090345345437002:0.45821228623390198] [0.00019261353008910001:0.36849012970924377] [0.0024547576904295999:0.44346743822097778] [5.0277605623705313e-05:0.104177251458168] [0.0024359433446078998:0.43788748979568481] [0.0019138749921693999:0.631844162940979] [0.0033599380403757:0.43121090531349182] [7.5124968134332448e-05:0.068253956735134097] [0.0035059198271483001:0.4303260445594787] [0.00024181195476550001:0.32311168313026428] [0.0033902458380907002:0.47787311673164368] [5.4194653785089031e-05:0.055059943348169299] [0.0032758305314927998:0.47759300470352167] [0.0018011197680607:0.85882341861724854] [0.0030275804456322999:0.3786768913269043] [0.00013107789999999999:0.073444701731204903] [0.0030353479087351998:0.37169376015663141] [0.00035525180283000002:0.40970039367675781] [0.0029109797906130002:0.3548146784305572] [0.00018749755690800001:0.072193026542663505] [0.0027886237949132:0.3506675660610199] [0.0019365831976756:0.9233608841896056] [0.0030334859620778998:0.32706621289253229] [0.00017239707813130001:0.083093002438545199] [0.0031695882789790002:0.33000326156616211] [0.00030504222377200001:0.33824741840362549] [0.0026024798862635998:0.33957421779632568] [9.491870878264308e-05:0.13884197175502769] [0.0023206099867819998:0.34289243817329401] [4.3712771002901718e-05:0.067264750599861103] [8.3846236520912498e-05:0.082328230142593301] [4.7157183871604502e-05:0.070676676928996998] [0.0001620244875084:0.39699700474739069] [2.8187321731820703e-05:0.068479888141155201] [6.8703564465977252e-05:0.082296289503574302] [3.201409344910644e-05:0.069138608872890403] [0.0016577241476625:0.57547277212142944] [1.6449615941382945e-05:0.058223485946655197] [6.3934901845641434e-05:0.060394644737243597] [1.5732835890958086e-05:0.056170802563428802] [0.0002005661517614:0.3456612229347229] [1.6450871044071391e-05:0.051513392478227601] [3.1529772968497127e-05:0.052428938448429101] [1.6331070582964458e-05:0.053400952368974602] [0.0016944556264205999:0.86109143495559692] [9.4100778369465843e-06:0.067852497100829995] [0.00015659813652739999:0.086205758154392201] [1.0055186976387633e-05:0.067389331758022294] [0.0003636306792031:0.40443244576454163] [1.1103995348094031e-05:0.077327400445938096] [0.0001815850991988:0.075052991509437506] [1.0876969099626876e-05:0.0756355375051498] [0.0016700226115062:0.92313438653945923] [1.3793326615996191e-05:0.063589774072170202] [0.00020973185019099999:0.099807493388652802] [1.1975099369010422e-05:0.0665439292788505] [0.00034259789390479999:0.35039815306663508] [1.1837279089377262e-05:0.066465474665164906] [0.00011811512376879999:0.1892285346984863] [1.1711294973792974e-05:0.062444340437650597] [0.00039901674608689997:0.16617363691329951] [6.9997418904677033e-05:0.079590238630771595] [0.00037832345697089999:0.16761569678783411] [0.00016827495710450001:0.40367928147315979] [0.00029927463037889999:0.1624680757522583] [8.9530745754018426e-05:0.080711245536804199] [0.00031321457936419998:0.16713769733905789] [0.0015835417434573:0.56374990940093994] [0.00030669741681770002:0.18085978925228119] [6.429140194086358e-05:0.062451690435409497] [0.00030583899933840002:0.1777320504188537] [0.00020781056082340001:0.34667068719863892] [0.00033293390879400001:0.1874792128801345] [2.7158379452885129e-05:0.049730662256479201] [0.00035369105171410002:0.1912004798650741] [0.0017049667658284001:0.86096668243408203] [0.00031476790900339998:0.22773513197898859] [0.0001460891799069:0.0896299257874488] [0.00028419369482430001:0.2277692705392837] [0.00036409773747430002:0.4014770090579986] [0.00026000218349500002:0.2284808605909347] [0.0001771002425812:0.080755710601806599] [0.00027456303359939998:0.24671263992786399] [0.0016252541681751:0.92547500133514404] [0.00025146524421869998:0.22189891338348389] [0.00024295726325359999:0.10311071574687949] [0.0002280437474837:0.2187781333923339] [0.00031400477746499998:0.33160212635993958] [0.00027199485339220002:0.2158029824495315] [0.00011855870252470001:0.1790531724691391] [0.00030807039001950001:0.21289832890033719] [2.6548406822257675e-05:0.077274307608604403] [8.4424944361671805e-05:0.095731966197490595] [2.40450772253098e-05:0.077134996652603094] [0.00017147080507120001:0.43524745106697083] [1.8512568203732371e-05:0.081704765558242798] [0.0001249324122909:0.099380038678646004] [1.8868906408897601e-05:0.082372754812240601] [0.0015629081754013:0.60932344198226929] [1.5151123989198824e-05:0.094335615634918199] [7.7627701102755964e-05:0.073107428848743397] [1.4691858268633951e-05:0.1027360707521438] [0.00020356202730899999:0.3389062881469726] [1.4481434845947661e-05:0.1017900258302688] [3.7989324482623488e-05:0.045417811721563298] [1.5123261619010007e-05:0.098493158817291204] [0.0017624526517464999:0.85577833652496338] [6.9863267526670825e-06:0.092499040067195795] [0.00015051946684249999:0.084888897836208302] [8.1235402831225656e-06:0.1015703156590461] [0.00035666604526340002:0.38292855024337769] [7.3391165642533451e-06:0.094839654862880707] [0.00019624156993809999:0.086640484631061498] [5.4743750297348015e-06:0.089379452168941498] [0.0015853598015381999:0.91008222103118896] [6.6214788603247143e-06:0.090288616716861697] [0.00016404525376850001:0.0767789110541343] [8.752445864956826e-06:0.090733990073203999] [0.00031034648418419998:0.34139406681060791] [9.9080707514076494e-06:0.099787510931491796] [0.00014559274131890001:0.19109047949314109] [1.0052291145257186e-05:0.098761424422264099] [0.0027926047:0.83098173141479492] [8.7056563643272966e-05:0.095183469355106298] [0.0027791404:0.83069700002670288] [0.00016658508684480001:0.43762221932411188] [0.0024753497000000002:0.82608801126480103] [0.0001137871586252:0.101079374551773] [0.0024814300000000002:0.82455176115036011] [0.0016126481350511:0.60342258214950562] [0.0025981820654124:0.79330134391784668] [7.3534451075829566e-05:0.075624696910381303] [0.0025776852853595998:0.79698282480239868] [0.00020752147247540001:0.33949711918830872] [0.0027413277421145998:0.79019731283187866] [3.7347879697335891e-05:0.047623232007026603] [0.0027135980781167:0.79153501987457275] [0.0017460443777963001:0.85780805349349976] [0.0022920751944184:0.80994647741317749] [0.0001367832155665:0.088805556297302204] [0.0022900435142219002:0.81109380722045898] [0.00035657355329020001:0.37143820524215698] [0.0024218813050537998:0.8187483549118042] [0.00020458901417439999:0.086596764624118805] [0.0024382793344556999:0.81753146648406982] [0.0016180544625966999:0.91076624393463124] [0.0017821107758209001:0.8280065655708313] [0.00017434341134500001:0.081224657595157596] [0.0020002222154288998:0.82854241132736206] [0.00033641242771399998:0.33851486444473261] [0.00095918384613459995:0.8300926685333252] [0.00014813776942899999:0.19846898317337031] [0.00078499101800839997:0.82938003540039062] [1.7954951545107178e-05:0.10270876437425611] [9.6561450000000004e-05:0.082247555255889795] [1.6152314856299199e-05:0.097279459238052299] [0.0002260717446915:0.45525467395782471] [1.2926738236274105e-05:0.096541158854961395] [0.0001171196417999:0.17316208779811859] [1.8354898202233016e-05:0.10256329923868179] [0.0013705367455258001:0.65942549705505371] [2.1973975890432484e-05:0.075866997241973794] [6.9096851802896708e-05:0.073286846280097906] [2.1193374777794816e-05:0.080635756254196098] [0.0002453430497553:0.44621607661247248] [1.5663777958252467e-05:0.074640788137912695] [7.9891359999999996e-05:0.063693612813949502] [1.4178715900925454e-05:0.073123238980770097] [0.0016427641967311001:0.83559805154800415] [1.5778079614392482e-05:0.083519987761974293] [5.9933117881882936e-05:0.064064070582389804] [1.6787636923254468e-05:0.088506855070590904] [0.00026650863583189998:0.38046449422836298] [1.6811925888760015e-05:0.091451339423656394] [0.00012210752174720001:0.076983131468295996] [1.5709178114775568e-05:0.084553644061088507] [0.0013446522643789001:0.89179641008377075] [1.7014670447679237e-05:0.1037558540701866] [0.0001766824716469:0.093694925308227497] [1.7785454474505968e-05:0.1023797243833541] [0.0002526488096918:0.35269924998283381] [2.366579974477645e-05:0.1042482554912567] [0.00012676000187629999:0.2165084183216095] [2.4304064936586656e-05:0.10903416574001309] [0.00035780877806239998:0.2453123331069946] [6.5708693000487983e-05:0.076143078505992806] [0.00040552316932:0.25177443027496338] [0.0002315932360943:0.44243395328521729] [0.00045793366734859999:0.24151983857154841] [0.00010768719221230001:0.15065798163413999] [0.00045006262371309998:0.24868139624595639] [0.0013996809720993001:0.65951400995254517] [0.00054358522174869999:0.27773135900497431] [5.8432968216948211e-05:0.070237070322036702] [0.00052994902944190003:0.2702067494392395] [0.00027606260846360002:0.45666190981864929] [0.00074180774390689998:0.26224994659423828] [8.1100239999999996e-05:0.066420920193195301] [0.00076281162910159998:0.27110555768013] [0.0016607225406914:0.83594566583633423] [0.00067357427906239995:0.35326606035232538] [6.2919374613557011e-05:0.058109849691390901] [0.00071414100239049997:0.3500265479087829] [0.00025308880140069998:0.3840404748916626] [0.00070236984174690004:0.29406961798667908] [0.0001321214658673:0.076448149979114505] [0.00073623377829789996:0.2938466072082519] [0.001348091289401:0.89015394449234009] [0.00096095789922399997:0.27916273474693298] [0.0001770065573509:0.090738087892532293] [0.00093575491337100005:0.28871709108352661] [0.00024571386165910002:0.35772529244422913] [0.00053382769692679997:0.24476911127567291] [0.0001088352510123:0.22004455327987671] [0.00051639310549939999:0.24883030354976651] [1.8147255104850046e-05:0.055750023573637002] [7.6233147410675883e-05:0.077586695551872198] [1.6679790860507637e-05:0.053038302809000001] [0.00031142713851290001:0.43428382277488708] [1.1691777217492929e-05:0.0531979911029338] [0.00013133902393740001:0.15557432174682609] [1.4386688235390466e-05:0.053123708814382498] [0.0014633664395659999:0.66353774070739746] [2.080129343084991e-05:0.045625656843185397] [5.3444473451236263e-05:0.074176080524921403] [2.4003817088669169e-05:0.046257272362708997] [0.00033255858579650001:0.45348250865936279] [2.4423048671451401e-05:0.046418398618698099] [8.7540560343768448e-05:0.092002518475055695] [2.1549358280026357e-05:0.045409489423036499] [0.0015074134571477001:0.83548420667648315] [1.0691359420889056e-05:0.064301833510398795] [4.7401466872543097e-05:0.052925825119018499] [1.2732543837046251e-05:0.062275473028421402] [0.00024722510715940001:0.38662821054458618] [1.6100380889838561e-05:0.063721597194671603] [7.9653640568722039e-05:0.080886021256446797] [1.4761770216864534e-05:0.067774243652820504] [0.0014029978774487001:0.90537565946578979] [1.2809848158212844e-05:0.059485018253326402] [0.00015120951866260001:0.079173795878887093] [1.3204135939304251e-05:0.061128772795200299] [0.0002279563486808:0.33422312140464783] [2.6434569008415565e-05:0.064750082790851496] [0.0001011934145935:0.18233637511730191] [2.2753838493372317e-05:0.061328072100877699] [0.0023519794922322:0.45111864805221558] [9.7550444479566081e-05:0.076926887035369804] [0.0023334270808844999:0.45014053583145142] [0.00029867803095830003:0.45386534929275513] [0.0019173732725902999:0.50523459911346436] [0.00012306428106960001:0.1731196790933609] [0.0019792318344115998:0.49840536713600159] [0.001418694271706:0.65684950351715088] [0.0021403243299573001:0.57333546876907349] [5.3643405408365652e-05:0.075051739811897195] [0.0020748234819620002:0.57157027721405029] [0.00034349676570850002:0.45903962850570679] [0.0018170997500419001:0.53687268495559692] [8.4865736425854266e-05:0.091431424021720803] [0.0019139798823744:0.53692519664764404] [0.0014565206365659:0.83516836166381836] [0.0030811703763902001:0.4610086977481842] [4.327436545281671e-05:0.052455037832260097] [0.0032702833414077:0.46235120296478271] [0.00025598471984259998:0.37608379125595093] [0.0028596406336873002:0.43749043345451349] [7.6383410487323999e-05:0.091685295104980399] [0.0026331127155571998:0.4545710682868957] [0.0014111928176134001:0.90261608362197876] [0.0029955406207591:0.3743310272693634] [0.00014055326755620001:0.088381066918373094] [0.0028767979238181998:0.36767217516899109] [0.00023454493202730001:0.31979504227638239] [0.0026748867239803002:0.35713222622871399] [9.806854359339924e-05:0.19666624069213859] [0.0026234854012727:0.36285415291786188] [4.721753066405654e-05:0.088706590235233307] [0.0001167579030152:0.096473500132560702] [4.542233727988787e-05:0.088077038526535006] [0.0004430649278219:0.42649546265602112] [2.4635379304527305e-05:0.077728681266307803] [0.000111252105853:0.1473634988069534] [3.371197817614302e-05:0.078311622142791706] [0.0013734775129705:0.67179811000823975] [2.6935527785099111e-05:0.077263399958610507] [9.4081733550410718e-05:0.087776094675064004] [2.5046669179573652e-05:0.082005046308040605] [0.00060807220870619997:0.50812560319900513] [2.6735786377685145e-05:0.074886046350002206] [0.00012603300274339999:0.1224178299307823] [2.937786302936729e-05:0.070327669382095295] [0.0017730640247464:0.85178864002227783] [3.654678221209906e-05:0.062796853482723194] [5.3894604207016528e-05:0.054564189165830598] [3.6857905797660351e-05:0.064782835543155601] [0.00028107443358740001:0.43406975269317621] [2.4964258045656607e-05:0.073751002550125094] [0.0001099388246075:0.0607051067054271] [3.2312625990016386e-05:0.072248339653015095] [0.0016613259213045001:0.90118157863616943] [2.0259361917851493e-05:0.097161568701267201] [0.00018490196089260001:0.080071941018104498] [1.9875002180924639e-05:0.095314629375934601] [0.0001151524484157:0.33082428574562073] [3.355631633894518e-05:0.083234533667564295] [0.0001326319179497:0.1411682516336441] [2.7212357963435352e-05:0.087330125272274003] [0.00051358778728170004:0.26892364025115961] [0.00011504379654070001:0.092428535223007202] [0.00050304608885189995:0.26996973156929011] [0.00041549696470610001:0.42834693193435669] [0.00051558605628079996:0.3020959198474884] [9.9637916719075279e-05:0.15462285280227661] [0.00049690838204689998:0.30210778117179871] [0.0013363601174205:0.67056852579116821] [0.00053440220654010003:0.27280300855636591] [9.8407181212678565e-05:0.094449065625667503] [0.00054437667131420004:0.27753153443336481] [0.0005626989295706:0.50245893001556396] [0.00056818831944830002:0.24377650022506711] [0.00012611474085129999:0.12030937522649759] [0.000578166975174:0.2442258894443512] [0.0017609884962438999:0.85182541608810425] [0.00045399818918659998:0.3124353289604187] [5.0570251914905377e-05:0.049176476895809097] [0.00047109194565559998:0.31282508373260498] [0.0003049564838875:0.43673282861709589] [0.00071945373201740004:0.2951540052890777] [0.00010472127905809999:0.063819944858550998] [0.00074333517113699999:0.29339241981506348] [0.0016968604177236:0.90178066492080677] [0.00057723280042399998:0.2354197949171066] [0.00016240499098780001:0.076911158859729697] [0.00055700819939370001:0.23018892109394071] [0.0001139449232141:0.3226232230663299] [0.00035942796966989998:0.1980619132518768] [0.00012302637333049999:0.146909475326538] [0.0003654830507002:0.1989828497171402] [5.0936636398546398e-05:0.095755130052566501] [0.00013834507262790001:0.079548649489879594] [5.310585765982978e-05:0.1008863449096679] [0.00045104057062409999:0.44342672824859619] [3.0225350201362744e-05:0.091651946306228596] [9.5143441285472363e-05:0.13255983591079709] [3.2623087463434786e-05:0.086542144417762701] [0.0013261776184663001:0.70628273487091064] [3.6143002944299951e-05:0.076879799365997301] [8.461362e-05:0.0842013210058212] [3.2551241019973531e-05:0.076671786606311798] [0.00062084704404690003:0.52218157052993774] [4.8207304644165561e-05:0.075568400323390905] [0.000100785575:0.10541243851184839] [5.3126983402762562e-05:0.075464136898517595] [0.0017762299394235:0.85313457250595093] [4.1751736716832966e-05:0.055465590208768803] [5.2133214921923361e-05:0.066428624093532507] [4.0787708712741733e-05:0.054729148745536797] [0.0002324639644939:0.43945732712745661] [2.3994089133339003e-05:0.0540220849215984] [0.00010937311890300001:0.070495486259460394] [2.2657979570794851e-05:0.055400215089321102] [0.0018501185113563999:0.89945495128631592] [2.6247476853313856e-05:0.0497976876795291] [0.00015556320431640001:0.073222108185291193] [2.4299406504724171e-05:0.045985158532857798] [8.6305444710887969e-05:0.28582379221916199] [2.7121781386085783e-05:0.043130658566951703] [9.4931019702926278e-05:0.1170400977134704] [2.481521914887708e-05:0.042936716228723498] [0.0001517037308076:0.086336247622966697] [0.00044847975368610002:0.45365089178085322] [8.8191591203212738e-05:0.13363096117973319] [0.0013127357233314999:0.70139968395233154] [7.6554420000000001e-05:0.079585425555705996] [0.00062094675377009998:0.51962023973464966] [0.00010760804000000001:0.1097881197929382] [0.0017917056102305:0.85405850410461426] [5.5212502047652379e-05:0.0670154988765716] [0.0002250426914542:0.43967360258102411] [0.00010683845175660001:0.062511064112186404] [0.0019791063386946002:0.89868241548538208] [0.0001592775079188:0.063738398253917694] [8.3147308032494038e-05:0.29247748851776117] [9.8052172688767314e-05:0.1108152493834495]
tree_sizes=1157 1177 1289 1389 1291 1393

Tree=0
num_leaves=10
num_cat=0
split_feature=109 133 649 79 521 69 931 631 504
split_gain=23.6533 24.3318 13.852 16.2943 7.53445 7.71037 4.67901 10.0301 2.82329
threshold=0.07651470974087711 0.0020709405653178002 0.00082701840437945007 0.0004933556192554501 0.0078856800682842506 0.0056281262077390514 0.0021490118233486503 0.00057917658705260015 0.057149687781929907
decision_type=2 2 2 2 2 2 2 2 2
left_child=6 2 3 -2 5 -3 7 8 -1
right_child=1 4 -4 -5 -6 -7 -8 -9 -10
leaf_value=1.2510002851671687 0.87394313054768102 1.1702023234629928 0.78929764685759185 1.1702023234629928 1.2095654330111811 0.96884867286687171 1.2510002851671687 1.0466836003979882 1.1432696695616007
leaf_weight=7.0546334087848717 3.7129649519920367 3.7129649519920331 3.8986131995916367 3.7129649519920349 7.2402816563844681 3.8986131995916367 8.168522894382475 5.3837991803884497 3.7129649519920349
leaf_count=38 20 20 21 20 39 21 44 29 20
internal_value=1.11832 1.05235 0.941937 1.02207 1.13654 1.06707 1.18932 1.15813 1.21385
internal_weight=0 26.1764 11.3245 7.42593 14.8519 7.61158 24.3199 16.1514 10.7676
internal_count=272 141 61 40 80 41 131 87 58
is_linear=0
shrinkage=1


Tree=1
num_leaves=10
num_cat=0
split_feature=442 842 791 938 17 642 642 90 665
split_gain=19.6566 14.1988 11.1585 14.6005 9.1277 3.48064 11.315 1.79808 0.00245789
threshold=0.19456271827220914 0.096956323832273469 0.10746039450168607 0.072448268532752921 0.0022822743048891004 0.0019305780879221503 0.0027696852339431505 0.0079927346669137009 0.00027375943318470002
decision_type=2 2 2 2 2 2 2 2 2
left_child=2 -2 5 -4 -5 7 -7 8 -1
right_child=1 -3 3 4 -6 6 -8 -9 -10
leaf_value=0.1286218303367293 -0.20346468998735376 0.032434180377612636 -0.18945210581848868 -0.080558002502269466 0.10265133200762351 -0.10379901607577494 0.11464350285330407 0.048574931395006279 0.13183332258035302
leaf_weight=3.8061926066875476 7.0040175914764387 4.0137120336294174 4.2864220589399329 4.6120142191648466 6.6265034228563309 3.8202038258314115 6.251898467540741 3.6198986619710913 6.3740816414356232
leaf_count=22 35 22 22 24 36 21 35 20 35
internal_value=0 -0.117528 0.0335692 -0.0324244 0.0274667 0.076487 0.0317914 0.109108 0.130633
internal_weight=0 11.0177 39.3972 15.5249 11.2385 23.8723 10.0721 13.8002 10.1803
internal_count=272 57 215 82 60 133 56 77 57
is_linear=0
shrinkage=0.1


Tree=2
num_leaves=11
num_cat=0
split_feature=109 401 48 408 931 792 14 637 770 272
split_gain=16.3204 15.1832 7.10104 9.73925 4.26805 8.69155 8.03881 2.97808 0.208555 0.00161986
threshold=0.07651470974087711 0.0037106969393789005 0.011879601050168252 0.012300711590796652 0.0021490118233486503 0.0056811182294040511 0.00093912365264255007 0.0083542037755250532 0.0012287757708690503 0.024042356759309703
decision_type=2 2 2 2 2 2 2 2 2 2
left_child=4 2 -2 -4 5 8 -7 -3 -1 -6
right_child=1 7 3 -5 9 6 -8 -9 -10 -11
leaf_value=0.095924174072049784 -0.1763902791510166 -0.0064604301607806809 0.065348606184826033 -0.12992600346955518 0.12522712943331077 0.076179835930209175 -0.12252849040549874 0.10815006171784664 0.13016277935621345 0.12821114020443067
leaf_weight=3.2867450118064907 7.7298001497983995 4.2640051245689374 4.3129288703203184 6.262923464179039 3.6998278796672812 3.6074479371309263 4.6734311133623123 4.8413562774658203 3.8782883286476135 3.5789152830839157
leaf_count=20 36 23 23 31 23 20 25 28 22 21
internal_value=0 -0.0510484 -0.103538 -0.0502912 0.0635631 0.0338131 -0.035964 0.0544784 0.114457 0.126694
internal_weight=0 27.411 18.3057 10.5759 22.7247 15.4459 8.28088 9.10536 7.16503 7.27874
internal_count=272 141 90 54 131 87 45 51 42 44
is_linear=0
shrinkage=0.1


Tree=3
num_leaves=12
num_cat=0
split_feature=543 784 504 971 760 379 669 642 766 892 4
split_gain=14.0488 11.8097 9.21063 7.59978 15.0207 6.48253 4.49217 11.7036 1.82347 0.0120861 0.0107197
threshold=0.33538725972175604 0.023568036966025805 0.2449663728475571 0.029080958105623705 0.10361622646450996 0.0031222231918945505 0.0015716251800767503 0.0026865772670134507 0.00053179726819500015 0.13169471919536593 0.007490513613447501
decision_type=2 2 2 2 2 2 2 2 2 2 2
left_child=2 -2 3 4 6 -6 8 -8 -1 -5 -10
right_child=1 -3 -4 9 5 -7 7 -9 10 -11 -12
leaf_value=0.041403998635323271 -0.22509100231882187 -0.0075799457056717565 -0.12304734660405121 0.12881488810197689 -0.18149007511670487 -0.00020973458238431297 -0.11499960203430998 0.12653354782896795 0.12400520912944993 0.13683050525991225 0.13110406413530293
leaf_weight=3.4752282053232255 4.484296038746832 5.63027423620224 3.6603738516569129 3.7667059004306784 4.235539346933364 3.692171722650528 3.9774178713560087 4.0478259325027466 5.4199288338422758 3.7577148228883743 3.5013890117406845
leaf_count=21 20 31 17 22 20 20 21 25 35 20 20
internal_value=0 -0.104014 0.0280595 0.0434776 0.0197653 -0.0970624 0.0651176 0.0068265 0.102854 0.132818 0.126791
internal_weight=0 10.1146 39.5343 35.8739 28.3495 7.92771 20.4218 8.02524 12.3965 7.52442 8.92132
internal_count=272 51 221 204 162 40 122 46 76 42 55
is_linear=0
shrinkage=0.1


Tree=4
num_leaves=11
num_cat=0
split_feature=109 523 644 931 697 673 456 714 117 190
split_gain=11.314 10.6793 5.79406 8.17155 11.9488 3.95253 12.5826 2.37424 1.8337 0.00346563
threshold=0.07651470974087711 0.0082224016077816018 0.25065375119447708 0.0010569007718003503 0.0020333565771579504 0.0018100534798577001 0.0016807160573079503 0.34579883515834814 0.038661137223243658 0.0045997400302439512
decision_type=2 2 2 2 2 2 2 2 2 2
left_child=5 2 3 -2 -5 8 -7 -3 9 -1
right_child=1 7 -4 4 -6 6 -8 -9 -10 -11
leaf_value=0.12118246958016309 -0.14505887106585633 0.12868187107735693 -0.17179069470395844 0.13457298557129727 -0.080681947104676702 -0.11791502459411535 0.10885314499705499 0.0097606934395031986 0.031876247804336504 0.12543304129466701
leaf_weight=4.8765376955270785 5.5885100960731604 3.3761057853698722 4.8001581132411948 4.2470186054706556 6.5651886612176895 4.3028340190649015 5.6726572960615158 3.3394062519073486 3.0582771599292746 3.1618934869766235
leaf_count=34 25 20 21 23 32 23 36 20 18 20
internal_value=0 -0.0403492 -0.0751593 -0.0468773 0.00386986 0.0567174 0.0110388 0.0695462 0.0977806 0.122854
internal_weight=0 27.9164 21.2009 16.4007 10.8122 21.0722 9.97549 6.71551 11.0967 8.03843
internal_count=272 141 101 80 55 131 59 40 72 54
is_linear=0
shrinkage=0.1


Tree=5
num_leaves=12
num_cat=0
split_feature=14 126 466 535 696 974 742 976 648 816 665
split_gain=9.94796 10.4743 9.65222 8.16601 4.41734 6.83716 2.15 1.50051 0.986709 0.0134497 0.0104462
threshold=0.00093912365264255007 0.0011028642698635502 0.98781585693359386 0.24828338623046872 0.0017840345972217001 0.003965250914916351 0.21548514068126678 0.0012294290936551502 0.0056909597478806513 0.0013774742255918003 0.00032412390282840004
decision_type=2 2 2 2 2 2 2 2 2 2 2
left_child=7 -2 3 4 8 -6 -7 10 -3 -10 -1
right_child=1 2 -4 -5 5 6 -8 -9 9 -11 -12
leaf_value=0.11890122761999958 -0.13628029920191831 0.058806143485935505 -0.10729544922811636 -0.093403623017992501 -0.076054526219471327 0.13135804027558551 0.020513500496358614 0.03916619230446549 0.12314558236141662 0.13225806791918623 0.12715593642016546
leaf_weight=3.0543168485164625 6.5297784507274619 3.0085992366075569 6.4066688865423194 4.4532970488071433 4.8835843652486783 3.6398181170225143 3.3700926899909973 3.270019456744194 3.0127661228179932 3.503005713224411 3.0779710561037064
leaf_count=23 32 20 31 21 25 22 19 20 20 20 19
internal_value=0 -0.0207736 0.00259331 0.0298059 0.0554241 0.014784 0.0780683 0.0938725 0.106173 0.128045 0.123045
internal_weight=0 38.8076 32.2778 25.8712 21.4179 11.8935 7.00991 9.40231 9.52437 6.51577 6.13229
internal_count=272 210 178 147 126 66 41 62 60 40 42
is_linear=0
shrinkage=0.1


end of trees

feature_importances:
108=3
641=3
930=3
13=2
503=2
664=2
3=1
16=1
47=1
68=1
78=1
89=1
116=1
125=1
132=1
189=1
271=1
378=1
400=1
407=1
441=1
455=1
465=1
520=1
522=1
534=1
542=1
630=1
636=1
643=1
647=1
648=1
668=1
672=1
695=1
696=1
713=1
741=1
759=1
765=1
769=1
783=1
790=1
791=1
815=1
841=1
891=1
937=1
970=1
973=1
975=1

parameters:
[boosting: gbdt]
[objective: binary]
[metric: rmse]
[tree_learner: serial]
[device_type: cpu]
[data: ]
[valid: ]
[num_iterations: 100000]
[learning_rate: 0.1]
[num_leaves: 31]
[num_threads: 32]
[deterministic: 0]
[force_col_wise: 0]
[force_row_wise: 0]
[histogram_pool_size: -1]
[max_depth: -1]
[min_data_in_leaf: 20]
[min_sum_hessian_in_leaf: 0.001]
[bagging_fraction: 1]
[pos_bagging_fraction: 1]
[neg_bagging_fraction: 1]
[bagging_freq: 0]
[bagging_seed: 3]
[feature_fraction: 1]
[feature_fraction_bynode: 1]
[feature_fraction_seed: 2]
[extra_trees: 0]
[extra_seed: 6]
[early_stopping_round: 1500]
[first_metric_only: 0]
[max_delta_step: 0]
[lambda_l1: 0]
[lambda_l2: 0]
[linear_lambda: 0]
[min_gain_to_split: 0]
[drop_rate: 0.1]
[max_drop: 50]
[skip_drop: 0.5]
[xgboost_dart_mode: 0]
[uniform_drop: 0]
[drop_seed: 4]
[top_rate: 0.2]
[other_rate: 0.1]
[min_data_per_group: 100]
[max_cat_threshold: 32]
[cat_l2: 10]
[cat_smooth: 10]
[max_cat_to_onehot: 4]
[top_k: 20]
[monotone_constraints: ]
[monotone_constraints_method: basic]
[monotone_penalty: 0]
[feature_contri: ]
[forcedsplits_filename: ]
[refit_decay_rate: 0.9]
[cegb_tradeoff: 1]
[cegb_penalty_split: 0]
[cegb_penalty_feature_lazy: ]
[cegb_penalty_feature_coupled: ]
[path_smooth: 0]
[interaction_constraints: ]
[verbosity: 0]
[saved_feature_importance_type: 0]
[linear_tree: 0]
[max_bin: 255]
[max_bin_by_feature: ]
[min_data_in_bin: 3]
[bin_construct_sample_cnt: 200000]
[data_random_seed: 1]
[is_enable_sparse: 1]
[enable_bundle: 1]
[use_missing: 1]
[zero_as_missing: 0]
[feature_pre_filter: 1]
[pre_partition: 0]
[two_round: 0]
[header: 0]
[label_column: ]
[weight_column: ]
[group_column: ]
[ignore_column: ]
[categorical_feature: ]
[forcedbins_filename: ]
[precise_float_parser: 0]
[objective_seed: 5]
[num_class: 1]
[is_unbalance: 0]
[scale_pos_weight: 1]
[sigmoid: 1]
[boost_from_average: 1]
[reg_sqrt: 0]
[alpha: 0.9]
[fair_c: 1]
[poisson_max_delta_step: 0.7]
[tweedie_variance_power: 1.5]
[lambdarank_truncation_level: 30]
[lambdarank_norm: 1]
[label_gain: ]
[eval_at: ]
[multi_error_top_k: 1]
[auc_mu_weights: ]
[num_machines: 1]
[local_listen_port: 12400]
[time_out: 120]
[machine_list_filename: ]
[machines: ]
[gpu_platform_id: -1]
[gpu_device_id: -1]
[gpu_use_dp: 0]
[num_gpu: 1]

end of parameters

pandas_categorical:[]
