tree
version=v3
num_class=5
num_tree_per_iteration=5
label_index=0
max_feature_idx=108
objective=multiclass num_class:5
feature_names=qp 0 1 2 3 4 5 6 7 8 9 10 11 12 13 14 15 16 17 18 19 20 21 22 23 24 25 26 27 28 29 30 31 32 33 34 35 36 37 38 39 40 41 42 43 44 45 46 47 48 49 50 51 52 53 54 55 56 57 58 59 60 61 62 63 64 65 66 67 68 69 70 71 72 73 74 75 76 77 78 79 80 81 82 83 84 85 86 87 88 89 90 91 92 93 94 95 96 97 98 99 100 101 102 103 104 105 106 107
feature_infos=[23:46] [1.3765194125880951e-05:0.9438166618347168] [9.5576368039473878e-05:0.60964310169219971] [1.4503242709906772e-05:0.94248962402343761] [0.00044967859867020002:0.9974648952484132] [1.3037966709816828e-05:0.92219382524490356] [5.5520577006973326e-05:0.73696041107177734] [1.2068432624801062e-05:0.9343029260635376] [0.00023136766685630001:0.89535266160964966] [7.869292312534526e-05:0.58070319890975952] [0.0002231272665085:0.89938104152679443] [0.00036854660720560001:0.99749052524566639] [0.00028824730543409999:0.89867043495178223] [5.1539685955503962e-05:0.73259550333023071] [0.0003463590983301:0.88719815015792847] [1.3593543371825945e-05:0.38710075616836548] [5.2269817388150841e-05:0.54974895715713501] [1.1814328900072724e-05:0.39182603359222412] [0.00041033225716090001:0.99744457006454479] [8.116477147268597e-06:0.3481095135211944] [5.8468802308198071e-05:0.69500482082366943] [8.5361552919493988e-06:0.3348228931427002] [0.0021322250831871999:0.92106962203979481] [5.779411003459245e-05:0.55802822113037109] [0.0018813646165654:0.92297601699829102] [0.0004387936787679:0.99744838476181041] [0.0020672520622610998:0.91518455743789684] [6.2905812228564173e-05:0.69049537181854248] [0.0013154885964468:0.91366940736770641] [1.9370094378245994e-05:0.23610259592533109] [6.3431274611502886e-05:0.66824400424957275] [1.6731504729250446e-05:0.23227028548717499] [0.00039145717164499997:0.997389316558838] [1.6676402083248831e-05:0.21827366948127741] [5.0993014156119898e-05:0.71171033382415771] [1.7167669284390286e-05:0.21759518980979919] [0.00048148445785040002:0.71844172477722168] [6.1499697039835155e-05:0.64780181646347046] [0.00047355136484830002:0.70704019069671631] [0.0003407821350265:0.99741053581237804] [0.00050150451716029999:0.63376843929290771] [4.4532062020152807e-05:0.70316040515899658] [0.00052865600446229996:0.62833243608474731] [9.0843477664748207e-06:0.23641856014728541] [6.6837070335168391e-05:0.59368294477462769] [8.6794325397931971e-06:0.2224455326795578] [0.00045710676931770002:0.99741518497467041] [1.139271080319304e-05:0.2161214798688888] [4.1906227124854922e-05:0.77414816617965698] [1.207530567626236e-05:0.21476283669471741] [0.0017774403095244999:0.99681073427200317] [7.8244112955871969e-05:0.58801448345184326] [0.0017595591489224999:0.9968700408935548] [0.00047100981464600001:0.99740272760391235] [0.00095918384613459995:0.99688243865966797] [5.5493899708380923e-05:0.77951359748840332] [0.00078499101800839997:0.99686545133590698] [9.6751664386829361e-06:0.27295753359794611] [2.6575715310173109e-05:0.61476802825927734] [7.5632287916960195e-06:0.27032434940338129] [0.00033088153577399997:0.99749088287353516] [8.3882596300099976e-06:0.29559829831123352] [7.8070748713798821e-05:0.78384876251220703] [9.0376588559593074e-06:0.31611835956573481] [0.00046511620166710002:0.67824470996856689] [2.8322096113697622e-05:0.6133502721786499] [0.00046842879964969998:0.68937712907791138] [0.0003156965540256:0.99748718738555919] [0.00052050908561789998:0.64747750759124756] [7.9736702900845557e-05:0.7801554799079895] [0.00050846952944990005:0.65105640888214111] [1.3609225788968615e-05:0.1844051778316497] [4.9635618779575452e-05:0.5947536826133728] [1.3298840713105164e-05:0.18199940025806419] [0.0002369441208429:0.99739366769790638] [1.3047631000517868e-05:0.18601448833942411] [8.1874495663214475e-05:0.76112216711044312] [1.7975527953240089e-05:0.19004480540752411] [0.0024940643925218998:0.87655961513519287] [4.5249056711327291e-05:0.59784555435180664] [0.0025533039588481001:0.87444311380386353] [0.00022970221471039999:0.99742114543914795] [0.0028212671168148002:0.87791788578033447] [6.4031060901470482e-05:0.76518899202346802] [0.0026234854012727:0.87084114551544189] [2.0727193259517666e-05:0.80968225002288818] [0.00015940453158689999:0.66058874130249023] [1.9244356735725887e-05:0.80001765489578247] [0.0001785632484825:0.99706298112869263] [1.9599858205765489e-05:0.80448412895202637] [0.0001158154846052:0.76723641157150269] [1.9261706256656907e-05:0.80227750539779663] [0.00051879527745760004:0.69704556465148926] [0.00016208057058969999:0.66972607374191284] [0.00051132420776410004:0.70462089776992798] [0.00015597268065899999:0.99692964553832997] [0.0003922808682546:0.63055354356765747] [0.0001103669565054:0.77879464626312256] [0.00037221962702460002:0.64449387788772583] [3.2948439184110612e-05:0.728607177734375] [0.00013854904682369999:0.82428938150405884] [3.0980663723312318e-05:0.75572788715362549] [0.0001360778551315:0.99718052148818959] [3.5010798455914482e-05:0.78787410259246826] [0.0001092804450308:0.92725849151611317] [3.7330573832150549e-05:0.75482189655303955] [0.0001451411226298:0.8242453932762146] [0.00014181497681420001:0.99724841117858876] [0.000106960265839:0.91545051336288441]
tree_sizes=3339 3343 3418 3335 3351 3377 3379 3438 3379 3393 3401 3411 3450 3403 3389 3400 3401 3443 3415 3392 3393 3409 3453 3413 3379 3414 3422 3461 3412 3389 3420 3415 3451 3386 3410 3418 3411 3448 3408 3414 3414 3412 3458 3415 3405 3438 3409 3453 3402 3415 3413 3426 3471 3419 3411 3439 3428 3454 3433 3413 3427 3415 3463 3408 3435 3435 3418 3444 3406 3418 3406 3412 3458 3439 3434 3421 3427 3451 3424 3440 3424 3433 3430 3430 3435 3434 3434 3444 3442 3424 3434 3428 3449 3435 3437 3425 3445 3463 3442 3432 3445 3412 3463 3436 3439

Tree=0
num_leaves=31
num_cat=0
split_feature=52 28 84 78 4 71 25 10 23 13 50 26 29 28 50 100 107 1 59 23 14 26 103 54 96 20 104 68 36 51
split_gain=145.307 56.3556 25.4639 15.4478 19.1347 17.5921 16.6207 15.0925 14.5799 15.4597 13.4009 13.9289 12.4669 13.379 16.7423 11.8688 12.9676 11.3416 11.2872 11.1979 10.8415 9.50405 9.3846 9.03862 9.29073 8.22781 8.05102 9.68379 7.81347 7.46402
threshold=0.51473179459571849 0.45967355370521545 0.080617334693670217 0.29375356435775762 0.38986124098300939 0.0030399474781006007 0.32186247408390051 0.24823899567127228 0.022189294919371553 0.022107064723968454 0.85917779803276073 0.14387284219264981 0.0032195308012887502 0.29347498714923864 0.91862460970878612 0.020804726518690555 0.18396010994911194 0.042020579800009658 0.045871671289205558 0.0051482592243700508 0.20874732732772827 0.36385983228683477 0.00034592069278000008 0.86931985616683971 0.26282639801502233 0.0034813702804967505 0.022735001519322354 0.25518700480461126 0.24973154067993161 0.0076476612593978513
decision_type=2 2 2 2 2 2 2 2 2 2 2 2 2 2 2 2 2 2 2 2 2 2 2 2 2 2 2 2 2 2
left_child=2 10 -1 -3 5 -5 8 -8 9 15 18 -12 13 14 -13 16 20 26 19 -2 -7 -15 -4 -14 29 -21 -6 -28 -10 -25
right_child=1 3 22 4 17 6 7 -9 28 -11 11 12 23 21 -16 -17 -18 -19 -20 25 -22 -23 -24 24 -26 -27 27 -29 -30 -31
leaf_value=-1.7877772199517019 -1.7441106728694313 -1.6981359526095567 -1.5851528697285988 -1.3686209377805265 -1.5135619997282679 -1.6747148687035829 -1.3212545776668856 -1.5744196058604834 -1.7855884412051526 -1.3828308458146188 -1.7938416706188929 -1.7310581754357961 -1.5632670738725194 -1.3923041178373468 -1.5214850999654583 -1.7224755103941962 -1.420541755597402 -1.7767003479903551 -1.7976508534252347 -1.5744196058604831 -1.5073367066847603 -1.5932028176296855 -1.7425215895370887 -1.626349661928278 -1.5656988289676392 -1.7000627477985157 -1.7278158353089694 -1.5462447882066797 -1.6007161023373666 -1.7253621725102899
leaf_weight=217.36212062835693 64.4375881254673 19.092618703842163 3.8552403151988974 4.2224060595035544 4.5895718038082185 9.7298922240734225 4.2224060595035535 5.3239032924175262 6.0582347810268384 3.6716574430465689 8.0776463747024518 10.280640840530401 5.8746519088745108 4.2224060595035535 6.0582347810268393 6.2418176531791678 4.7731546759605399 7.1597320139408103 14.319464027881621 5.3239032924175254 6.4254005253314963 5.3239032924175262 222.13527530431747 9.3627264797687513 5.1403204202651969 248.02046027779579 8.8119778633117658 4.4059889316558829 3.6716574430465698 40.755397617816925
leaf_count=1184 351 104 21 23 25 53 23 29 33 20 44 56 32 23 33 34 26 39 78 29 35 29 1210 51 28 1351 48 24 20 222
internal_value=-1.72118 -1.68561 -1.76334 -1.61738 -1.59794 -1.56465 -1.58116 -1.46244 -1.6091 -1.57543 -1.70133 -1.66823 -1.65657 -1.5984 -1.65335 -1.60145 -1.56536 -1.67041 -1.7108 -1.70689 -1.60814 -1.50434 -1.73984 -1.6812 -1.69373 -1.69742 -1.62767 -1.66729 -1.71583 -1.70687
internal_weight=0 525.598 443.353 98.4004 79.3078 54.3405 50.1181 9.54631 40.5718 30.8419 427.197 95.0959 87.0183 25.8852 16.3389 27.1703 20.9284 24.9673 332.101 317.782 16.1553 9.54631 225.991 61.1331 55.2584 253.344 17.8075 13.218 9.72989 50.1181
internal_count=5278 2863 2415 536 432 296 273 52 221 168 2327 518 474 141 89 148 114 136 1809 1731 88 52 1231 333 301 1380 97 72 53 273
is_linear=0
shrinkage=1


Tree=1
num_leaves=31
num_cat=0
split_feature=30 62 61 37 72 101 57 95 72 90 78 18 88 32 83 98 33 63 58 97 27 63 6 2 47 63 4 53 21 50
split_gain=133.243 32.782 36.7219 22.3182 22.5564 20.8726 18.2963 17.1481 16.6451 15.7519 16.6324 13.3484 15.1212 13.211 12.6124 13.7208 20.8329 11.9347 19.1051 15.6418 20.5011 13.2669 11.8986 11.9819 11.2234 11.8164 10.539 11.4406 15.8477 13.1651
threshold=0.013897996861487601 0.033421825617551755 0.014175510499626351 0.032223235815763453 0.16337269544601438 0.018974055536091255 0.00056797801516945013 0.38298667967319494 0.0045991106890141513 0.045931762084364856 0.28654894232749945 0.20644055306911466 0.19656196981668467 0.31952054798603063 0.061144847422838156 0.14382412284612653 0.0023033138131722006 0.00058871798682955015 0.020759991370141503 0.0059096880722790011 0.012182960286736402 0.00031198833312370003 0.031116263009607754 0.064846444875001921 0.010631196666508901 0.019866744987666555 0.38304585218429571 0.12794001400470731 0.0022159671643748502 0.82733872532844555
decision_type=2 2 2 2 2 2 2 2 2 2 2 2 2 2 2 2 2 2 2 2 2 2 2 2 2 2 2 2 2 2
left_child=8 7 3 9 5 6 -5 17 -1 10 13 -8 -13 -3 22 16 -16 18 -2 20 -19 -20 -14 -24 25 -4 27 -10 29 -29
right_child=1 2 24 4 -6 -7 11 -9 26 -11 -12 12 14 -15 15 -17 -18 19 21 -21 -22 -23 23 -25 -26 -27 -28 28 -30 -31
leaf_value=-2.2874870644551715 -2.2041037570194737 -2.1270526626084303 -2.223976998546811 -1.8671368466705138 -2.2229265180272479 -1.7728489006380874 -2.2214869706485869 -2.2858242836613654 -2.2523029392978922 -2.2612487845602316 -2.2892303767032183 -1.8236484223641138 -1.9367183255607539 -1.9208488654629796 -1.8654129812025129 -1.808900174121074 -2.1190147001022748 -2.2445197287071617 -2.1063231803557132 -2.2090825477039444 -1.8847321631714939 -1.7746514643122369 -2.2317237520079534 -2.0436526526149401 -2.2423604076391701 -1.9869716158703712 -2.3136180028828859 -2.1610083175868078 -2.2445197287071617 -1.9187707218787473
leaf_weight=156.9021315574646 6.3918623924255353 9.6480941772460991 4.4622435569763166 4.7034459114074698 7.7184753417968741 2.7738270759582511 5.4270529747009268 21.587610721588135 140.25916910171509 11.457111835479735 4.100440025329589 2.6532258987426749 2.6532258987426784 4.5828447341918936 4.4622435569763246 2.7738270759582511 11.818915367126463 2.8944282531738272 2.4120235443115234 98.531161785125732 3.497434139251709 2.4120235443115234 9.7686953544616681 5.1858506202697745 30.8739013671875 3.9798388481140137 20.019795417785645 19.65799188613892 30.391496658325195 2.5326247215270987
leaf_count=1301 53 80 37 39 64 23 45 179 1163 95 34 22 22 38 37 23 98 24 20 817 29 20 81 43 256 33 166 163 252 21
internal_value=-2.22391 -2.17005 -2.13383 -2.09852 -2.06336 -2.03978 -2.05475 -2.20398 -2.26277 -2.16927 -2.11178 -2.07447 -2.05418 -2.06065 -2.07086 -2.01448 -2.04951 -2.18877 -2.09072 -2.19925 -2.04765 -1.94049 -2.13188 -2.16651 -2.21442 -2.11225 -2.24456 -2.23739 -2.19761 -2.13336
internal_weight=0 266.77 129.043 89.7273 59.9388 52.2203 49.4465 137.727 369.763 29.7885 18.3314 44.743 39.316 14.2309 36.6628 19.055 16.2812 116.139 11.2159 104.923 6.39186 4.82405 17.6078 14.9545 39.316 8.44208 212.861 192.841 52.5821 22.1906
internal_count=5278 2212 1070 744 497 433 410 1142 3066 247 152 371 326 118 304 158 135 963 93 870 53 40 146 124 326 70 1765 1599 436 184
is_linear=0
shrinkage=1


Tree=2
num_leaves=31
num_cat=0
split_feature=80 44 56 76 78 69 26 28 108 91 26 25 26 79 28 7 78 71 12 11 6 17 51 1 24 15 58 12 29 12
split_gain=373.756 109.54 95.2854 59.4803 30.0604 27.711 23.4365 21.7379 19.5711 18.4949 17.3296 15.8885 14.7033 13.7666 12.0175 14.8541 11.6375 11.1181 11.3116 10.4401 10.3628 9.76223 9.71602 9.69637 10.3567 10.5518 9.52003 9.10507 9.47994 8.92114
threshold=0.12185205891728397 0.010980307590216351 0.82754006981849682 0.012050655204802701 0.36869879066944128 0.03877419047057621 0.33001320064067841 0.2671827524900437 0.0043657978530972511 0.0036136932903900005 0.26179352402687078 0.17899440228939054 0.20888549089431763 0.042991911992430652 0.067527201026678071 0.0015267872950062002 0.088057186454534517 0.0044843116775154504 0.036261374130845056 0.63574784994125377 0.0070526686031371017 0.0016665149596519003 0.0095759220421314014 0.0014113447978160501 0.3652262687683106 0.012232734356075503 0.023323922418057853 0.0058251672890037012 0.0014994763187132503 0.035770833492279004
decision_type=2 2 2 2 2 2 2 2 2 2 2 2 2 2 2 2 2 2 2 2 2 2 2 2 2 2 2 2 2 2
left_child=1 6 3 7 23 10 8 17 20 22 14 13 -6 29 -3 -16 -10 18 -2 -13 -1 -20 -5 -4 -25 -26 -14 -7 -29 -11
right_child=2 5 4 9 12 27 -8 -9 16 11 -12 19 26 -15 15 -17 -18 -19 21 -21 -22 -23 -24 24 25 -27 -28 28 -30 -31
leaf_value=-0.49801964424204892 -0.57559699784906948 -0.54864775203012617 -0.74253704217578109 -0.62384278309595609 -0.61749781473422827 -0.59030509318396618 -0.68421062493753781 -0.6400197864652688 -0.53097902154673515 -0.68568077024874829 -0.74001734095108895 -0.67456613437776103 -0.70694804182702242 -0.49433570358965678 -0.66274650339386432 -0.57954646790526843 -0.58617179950832643 -0.55040830882113156 -0.74762734768020955 -0.58951597106838993 -0.56830436860170086 -0.61905168453710036 -0.71165520782734937 -0.62981524842274883 -0.7307162216154971 -0.63925199197443794 -0.75442036830469417 -0.74695190329596806 -0.65469745781498678 -0.61591569275312208
leaf_weight=210.89457550644875 77.338364213705063 53.11188867688179 14.287408649921415 14.908600330352781 11.492046087980269 9.9390668869018537 9.3178752064704877 95.042327105998993 113.98867335915565 22.673496335744858 7.7648960053920737 162.4416244328022 73.300618290901184 8.0754918456077558 32.612563222646713 62.740359723567963 57.460230439901352 71.747639089822769 6.8331084847450247 15.84038785099983 23.294688016176224 43.483417630195618 81.376110136508942 68.020489007234573 27.953625619411469 22.984092175960541 99.701264709234238 20.188729614019394 24.847667217254639 95.663518786430359
leaf_count=679 249 171 46 48 37 32 30 306 367 73 25 523 236 26 105 202 185 231 22 51 75 140 262 219 90 74 321 65 80 308
internal_value=-0.617984 -0.557247 -0.655522 -0.634792 -0.700891 -0.615873 -0.527407 -0.600664 -0.523805 -0.659854 -0.594386 -0.647781 -0.72703 -0.620662 -0.586769 -0.608003 -0.549477 -0.581905 -0.599608 -0.667009 -0.505011 -0.636513 -0.698058 -0.664698 -0.655349 -0.689446 -0.734306 -0.676935 -0.696053 -0.629283
internal_weight=0 626.161 1013.16 695.424 317.74 211.205 414.956 294.445 405.638 400.979 156.23 304.695 184.494 126.413 148.465 95.3529 171.449 199.403 127.655 178.282 234.189 50.3165 96.2847 133.246 118.958 50.9377 173.002 54.9755 45.0364 118.337
internal_count=5278 2016 3262 2239 1023 680 1336 948 1306 1291 503 981 594 407 478 307 552 642 411 574 754 162 310 429 383 164 557 177 145 381
is_linear=0
shrinkage=1


Tree=3
num_leaves=31
num_cat=0
split_feature=28 78 80 0 100 105 42 14 3 72 26 106 16 1 85 82 80 49 85 99 51 24 66 30 48 66 11 107 63 40
split_gain=166.319 41.2301 40.8072 22.4345 24.8617 16.4832 16.2753 14.2878 14.1844 19.8408 17.9717 13.2744 15.4802 15.3229 16.696 13.8842 12.3755 19.2488 11.8495 24.3615 11.7678 11.1358 14.19 11.1306 16.9869 12.4576 10.8411 11.4465 10.8979 13.311
threshold=0.24630854278802874 0.12150916457176207 0.43193715810775762 24.500000000000004 0.019977441988885403 0.0023707199143245005 0.018312976695597154 0.026892167516052654 0.0065946928225457009 0.016646515578031502 0.6231556534767152 0.039494039490818957 0.017897418700158551 0.0023249967489391006 0.0025064098881557501 0.15015666931867597 0.337312862277031 0.00074756733374665009 0.017035868018865506 0.0072575623635202516 0.027185147628188102 0.38383530080318456 0.23394358903169632 0.041700512170791557 0.060992719605565057 0.20265138894319532 0.44587826728820806 0.2723293155431748 0.012647336814552502 0.081622410565614659
decision_type=2 2 2 2 2 2 2 2 2 2 2 2 2 2 2 2 2 2 2 2 2 2 2 2 2 2 2 2 2 2
left_child=1 -1 3 4 -2 6 -3 -5 9 -4 23 12 13 14 15 -8 -7 -18 19 -11 -14 26 -23 -10 25 -25 27 -9 29 -28
right_child=2 5 8 7 -6 16 11 21 10 18 -12 -13 20 -15 -16 -17 17 -19 -20 -21 -22 22 -24 24 -26 -27 28 -29 -30 -31
leaf_value=-2.0486879037326222 -1.5804150673376285 -2.0181259637668902 -1.9194701912275329 -1.8066853256360564 -1.9629028723869835 -2.0190724101914341 -1.7569479004373312 -1.9740929317528664 -1.9482571854927859 -1.5730595326251409 -1.7905732019801313 -2.0805914277867852 -1.6455640890768044 -2.0093588810974317 -1.6795785723504244 -2.0054015173924675 -1.7287026471413787 -1.9805561556969538 -1.544863316227272 -1.9790850487544562 -1.8911128535931048 -1.9429797049896378 -1.7834995867165544 -1.8652748662030572 -1.9678065621953087 -1.5884392870239787 -1.9302116069981499 -2.0538792227782774 -2.0382971031899815 -1.7196798578940604
leaf_weight=282.10050146281719 3.3988012224435797 19.210615605115891 6.2065065801143637 6.2065065801143637 3.3988012224435806 125.16454936563969 3.3988012224435824 90.142119377851486 33.24914239346981 2.9554793238639814 14.481848686933516 3.8421231210231772 4.1376710534095755 11.230821430683134 3.9898970872163764 6.6498284786939621 3.6943491548299816 16.994006112217903 3.5465751886367798 2.9554793238639832 3.6943491548299789 70.488181874155998 6.0587326139211646 3.2510272562503797 5.3198627829551697 3.2510272562503815 9.3097598701715487 22.461642861366272 4.7287669181823722 4.4332189857959738
leaf_count=1909 23 130 42 42 23 847 23 610 225 20 98 26 28 76 27 45 25 115 24 20 25 477 41 22 36 22 63 152 32 30
internal_value=-1.98789 -2.02399 -1.92882 -1.95051 -1.77166 -1.98951 -1.94347 -1.95619 -1.86521 -1.78054 -1.88749 -1.90465 -1.88422 -1.9223 -1.85265 -1.92137 -2.00723 -1.93558 -1.68937 -1.77607 -1.76139 -1.96066 -1.93036 -1.91862 -1.83528 -1.72686 -1.97836 -1.99001 -1.90735 -1.8623
internal_weight=0 484.108 295.843 220.627 6.7976 202.007 56.1541 213.829 75.2169 15.664 59.5529 36.9435 33.1014 25.2693 14.0385 10.0486 145.853 20.6884 9.45753 5.91096 7.83202 207.622 76.5469 45.0711 11.8219 6.50205 131.076 112.604 18.4717 13.743
internal_count=5278 3276 2002 1493 46 1367 380 1447 509 106 403 250 224 171 95 68 987 140 64 40 53 1405 518 305 80 44 887 762 125 93
is_linear=0
shrinkage=1


Tree=4
num_leaves=31
num_cat=0
split_feature=2 87 44 6 46 11 52 47 62 98 13 19 81 100 32 15 97 54 83 79 106 104 44 26 44 43 57 2 58 14
split_gain=224.606 90.819 54.9289 33.6259 40.2795 30.0704 19.0623 18.9288 20.6735 29.5074 28.1218 26.1018 16.414 13.3675 8.00002 15.9877 9.24401 7.67222 18.1342 23.4372 12.9617 25.696 7.56306 14.6295 10.0295 7.45523 6.82896 6.43769 6.31569 6.32328
threshold=0.13495112955570218 0.0052687928546219509 0.039742995053529705 0.1178427971899509 0.49739472568035126 0.46371071040630341 0.70422407984733593 0.0015601060586049502 0.044145299121737459 0.099419418722391115 0.058660503476858104 0.010841707233339501 0.66062581539154064 0.0062426899094134005 0.78919672966003429 0.0025173972826451002 0.0028876351425424006 0.67414397001266491 0.040796048939228009 0.022703531198203505 0.039494039490818957 0.052704237401485408 0.068189315497875172 0.25101658701896673 0.075936771929264027 0.00048855695058585018 0.073544032871723161 0.023921312764286953 0.0036237937165424007 0.22231873124837873
decision_type=2 2 2 2 2 2 2 2 2 2 2 2 2 2 2 2 2 2 2 2 2 2 2 2 2 2 2 2 2 2
left_child=2 5 13 6 -5 -2 7 25 9 -9 -10 -12 -3 27 16 -16 -15 18 28 -20 -21 -22 -8 -24 -25 -4 -19 -1 -18 -30
right_child=1 12 3 4 -6 -7 22 8 10 -11 11 -13 -14 14 15 -17 17 26 19 20 21 -23 23 24 -26 -27 -28 -29 29 -31
leaf_value=-3.3698638735242823 -1.6683035442577354 -3.1886518085064997 -3.1003217156892307 -2.310704219292425 -3.2014998220071935 -2.4615710444899661 -3.3343343046859144 -3.0601716734995619 -3.3462407241009466 -2.3593709370980838 -2.5015623908607028 -3.2014998220071935 -2.6659712592737304 -3.0354639552289968 -2.8625099273350423 -3.2836153865551059 -3.1088383913052202 -3.3560853865075746 -2.6970756397843028 -3.3813720110169063 -2.7389713359822179 -3.3813720110169063 -2.8192714203615532 -3.0407049863772988 -3.3525463397012474 -3.3813720110169063 -3.1003217156892298 -3.1404717578788981 -3.3222035277900273 -3.0601716734995619
leaf_weight=69.516026772558689 0.933996520936488 1.5566608682274821 1.4232327938079885 0.93399652093648855 1.1119006201624868 0.97847254574298859 10.629769928753378 1.5566608682274821 2.8464655876159668 0.97847254574298848 1.0229485705494883 1.1119006201624868 0.97847254574298848 1.1563766449689854 1.1563766449689854 4.0917942821979523 1.4677088186144818 47.455918468534946 1.022948570549487 2.5351334139704704 1.2453286945819857 1.2453286945819853 0.88952049612998862 1.4677088186144827 3.4691299349069595 2.8019895628094673 1.0674245953559864 1.2453286945819844 65.913468763232231 0.93399652093648811
leaf_count=1563 21 35 32 21 25 22 239 35 64 22 23 25 22 26 26 92 33 1067 23 57 28 28 20 33 78 63 24 28 1482 21
internal_value=-3.2983 -2.59443 -3.3119 -3.18629 -2.79483 -2.07416 -3.21469 -3.11736 -3.02216 -2.78969 -3.14047 -2.86611 -2.98692 -3.33089 -3.31176 -3.19083 -3.31688 -3.31953 -3.29934 -3.13339 -3.22219 -3.06017 -3.28414 -3.19257 -3.25984 -3.2867 -3.35046 -3.36583 -3.31404 -3.31854
internal_weight=0 4.4476 230.297 30.2437 2.0459 1.91247 28.1978 11.7417 7.51645 2.53513 4.98131 2.13485 2.53513 200.053 129.292 5.24817 124.044 122.887 74.3639 6.04874 5.02579 2.49066 16.4561 5.82636 4.93684 4.22522 48.5233 70.7614 68.3152 66.8475
internal_count=5278 100 5178 680 46 43 634 264 169 57 112 48 57 4498 2907 118 2789 2763 1672 136 113 56 370 131 111 95 1091 1591 1536 1503
is_linear=0
shrinkage=1


Tree=5
num_leaves=31
num_cat=0
split_feature=52 28 84 13 82 0 3 0 13 3 12 43 100 98 17 17 73 25 36 43 12 28 20 56 14 4 13 39 39 32
split_gain=112.536 38.9174 22.3808 12.0842 11.6152 11.2541 13.3326 10.0921 10.0107 10.2328 9.72976 10.7412 9.99105 9.96929 9.19912 13.4155 9.68474 9.00289 20.8517 8.43762 8.2042 7.78428 6.97821 7.8323 7.52306 8.6489 12.071 10.3332 11.4266 9.43508
threshold=0.51473179459571849 0.45967355370521545 0.067075710743665667 0.11865107342600821 0.29875817894935613 28.500000000000004 0.014917546417564103 37.000000000000007 0.0027366863796487004 0.049720734357833807 0.058964064344763707 0.0010992563911713501 0.0071486381348222008 0.11175799369812006 0.0090186479501425509 0.0073647941462695009 0.0057998469565063515 0.030894941650331003 0.03749933466315266 0.0029251604573800505 0.17240110784769058 0.46962991356849676 0.0028850763337686003 0.75889438390731823 0.12597526609897611 0.38986124098300939 0.028861560858786054 0.18934068083763125 0.094354037195444121 0.53038808703422557
decision_type=2 2 2 2 2 2 2 2 2 2 2 2 2 2 2 2 2 2 2 2 2 2 2 2 2 2 2 2 2 2
left_child=2 5 -1 4 -3 6 10 21 -7 17 11 -2 -12 -13 15 19 -16 18 -10 -14 -9 -6 -23 -24 -25 26 27 28 -26 -27
right_child=1 3 -4 -5 7 8 -8 20 9 -11 12 13 14 -15 16 -17 -18 -19 -20 -21 -22 22 23 24 25 29 -28 -29 -30 -31
leaf_value=-0.06724618362728696 0.18992525695373771 0.019688663716047702 -0.020173557152690012 -0.076121164074367004 0.20512791322445989 -0.049871728287560799 -0.011492215797083326 0.10386741659471387 -0.037018967719732787 -0.073983610286595974 -0.043336862569329344 -0.0025341575454280499 0.23866164506774676 0.13389333982096305 -0.051558175568731796 0.33247699320367829 0.13185007862662043 0.013699032816247781 0.24999663373509506 0.049484416991756174 0.29066781825603416 0.2103152332141571 -0.053210973992944666 0.0077762688109578072 0.031422013003236444 -0.052276843934605327 0.21025546460454334 0.020094082907435251 0.23648527802860686 0.10713379351838775
leaf_weight=165.84966425597668 4.1596947610378256 18.615618661046028 258.32796092331409 4.5076799094676963 5.8761715590953818 27.438280150294304 28.960855931043625 4.3730613142251951 4.9535458236932737 12.901607319712637 3.6875057816505459 31.508576318621635 3.8502904325723666 6.4532509446144095 4.3056505471467963 4.4060533642768851 8.6893631815910322 283.18287479877472 5.1762631088495255 6.0816934853792191 5.0851609408855438 4.187427043914794 4.3046937733888617 10.123521372675894 4.5229261219501513 6.4654853492975226 12.132024332880972 11.510306641459463 6.806793212890625 8.7210329324007017
leaf_count=973 22 98 1442 24 29 151 156 21 27 71 20 170 20 34 23 23 46 1504 28 32 24 21 22 50 22 34 57 56 33 45
internal_value=0 0.0301643 -0.0385785 0.0841324 0.0911645 0.0168837 0.0459348 0.106984 0.00799365 0.0131787 0.0686733 0.0373735 0.111174 0.0206576 0.132019 0.187249 0.0710812 0.0170126 0.109644 0.122822 0.2043 0.0946542 0.0852152 0.0771044 0.0864102 0.102281 0.129645 0.0868263 0.154622 0.0392665
internal_weight=0 542.987 424.178 107.232 102.724 435.756 102.103 84.1086 333.653 306.214 73.1421 42.1215 31.0206 37.9618 27.3331 14.338 12.995 293.313 10.1298 9.93198 9.45822 74.6504 68.7742 64.5868 60.2821 50.1586 34.9721 22.84 11.3297 15.1865
internal_count=5278 2863 2415 536 512 2327 546 414 1781 1630 390 226 164 204 144 75 69 1559 55 52 45 369 340 319 297 247 168 111 55 79
is_linear=0
shrinkage=0.1


Tree=6
num_leaves=31
num_cat=0
split_feature=30 3 34 18 4 59 72 32 58 49 14 37 78 57 13 47 4 16 1 1 60 69 28 8 10 8 99 59 83 89
split_gain=103.404 25.6286 26.9257 16.2987 16.1595 16.2759 14.9478 13.1196 13.6407 17.8157 17.3737 15.4174 11.8983 11.7569 11.747 10.3421 9.96383 10.0819 9.77181 13.0452 13.4445 12.9893 12.1642 12.376 11.7297 13.8471 9.85611 14.9247 12.3393 20.7084
threshold=0.013897996861487601 0.043744159862399053 0.035717563703656155 0.75888490676879894 0.16077925264835358 0.00088578360737300011 0.0045991106890141513 0.50014626979827892 0.020759991370141503 0.0006796423986088001 0.019732934422791004 0.022221757099032353 0.11040749773383136 0.022648697718977855 0.070778038352727862 0.0015248006675392001 0.38304585218429571 0.024482347071170755 0.0013782713795080501 0.0023611988872289003 0.36463363468647009 0.033646829426288556 0.23349647969007492 0.088050037622451713 0.15781302750110623 0.12411120533943172 0.0027998251607641005 0.0037792421644553004 0.09586667641997336 0.011381736956536751
decision_type=2 2 2 2 2 2 2 2 2 2 2 2 2 2 2 2 2 2 2 2 2 2 2 2 2 2 2 2 2 2
left_child=6 2 7 4 -4 14 -1 8 -2 10 11 -10 15 18 -6 -7 17 -8 -14 -20 21 -21 -23 -24 25 -25 -22 -28 -29 -30
right_child=1 -3 3 -5 5 12 16 -9 9 -11 -12 -13 13 -15 -16 -17 -18 -19 19 20 26 22 23 24 -26 -27 27 28 29 -31
leaf_value=-0.060721922904975523 0.0040405429071091875 -0.050639248161306306 -0.04437691881052451 -0.048744773823791811 0.31150395697042227 0.11606539078057794 -0.014815554802081195 -0.058021025355756921 0.29010936581061159 0.04786397285420084 0.39873499115446642 -0.0048393710341543029 -0.030967377791336112 0.015473590367778112 0.084557289494728058 -0.090332055327019212 -0.088850241415442011 0.18610410628236035 0.34136198964860376 0.040453509516030717 -0.064544304345464668 0.35997038458660108 0.032313002881421027 0.17758845256344979 0.080827163249345579 0.48903437564842228 0.32163015574590603 0.023672222411419173 0.38634537586937723 0.010669342292294381
leaf_weight=145.75448802858591 63.695189781486988 25.50322075933218 6.5203483104705802 7.2296707630157462 6.9165836423635465 4.3290239199995977 187.3454252704978 15.599884659051893 2.879931725561617 69.393882803618908 2.8495214730501175 4.6075759902596474 3.2841783389449111 9.4621976017951948 3.4028681814670563 5.5276019647717476 18.58871628344059 2.5312029719352713 3.2341781854629508 4.5809111818671253 3.7862390279769924 5.0850213468074825 4.0352638587355605 2.9633475914597494 2.9037960842251778 2.7545166611671448 2.896434202790263 13.040257208049299 2.93098559975624 2.9382265880703926
leaf_count=1301 513 210 52 58 46 32 1579 128 21 549 20 34 24 76 25 44 166 20 24 36 29 36 30 21 22 20 20 98 22 22
internal_value=0 0.0449718 0.0544653 0.0957475 0.107279 0.119041 -0.0361546 0.0290714 0.0385441 0.0661082 0.188584 0.108607 0.102582 0.118358 0.236668 0.000317574 -0.0189776 -0.0121371 0.136242 0.146978 0.133858 0.190575 0.229336 0.176852 0.244502 0.327624 0.0843858 0.110245 0.0778665 0.198276
internal_weight=0 282.351 256.848 97.8217 90.592 84.0716 354.22 159.026 143.426 79.7309 10.337 7.48751 73.7522 63.8956 10.3195 9.85663 208.465 189.877 54.4334 51.1492 47.915 22.3229 17.7419 12.6569 8.62166 5.71786 25.5921 21.8059 18.9095 5.86921
internal_count=5278 2212 2002 737 679 627 3066 1265 1137 624 75 55 556 480 71 76 1765 1599 404 380 356 165 129 93 63 41 191 162 142 44
is_linear=0
shrinkage=0.1


Tree=7
num_leaves=31
num_cat=0
split_feature=80 25 24 79 69 50 40 52 21 13 28 62 97 73 63 77 69 8 104 19 28 24 31 22 24 41 65 82 108 81
split_gain=287.109 87.7619 72.1511 52.5919 20.8901 19.1162 19.1092 16.5648 16.312 12.609 11.6948 11.6038 10.9315 10.9206 10.9201 10.2305 10.094 10.3785 10.0732 9.71883 11.4743 9.45738 9.38323 9.18132 9.12235 9.04208 11.5252 8.49419 8.36701 8.35397
threshold=0.12185205891728397 0.11745274439454077 0.38383530080318456 0.01359376823529595 0.03877419047057621 0.84639644622802745 0.016798514872789352 0.78869262337684642 0.039065830409526756 0.0020552406786009006 0.11734195426106452 0.017224179580807603 0.060473179444670656 0.0054264182690530512 0.0043477702420204505 0.019920176826417405 0.012043234426528151 0.025813854299485652 0.024717515334486902 0.0021245601819827506 0.22199962288141248 0.2943293303251267 0.014995065052062202 0.35700792074203491 0.28374454379081732 0.010335213039070302 0.026836441829800554 0.087277851998806014 0.0039005201542749502 0.034637492150068207
decision_type=2 2 2 2 2 2 2 2 2 2 2 2 2 2 2 2 2 2 2 2 2 2 2 2 2 2 2 2 2 2
left_child=1 6 3 7 10 29 28 9 12 -2 16 24 19 -11 -9 -16 -3 -18 -12 -5 25 -15 -22 -23 27 -21 -27 -8 -1 -4
right_child=2 4 5 8 -6 -7 11 14 -10 13 18 -13 -14 21 15 -17 17 -19 -20 20 22 23 -24 -25 -26 26 -28 -29 -30 -31
leaf_value=0.11498228717209383 0.083530285625692272 0.082317814359187613 0.020691881204605633 -0.067779546343689406 -0.049621843675197896 -0.09551010079972512 0.091622758459791509 -0.074067200068838907 0.057571479183196932 0.0020916626765550318 -0.032554684422000053 -0.033910066924948565 -0.080394793634634962 0.069074195187186924 0.03839572703408705 -0.10498168328242677 -0.00037330173424496494 0.11293610714302896 0.070298607945001854 0.06742053544881968 -0.056278415530564931 -0.064336693400423833 0.00236378177457286 0.085117029426513349 -0.033343057562492937 -0.055427833638931924 0.027034573438358651 0.038200525521837059 0.078609611813440672 -0.054390574171110276
leaf_weight=138.31901502609253 32.441471695899963 38.687639087438583 17.444313734769821 74.450322687625885 56.024670660495758 174.0127580165863 71.451406627893448 31.137604832649231 16.448032557964325 157.77977374196053 50.098982810974121 13.912286967039107 68.275200396776199 55.847125321626663 24.875034272670749 6.2213246226310721 52.193747073411942 9.5648853778839094 11.756536692380903 17.366263687610626 118.06538155674934 12.127662152051927 35.486653327941895 6.2179375588893881 9.3037609457969648 33.294334590435028 34.522932678461075 51.012242317199707 116.52171355485916 98.46278989315033
leaf_count=455 105 126 56 239 180 558 234 100 53 509 162 45 219 181 80 20 169 31 38 56 379 39 114 20 30 107 111 166 380 316
internal_value=0 0.054033 -0.0323935 -0.015524 0.00302704 -0.0745533 0.0818367 0.0142115 -0.0399342 0.0251366 0.0212008 0.0529469 -0.0441385 0.0169702 -0.032206 0.00971078 0.0422656 0.0171755 -0.0130059 -0.0362345 -0.0263971 0.0486112 -0.0427259 -0.0136818 0.0621174 0.00303724 -0.0134497 0.0693697 0.0983515 -0.0430905
internal_weight=0 618.847 1014.48 724.557 218.326 289.92 400.52 326.648 397.909 264.414 162.302 145.68 381.461 231.972 62.234 31.0964 100.446 61.7586 61.8555 313.186 238.736 74.1927 153.552 18.3456 131.767 85.1835 67.8173 122.464 254.841 115.907
internal_count=5278 2016 3262 2332 706 930 1310 1054 1278 854 526 475 1225 749 200 100 326 200 200 1006 767 240 493 59 430 274 218 400 835 372
is_linear=0
shrinkage=0.1


Tree=8
num_leaves=31
num_cat=0
split_feature=24 24 84 102 21 19 3 14 17 12 57 100 87 13 41 49 96 9 82 108 82 106 62 6 48 19 105 91 21 106
split_gain=132.413 35.6541 19.3023 17.3017 15.6514 15.1254 16.4237 14.848 14.7429 15.1642 13.373 11.097 10.7192 12.3201 12.5587 10.9849 11.1396 9.59474 12.9541 11.8544 9.4764 11.9421 12.3204 9.42739 11.058 9.28067 11.9948 10.171 9.31692 9.25532
threshold=0.16730385273694992 0.38383530080318456 0.09922448918223381 0.060105277225375155 0.0044914048630744002 0.034284457564353908 0.0065946928225457009 0.19804213196039197 0.0019736953545361506 0.039146425202488851 0.048283832147717455 0.0072542894631623502 0.0095792422071098518 0.012458648998290302 0.017202886752784204 0.038601893931627204 0.24051503837108615 0.022970908321440203 0.39523530006408697 0.023853951133787552 0.1366099417209625 0.010398194193840001 0.020344573073089105 0.0097996275871991504 0.005789159797131951 0.0043145443778485008 0.004345138324424601 0.024308991618454404 0.0039136952254921007 0.012579679954796951
decision_type=2 2 2 2 2 2 2 2 2 2 2 2 2 2 2 2 2 2 2 2 2 2 2 2 2 2 2 2 2 2
left_child=2 4 -1 -3 25 6 17 -7 9 11 23 -4 -9 -14 -15 -16 -17 19 -19 29 21 -13 -23 24 -8 27 -27 28 -2 -5
right_child=1 3 8 5 -6 7 10 12 -10 -11 -12 20 13 14 15 16 -18 18 -20 -21 -22 22 -24 -25 -26 26 -28 -29 -30 -31
leaf_value=-0.06686295187321821 0.0384535398496339 -0.0016915226887999864 -0.059734983543082959 0.25091703555585232 -0.0036044973432776684 0.022914439929340794 0.034022496756834157 0.34619683718394123 -0.04892387555868008 0.20622040242890557 0.24476174643373139 0.258087317557819 -0.02926796859834091 0.36421108592060403 0.061204964308477799 0.33274485041602675 0.11906070444720158 -0.03522034295204899 0.18826541177727085 0.35599363328438755 0.0026052893847968552 -0.070100459271304164 0.1763316479395855 0.020014459674607597 0.22504553311498976 0.25327324178581584 0.01255917219464496 0.19718962905035381 -0.079139272811682829 0.020413224826379375
leaf_weight=202.674565538764 93.333161801099777 24.920757085084915 18.339657872915268 3.4783153384923953 175.67809283733368 7.7022951841354361 7.0413460433483106 3.4027515500783947 71.560310214757919 3.9888861477375022 3.2404471337795249 3.7023397088050833 3.1060655117034939 3.2680413424968746 7.6900594383478191 4.6629319339990598 5.1166981160640717 5.1319309920072538 5.2437426298856735 3.7498585283756256 28.198404178023338 4.4737197011709195 3.7121570259332657 57.771679878234863 5.3200754970312119 4.6212355494499189 3.7498437762260437 3.7735825777053824 7.2619225829839698 3.4894937127828598
leaf_count=1474 617 158 127 22 1179 49 45 21 499 25 20 25 20 20 47 27 30 33 29 21 188 31 25 363 33 31 24 24 49 22
internal_value=0 0.0358155 -0.0473946 0.0746082 0.015057 0.0893007 0.0685068 0.145507 -0.0179435 0.0175762 0.0461506 0.00469709 0.180162 0.156468 0.184287 0.150629 0.220945 0.146273 0.0777267 0.212633 0.0341748 0.109057 0.0416523 0.0369739 0.116234 0.0441364 0.145445 0.0360108 0.0299646 0.13548
internal_weight=0 442.754 336.65 154.336 288.418 129.416 94.4669 34.9488 133.975 62.4152 73.3735 58.4263 27.2465 23.8438 20.7377 17.4697 9.77963 21.0933 10.3757 10.7177 40.0866 11.8882 8.18588 70.1331 12.3614 112.74 8.37108 104.369 100.595 6.96781
internal_count=5278 2884 2394 960 1924 802 588 214 920 421 461 396 165 144 124 104 57 127 62 65 269 81 56 441 78 745 55 690 666 44
is_linear=0
shrinkage=0.1


Tree=9
num_leaves=31
num_cat=0
split_feature=51 36 30 72 2 32 74 82 3 15 59 15 33 13 81 62 106 30 72 5 76 60 90 108 25 45 40 43 28 11
split_gain=100.496 32.1977 33.1063 33.2816 18.8246 18.2654 22.8441 12.9648 16.1272 12.5249 11.1448 10.1502 23.398 9.23444 16.9108 8.97788 14.4842 9.92253 7.89594 7.61773 6.9935 6.52709 6.4885 8.42465 8.34065 8.64026 19.1827 18.3608 9.96839 6.3175
threshold=0.063246931880712468 0.069190267473459216 0.068268343806266771 0.29324333369731909 0.015331622678786452 0.46266612410545355 0.37103669345378881 0.073932103812694508 0.004453805740922601 0.0042693852446973012 0.07447582110762592 0.00094094916130410013 0.00052315343054940011 0.083521716296672807 0.45043165981769567 0.0058703287504612506 0.0068982122465967508 0.0077530089765787012 0.10242004320025443 0.0033253978472202505 0.13277520984411237 0.23126245290040967 0.025321518070995756 0.021329097449779452 0.11233839020133012 0.0097583187744021017 0.11354556307196616 0.011779774446040352 0.32966844737529755 0.15461140125989911
decision_type=2 2 2 2 2 2 2 2 2 2 2 2 2 2 2 2 2 2 2 2 2 2 2 2 2 2 2 2 2 2
left_child=4 2 -2 5 29 6 18 8 11 -7 13 12 21 15 -15 16 -9 -17 -4 -13 -3 -6 -19 -24 -25 -26 27 -27 -29 -1
right_child=1 20 3 -5 7 9 -8 10 -10 -11 -12 19 -14 14 -16 17 -18 22 -20 -21 -22 -23 23 24 25 26 -28 28 -30 -31
leaf_value=-0.057715833625184981 0.62989410451471983 -0.01137476926387245 0.010418011094056365 0.58524547822978323 -0.083099804596096269 -0.085214675933535336 0.59229591528363457 -0.083144700490193471 0.44162508768641962 0.22993916672070946 0.2807710231758353 -0.062322953354757606 0.60932287582892264 0.41622462599465576 -0.083613482114845372 0.27529547722592312 0.42347617078031274 -0.059874905274686654 0.27625420546108947 0.25758948670357651 0.21753793920972236 0.25594321735586228 0.27197012704483198 0.21013945264340272 -0.058580554644970841 0.5361250728955983 -0.032943816076229496 -0.036252032803899707 0.36286697120418254 0.0021549236359534791
leaf_weight=107.1950451284647 2.2381471097469392 6.8981206528842431 2.0660729780793172 2.0688298009335986 1.5871287956833828 3.7517942152917385 1.6181758269667623 1.0785352364182466 1.3340474069118489 1.8994814865291116 1.369576159864663 4.8083351850509644 1.0106989443302152 1.3968740068376058 1.3131968043744562 1.1153092831373204 1.1836509518325327 30.199242673814297 2.4331351257860661 0.88064981251955021 1.6547676213085649 0.88413043320178974 1.1252007260918606 1.702882733196019 20.207620788365602 1.2878899239003647 9.9253206402063352 2.0757371000945573 0.89585313946008671 21.092342611402273
leaf_count=2550 37 137 31 18 36 58 23 24 30 29 25 109 22 25 27 24 25 690 19 20 28 19 24 36 442 21 218 39 19 473
internal_value=0 0.189669 0.273069 0.215354 -0.0236573 0.15033 0.270071 0.0127259 0.11676 0.0207134 -0.00186981 0.0695038 0.203977 -0.00713593 0.174022 -0.0140705 0.181936 -0.0205403 0.15418 -0.0128008 0.0329141 0.038198 -0.0254342 0.00250959 -0.00589032 -0.0165867 0.0432377 0.220754 0.0840714 -0.0478722
internal_weight=0 24.6285 16.0756 13.8375 213.669 11.7687 6.11738 85.3819 10.505 5.65128 74.8769 9.17094 3.48196 73.5073 2.71007 70.7972 2.26219 68.5351 4.49921 5.68898 8.55289 2.47126 67.4197 37.2205 36.0953 34.3924 14.1848 4.25948 2.97159 128.287
internal_count=5278 380 215 178 4898 160 73 1875 236 87 1639 206 77 1614 52 1562 49 1513 50 129 165 55 1489 799 775 739 297 79 58 3023
is_linear=0
shrinkage=0.1


Tree=10
num_leaves=31
num_cat=0
split_feature=50 26 84 81 40 15 40 23 50 80 105 50 68 13 88 54 8 21 60 68 62 62 13 1 68 87 40 1 71 0
split_gain=87.9654 32.6273 12.7314 11.9506 11.6778 10.4813 10.4502 9.93873 11.9033 10.1218 10.7923 9.47889 8.97412 8.73759 12.3046 8.37215 7.68265 11.0213 8.02837 7.50464 7.34762 7.30595 11.2344 11.1162 7.23692 7.15587 6.99425 7.50568 7.22102 8.79073
threshold=0.39977183938026434 0.45305651426315313 0.056442579254508012 0.37242060899734503 0.011245661415159652 0.021741986274719152 0.012524780817329851 0.026263999752700256 0.68015363812446605 0.26593609154224396 0.0045368848368525011 0.93079042434692394 0.063438285142183262 0.021778126247227154 0.34468348324298864 0.39965128898620605 0.052883544936776154 0.0015106799546628503 0.5944274663925172 0.19257470220327377 0.025765911675989604 0.018190596252679804 0.025001649744808604 0.0011602787417359002 0.027707183733582452 0.0040197120979428005 0.17243266105651858 0.028902509249746754 0.0026374871376901505 44.500000000000007
decision_type=2 2 2 2 2 2 2 2 2 2 2 2 2 2 2 2 2 2 2 2 2 2 2 2 2 2 2 2 2 2
left_child=2 4 -1 -4 -2 11 -5 8 -3 -10 -11 15 -9 14 -12 -6 17 21 26 -19 -14 -17 23 -23 -8 -13 27 28 -18 -30
right_child=1 7 3 6 5 -7 24 12 9 10 13 25 20 -15 -16 16 18 19 -20 -21 -22 22 -24 -25 -26 -27 -28 -29 29 -31
leaf_value=-0.068911008970147791 -0.045633661235547622 -0.0311340579101793 -0.034980922010535757 -0.057265511277034636 0.16205094592998523 -0.021913557569590462 0.19542770284879629 -0.082512354463090937 0.010701119528315064 0.20835089038098895 0.098913924630500305 0.17812797861843344 0.13150753666433107 0.1726307967930929 -0.065289547599546624 0.0084600591290021395 0.07002279075532207 -0.017839155710674959 -0.040531932803747568 0.119271679182336 0.027441671316845301 0.25061805155834421 0.015008399118851387 0.050302624440570959 0.021419378193830996 0.051105122916208216 -0.052839977208253376 0.17414368654879228 0.029090509446940763 -0.09840613044348101
leaf_weight=123.88781777024269 35.192160576581955 7.2808448672294608 167.69071391224861 5.0963030457496634 3.8691980242729178 69.999504670500755 5.4799474030733091 5.9929544776678076 9.9923168867826444 11.087396010756491 28.525172412395477 5.3608247786760357 8.4757534563541395 11.768953666090963 5.4326970577239981 34.852541863918304 45.026979118585587 141.47536653280258 15.406888589262961 4.1078730821609488 34.005359962582588 5.7256238460540789 12.336351126432417 5.3671927601099014 4.2388762682676315 25.681718543171883 8.6626449823379499 4.0294265598058692 111.65529975295067 5.6831416189670554
leaf_count=786 198 37 978 29 22 381 31 31 51 48 130 26 39 51 26 190 237 768 80 21 166 30 65 28 24 127 45 21 582 30
internal_value=0 0.020714 -0.0441697 -0.027375 0.0100421 0.0139668 0.058716 0.067249 0.0902831 0.103516 0.11984 0.0198181 0.0320439 0.0983782 0.0726441 0.015669 0.0142326 0.000741098 0.0286734 -0.0139703 0.0482047 0.0374892 0.080672 0.153697 0.119534 0.0730411 0.0347642 0.0393249 0.0359791 0.0229154
internal_weight=0 656.994 306.394 182.506 534.433 499.241 14.8151 122.561 74.0874 66.8065 56.8142 429.241 48.4741 45.7268 33.9579 398.199 394.329 203.865 190.464 145.583 42.4811 58.2817 23.4292 11.0928 9.71882 31.0425 175.057 166.395 162.365 117.338
internal_count=5278 3430 1848 1062 2851 2653 84 579 343 306 255 2272 236 207 156 2119 2097 1102 995 789 205 313 123 58 55 153 915 870 849 612
is_linear=0
shrinkage=0.1


Tree=11
num_leaves=31
num_cat=0
split_feature=55 9 61 11 18 81 46 63 99 40 48 71 47 48 67 108 63 26 106 103 5 72 9 20 104 2 5 21 22 66
split_gain=81.6247 26.2776 24.1824 17.971 17.1771 15.4422 13.5008 12.4269 13.0581 12.0739 11.0308 18.0729 10.5344 12.1877 16.9774 17.7845 10.1476 9.13012 8.53397 8.41011 10.4303 12.3314 8.53961 8.91914 9.20046 9.03604 8.39375 12.2422 10.2434 8.10882
threshold=0.0088192210532724025 0.024006001651287055 0.014175510499626351 0.80542737245559703 0.37048807740211492 0.54307514429092418 0.13956969231367114 0.00058871798682955015 0.022827701643109252 0.0083066863007843026 0.025684992782771556 0.00069436113699335004 0.0009849821217357503 0.017648350447416302 0.13503058254718778 0.012116156984120552 0.00072620750870550012 0.044911516830325057 0.014512737281620452 0.0011555604869499501 0.015066453721374202 0.021643891930580101 0.030994804576039304 0.031548429280519458 0.037062803283333758 0.041972670704126309 0.011294789612293202 0.0047517837956547009 0.24012067914009091 0.14853404462337491
decision_type=2 2 2 2 2 2 2 2 2 2 2 2 2 2 2 2 2 2 2 2 2 2 2 2 2 2 2 2 2 2
left_child=17 4 3 6 5 12 -3 -8 9 -9 -11 -12 13 14 -2 -16 -17 -1 -4 -13 21 -21 -23 25 -25 -24 27 28 -26 -20
right_child=1 2 18 -5 -6 -7 7 8 -10 10 11 19 -14 -15 15 16 -18 -19 29 20 -22 22 23 24 26 -27 -28 -29 -30 -31
leaf_value=-0.085900458406719643 0.019793450043011213 -0.026114174891680827 0.16245439199159994 -0.089583342008854192 -0.080208276200441742 0.23606598079656768 0.17797801350793568 -0.090665411016602526 0.27806303895299528 0.028292764478335161 0.29848465638493604 -0.046671823024858831 -0.0054381581894787029 -0.019533001600846214 0.36715312531619892 0.20518865874560641 -0.030548848555925951 -0.035836707048499276 0.034080297750694682 0.25999426665737863 0.024936450773608777 -0.018046856061837434 0.35533084689925509 -0.0064613339294962244 0.11185721938845397 0.11445226305936734 0.24311833102637218 0.022998694277148023 0.30033540921716562 -0.053067612479625881
leaf_weight=44.25742207467556 12.809040829539301 10.897265344858168 2.7594857364892951 6.4589291960000983 22.498895183205605 3.045038789510726 14.229316540062426 4.3082449287176123 3.2101151645183554 30.185575008392334 4.3041276112198821 4.3782076537609091 123.01690290868282 13.901615023612974 3.7169835641980153 4.0498813167214394 3.3253785967826843 205.9016931951046 17.613238535821438 5.3942982479929915 16.083982780575752 5.3882656246423712 2.8986748158931723 7.0074643567204467 12.179239630699159 3.3654415234923363 4.7226452678441992 12.066676564514635 3.7779536470770827 27.111276164650917
leaf_count=424 110 87 21 55 200 22 87 34 20 232 26 31 1009 105 30 31 26 1865 137 39 112 39 20 51 84 23 29 84 22 223
internal_value=0 0.0286864 0.0540205 0.0736105 0.0017243 0.0129738 0.0809102 0.0896463 0.0791081 0.0736053 0.0799382 0.0990506 0.00874964 0.0549191 0.0982224 0.18879 0.0988986 -0.0446938 -0.00821699 0.0879407 0.0960269 0.116157 0.101064 0.11501 0.0975347 0.225917 0.119789 0.0990051 0.15648 -0.0187474
internal_weight=0 384.704 198.34 150.856 186.364 163.865 144.397 133.5 119.271 116.061 111.753 81.567 160.82 37.8029 23.9013 11.0922 7.37526 250.159 47.484 77.2629 72.8846 56.8007 51.4064 46.0181 39.754 6.26412 32.7465 28.0239 15.9572 44.7245
internal_count=5278 2989 1456 1075 1533 1333 1020 933 846 826 792 560 1311 302 197 87 57 2289 381 534 503 391 352 313 270 43 219 190 106 360
is_linear=0
shrinkage=0.1


Tree=12
num_leaves=31
num_cat=0
split_feature=22 69 30 82 24 82 5 32 74 17 74 39 26 21 28 23 104 78 69 61 103 89 69 97 0 43 80 24 105 28
split_gain=222.876 103.533 45.4624 26.3395 25.3422 19.5308 16.9123 16.0674 14.5679 12.4112 12.243 12.0952 11.3897 10.6069 12.0532 9.82015 9.70331 9.10128 14.183 12.1651 8.88783 7.84552 9.06241 7.67475 7.43624 12.2132 8.26608 7.42088 7.3018 9.26202
threshold=0.17584253847599027 0.011542454361915552 0.019580372609198055 0.083961527794599519 0.36796988546848303 0.40930695831775665 0.022070943377912006 0.027030955068767005 0.74118199944496166 0.0020941906841471501 0.12244847416877741 0.032723514363169608 0.30710050463676458 0.0066030703019350507 0.64165136218070995 0.0054395978804677508 0.015638516284525353 0.095400519669055925 0.03877419047057621 0.0012352274497970503 0.00071370447403750013 0.012686669360846252 0.034010473638772958 0.017581920139491503 26.500000000000004 0.0070915117394178507 0.337312862277031 0.14260382205247876 0.010820630472153403 0.11937106400728222
decision_type=2 2 2 2 2 2 2 2 2 2 2 2 2 2 2 2 2 2 2 2 2 2 2 2 2 2 2 2 2 2
left_child=1 3 4 -1 9 6 8 27 12 -2 -3 -9 21 -6 -15 -11 -8 18 20 23 -12 -4 -23 -19 -17 26 -26 -5 29 -21
right_child=2 10 5 7 13 -7 16 11 -10 15 17 -13 -14 14 -16 24 -18 19 -20 28 -22 22 -24 -25 25 -27 -28 -29 -30 -31
leaf_value=0.089775807506089628 -0.048227929852631107 0.030481839918632486 -0.065008797299668367 0.10242091311829425 -0.10001127297268345 -0.098473191872493773 -0.116839162685984 -0.065322196793248119 0.026563648178018769 0.035725429041055544 -0.02105331561875888 0.032631518832835826 -0.10149244801715263 -0.023455417519388094 -0.11832860910397486 -0.058154697329510209 0.0086961262690540449 -0.15086723305742203 -0.044287589539419171 -0.043237405823984276 0.05738925962376893 0.07272729401269877 -0.047651748444358023 -0.050770997047221357 -0.001967155376241645 0.047917657068940522 -0.073639779828469129 0.016753967233569787 -0.074515736781476022 0.027752675846844106
leaf_weight=266.82576909661293 43.735645711421967 70.133244872093201 84.637321621179581 47.963487446308136 30.758619755506516 101.44873788952827 6.8452791869640341 14.051866412162779 17.105613350868225 92.617836385965347 21.204599589109421 122.49370676279068 70.276555508375168 113.52276602387428 15.181918501853941 22.349676758050919 61.261519014835358 12.116122156381605 37.867122560739517 32.536107093095779 45.305111050605774 9.9536376893520373 16.824346929788589 20.827399909496307 104.84059914946556 44.886498004198074 19.008927971124649 12.813100427389143 17.730113089084625 42.236311852931976
leaf_count=901 141 229 272 159 99 329 22 46 55 301 69 400 226 365 49 72 197 39 122 105 148 32 54 67 338 145 61 42 57 136
internal_value=0 0.0396989 -0.0346165 0.0692902 -0.0145631 -0.0611239 -0.0469276 0.0415888 -0.0616614 0.0013578 -0.00609018 0.0225511 -0.0699675 -0.0472547 -0.0346466 0.00900193 -0.00392118 -0.0172506 0.00456573 -0.0354027 0.0323802 -0.0500827 -0.00290569 -0.0875849 -0.00395076 0.00322874 -0.0129678 0.0843604 -0.0168188 -0.0031376
internal_weight=0 764.104 855.255 464.148 486.902 368.353 266.904 197.322 198.797 327.439 299.956 136.546 181.692 159.463 128.705 283.704 68.1068 229.823 104.377 125.446 66.5097 111.415 26.778 32.9435 191.086 168.736 123.85 60.7766 92.5025 74.7724
internal_count=5278 2520 2758 1548 1571 1187 858 647 639 1058 972 446 584 513 414 917 219 743 339 404 217 358 86 106 616 544 399 201 298 241
is_linear=0
shrinkage=0.1


Tree=13
num_leaves=31
num_cat=0
split_feature=22 78 82 61 22 57 68 59 26 12 19 54 56 50 34 33 24 35 36 85 86 103 80 65 40 53 28 54 3 81
split_gain=105.722 25.2995 19.802 12.6519 11.7441 17.4911 15.3213 14.9949 12.7715 11.0999 16.3208 11.0267 9.52432 10.001 9.79662 9.48669 9.17602 10.1515 9.09856 9.92229 8.89255 11.3461 15.5252 14.1205 12.5584 9.64336 9.55535 9.97591 8.74044 10.7406
threshold=0.17837165296077725 0.49629507958889013 0.09456134214997286 0.0015715576009824501 0.3050497174263001 0.0025953153381124004 0.026228607632219753 0.0014711096882819503 0.18635340780019757 0.048603417351841906 0.0036546966293826005 0.5799662470817567 0.94697043299674999 0.97706899046897899 0.055579382926225607 0.0020875377813354004 0.077561683952808366 0.00035234537790525006 0.021864293143153152 0.0015888592461123501 0.010069221258163402 0.0068989882711320508 0.42865407466888433 0.0098577332682907009 0.12276252359151836 0.67328321933746349 0.59744787216186535 0.51527076959609996 0.040528066456317909 0.36836829781532293
decision_type=2 2 2 2 2 2 2 2 2 2 2 2 2 2 2 2 2 2 2 2 2 2 2 2 2 2 2 2 2 2
left_child=2 4 -1 16 5 6 -2 -8 -9 -10 -11 -12 14 -14 -3 -6 -4 -18 -19 -20 26 22 23 -22 -23 28 27 -17 29 -26
right_child=1 12 3 -5 15 -7 7 8 9 10 11 -13 13 -15 -16 20 17 18 19 -21 21 24 -24 -25 25 -27 -28 -29 -30 -31
leaf_value=-0.064234042024533269 -0.0096256343700524549 0.11104720369369697 -0.061725231257975167 -0.035710436865716393 0.12518079461495513 -0.01999341100732991 0.019972026505743354 0.29647272359017202 0.0073284322203464591 0.35089562999188972 0.21247441128234701 -0.059839787777693554 -0.00039978629247760925 0.11765062959944926 0.27602913804176427 0.11350375239072077 0.16866871712009479 -0.020879460682247008 0.16775712520227401 0.01208272906263722 0.23790696993707164 -0.021376238523739603 0.23547508215942536 0.042852920136327147 0.0027291141801707021 -0.094237310547538686 0.11725635374348993 -0.032066025369467586 0.11309781215106313 0.15117553999836458
leaf_weight=183.24391022324562 29.967167690396309 24.018114462494854 9.9595145359635335 106.07224299758673 12.227277934551237 110.95339171588421 18.430849403142929 4.3436469882726696 6.9051684290170696 3.3586152493953687 2.9488446041941643 2.9994948953390121 15.544020652770998 13.33122333884239 4.2335970103740683 5.306665524840354 5.7347627431154242 19.513350263237953 7.2410704419016865 9.4213377237319929 4.1978985369205466 32.807154580950737 6.3058687448501578 32.026154845952988 24.706774130463604 3.9800144284963599 6.1142385303974143 41.710075989365578 23.402604967355728 6.0718828439712516
leaf_count=1441 201 137 72 746 73 746 118 27 44 20 20 20 88 69 21 34 39 135 46 62 25 207 35 200 155 25 37 261 138 36
internal_value=0 0.0324563 -0.0418678 -0.0159186 0.0231 0.00458724 0.0441399 0.0854669 0.144191 0.103391 0.174664 0.0751579 0.0944905 0.0541021 0.13577 0.0398487 0.024555 0.0450585 0.0254631 0.079735 0.034258 0.0480288 0.0906655 0.0654572 0.0280952 0.0560006 -0.000342862 -0.0156359 0.0670367 0.032014
internal_weight=0 435.891 341.186 157.942 378.764 179.907 68.9538 38.9866 20.5558 16.2121 9.30695 5.94834 57.127 28.8752 28.2517 198.857 51.87 41.9105 36.1758 16.6624 186.629 133.498 42.5299 36.2241 90.9684 58.1613 53.131 47.0167 54.1813 30.7787
internal_count=5278 2737 2541 1100 2422 1196 450 249 131 104 60 40 315 157 158 1226 354 282 243 108 1153 821 260 225 561 354 332 295 329 191
is_linear=0
shrinkage=0.1


Tree=14
num_leaves=31
num_cat=0
split_feature=58 92 100 31 25 58 77 78 60 29 101 62 54 62 65 78 0 74 70 59 43 72 66 25 95 36 63 41 42 62
split_gain=73.403 16.2384 13.4903 13.3298 13.1556 12.4591 10.9463 13.028 15.7992 13.9502 16.9234 10.1706 9.16997 12.7119 18.275 13.5494 9.11753 14.1338 10.5048 8.3166 8.09028 8.07282 7.7353 14.4054 7.11931 14.9539 15.4773 6.41253 6.28678 6.08342
threshold=0.053117729723453508 0.053668418899178456 0.0082255150191485032 0.0065004150383173509 0.44811406731605535 0.0041889806743710513 0.0099420421756803521 0.51339596509933483 0.31362606585025793 0.0096366968937217513 0.021902014501392803 0.057152669876813854 0.67414397001266491 0.035817028954625053 0.021304439753293904 0.4234351664781571 27.500000000000004 0.61364516615867626 0.010885734576731853 0.0030090407235547506 0.00012340182001930003 0.10242004320025443 0.035816121846437406 0.36520993709564209 0.050902623683214153 0.034110682085156406 0.0049253364559262514 0.079668428748846012 0.032192938029766006 0.014642078895121752
decision_type=2 2 2 2 2 2 2 2 2 2 2 2 2 2 2 2 2 2 2 2 2 2 2 2 2 2 2 2 2 2
left_child=2 3 4 16 -1 -4 -3 8 11 -10 -11 -8 13 15 -15 20 -2 18 -18 28 29 -20 27 -24 25 -22 -27 -16 -6 -7
right_child=1 6 5 -5 19 12 7 -9 9 10 -12 -13 -14 14 22 -17 17 -19 21 -21 24 -23 23 -25 -26 26 -28 -29 -30 -31
leaf_value=-0.066755143470925912 0.022737313416965468 -0.023534351252220122 0.30328022925408482 0.41930553745604854 0.10021260268153237 0.022611092711871977 0.28329828791243439 -0.050997553751752828 0.54967495489638973 -0.027322567888165367 0.40600755916741804 -0.08336768769921242 -0.039880315850402345 0.38941833605038673 -0.083724794217790194 0.39267005608686317 0.24980982338433036 0.41224820716193245 -0.084389443329385569 -0.083068360938218455 -0.049967761354594874 0.19925545848396273 0.040124417216776675 0.37757910857737254 -0.031949587836755916 0.55802190447354094 0.015670712109764569 0.18675576053819637 0.45442496323414594 0.39233190903439463
leaf_weight=75.268729224801064 3.5364098511636284 8.1736593358218688 1.2939710319042195 2.3482374660670748 1.087736878544092 0.94484782591462024 1.0848389156162723 3.0498305372893801 1.5688968934118745 1.7769851535558703 1.8287887275218961 2.4994316436350346 53.068493366241455 1.8937342949211586 4.4960207454860193 0.83819667994975944 4.627523444592951 2.5825980380177489 2.4701844230294228 1.0555226504802702 3.0401102080941191 1.6898165382444856 4.7766949124634266 1.7207044363021848 46.874654915183783 1.0918429270386698 1.0156346559524534 1.0887686088681219 0.92904140800237645 0.84131693094968796
leaf_count=1929 48 146 29 25 23 22 20 62 20 36 28 53 1204 28 92 16 36 26 45 24 74 15 81 23 1072 25 25 13 19 19
internal_value=0 0.126791 -0.0260427 0.197856 -0.058476 -0.00538276 0.0654274 0.127004 0.188983 0.30076 0.192455 0.0276098 -0.00866485 0.0154753 0.100582 -0.00629081 0.162971 0.206587 0.146145 0.144356 -0.0125056 0.0308288 0.0553103 0.129492 -0.0196905 0.0919422 0.296652 -0.0309939 0.263383 0.196756
internal_weight=0 37.2372 201.326 17.2548 78.341 122.985 19.9824 11.8088 8.75894 5.17467 3.60577 3.58427 121.691 68.6225 13.9759 54.6466 14.9065 11.3701 8.78752 3.0723 53.8084 4.16 12.0822 6.4974 52.0222 5.14759 2.10748 5.58479 2.01678 1.78616
internal_count=5278 560 4718 195 1995 2723 365 219 157 84 64 73 2694 1490 237 1253 170 122 96 66 1237 60 209 104 1196 124 50 105 42 41
is_linear=0
shrinkage=0.1


Tree=15
num_leaves=31
num_cat=0
split_feature=50 56 84 81 30 84 8 15 40 10 97 52 76 70 12 82 34 54 37 106 69 12 29 21 71 1 8 104 97 96
split_gain=69.5974 25.2464 11.6917 9.84326 9.34927 9.97212 9.24823 11.1328 8.25558 8.23092 11.6044 7.81813 7.34966 7.17815 7.15925 7.23927 7.06658 6.95482 8.48481 7.66709 9.77432 9.92521 9.31384 8.67417 8.26507 6.99764 6.59606 10.4907 8.01899 7.26
threshold=0.39977183938026434 0.87808126211166393 0.056442579254508012 0.37242060899734503 0.0077530089765787012 0.49647805094718939 0.052883544936776154 0.027161293663084455 0.012524780817329851 0.17125228792428973 0.0082054082304239013 0.42120842635631567 0.0052735102362930506 0.03852554969489571 0.30683772265911108 0.42463168501853948 0.095058247447013813 0.8842352330684663 0.10113394632935521 0.079093445092439665 0.074212510138750062 0.16473671048879618 0.0030570012750103502 0.030686323530971952 0.0046741671394556509 0.0095551456324756024 0.062608651816844912 0.034068308770656509 0.075334664434194509 0.12701498717069629
decision_type=2 2 2 2 2 2 2 2 2 2 2 2 2 2 2 2 2 2 2 2 2 2 2 2 2 2 2 2 2 2
left_child=2 6 -1 -4 5 -3 11 9 -5 16 -11 12 -2 -6 -9 -16 26 -15 19 20 21 22 24 -23 -19 -24 27 29 -28 -8
right_child=1 4 3 8 13 -7 7 14 -10 10 -12 -13 -14 17 15 -17 -18 18 -20 -21 -22 23 25 -25 -26 -27 28 -29 -30 -31
leaf_value=-0.065467567350819683 0.18075962122984332 0.072389254161519589 -0.031734951482633514 -0.05493138356642855 -0.037216135400796685 0.21035878814174783 0.069768032197773042 -0.028053920196364487 0.10232439609784512 0.20105926211103023 0.037835694833195627 -0.012726597526406855 0.01683647107295002 0.15901649874912038 -0.051283197937078862 0.11426023971293318 -0.097703174305297541 0.17093648993019669 -0.053293334839382325 0.11360710052861148 -0.07302541186044971 0.13430434842084199 -0.042749069647822074 0.022545216714073498 0.0066634504820370938 0.041396920767828929 0.013569520225551794 -0.061050622562562828 0.12625759173562126 0.20776150006738364
leaf_weight=114.58244930952787 3.9721316993236533 26.146718680858612 161.27923342585564 4.906563311815261 10.962418243288992 6.5512591153383246 23.642032995820049 61.476057589054108 10.445064172148703 6.568269535899165 12.930404767394064 212.04651008546352 8.7833147794008237 5.3274633437395087 4.0280526727437955 7.6748053878545761 4.6122619807720175 6.8505290448665601 8.6156120300292951 16.028092384338379 7.2236959636211386 19.250404119491581 20.339552909135818 10.864257439970968 5.5393060445785522 19.22353595495224 141.81026954948902 5.3227211683988562 6.6091684550046912 4.5456266850233069
leaf_count=786 23 124 978 29 55 27 122 334 55 31 64 1162 49 25 21 33 25 30 44 74 36 81 99 49 27 89 722 28 33 23
internal_value=0 0.0180055 -0.04059 -0.0244517 0.0522262 0.100032 0.00694382 0.0190982 0.0520636 0.0309981 0.0928187 -0.00815273 0.0678832 0.0402226 -0.014407 0.0572812 0.0245362 0.0473406 0.0421188 0.0499239 0.0384926 0.0483085 0.0218316 0.0939858 0.0974925 -0.00186289 0.0276352 0.0677076 0.0185876 0.0920213
internal_weight=0 666.944 291.213 176.631 162.923 32.698 504.022 279.22 15.3516 206.041 19.4987 224.802 12.7554 130.225 73.1789 11.7029 186.542 119.262 113.935 105.319 89.2913 82.0676 51.9529 30.1147 12.3898 39.5631 181.93 33.5104 148.419 28.1877
internal_count=5278 3430 1848 1062 760 151 2670 1436 84 1048 95 1234 72 609 388 54 953 554 529 485 411 375 245 130 57 188 928 173 755 145
is_linear=0
shrinkage=0.1


Tree=16
num_leaves=31
num_cat=0
split_feature=55 9 3 18 18 81 47 42 4 100 44 47 26 105 85 105 44 48 4 4 6 96 83 71 43 79 79 4 30 7
split_gain=65.6308 19.5304 19.2241 15.422 14.766 11.7602 10.2847 9.33202 9.16536 9.20549 11.1048 8.97795 8.82632 8.7596 8.70614 9.57394 9.2566 8.44476 10.9356 15.3933 10.4821 7.43274 8.84848 8.70039 13.5757 9.12159 11.4791 8.09642 7.37125 7.37071
threshold=0.0088192210532724025 0.024006001651287055 0.043744159862399053 0.37048807740211492 0.75888490676879894 0.56491723656654369 0.00093006325187160014 0.0088160824961960021 0.11904787272214891 0.011638315860182002 0.019661705940961803 0.0009849821217357503 0.044911516830325057 0.00042171320819755007 0.0019191108294762502 0.0024569904198869503 0.027476310729980403 0.017648350447416302 0.11360064521431922 0.12798829376697538 0.016010751947760551 0.020035685971379252 0.050713239237666054 0.0037783766165375506 0.0017524993163533004 0.021493729203939403 0.031357889994978905 0.24547225236892697 0.0081756245344877018 0.0054754314478486507
decision_type=2 2 2 2 2 2 2 2 2 2 2 2 2 2 2 2 2 2 2 2 2 2 2 2 2 2 2 2 2 2
left_child=12 3 4 5 6 11 7 13 -8 10 -10 17 -1 -3 16 -16 -9 18 -2 -20 -21 -11 23 24 -23 -26 -27 -25 -13 -28
right_child=1 2 -4 -5 -6 -7 8 14 9 21 -12 28 -14 -15 15 -17 -18 -19 19 20 -22 22 -24 27 25 26 29 -29 -30 -31
leaf_value=-0.084699305957387436 0.018214418552029276 0.12654974526425686 -0.05845909127981256 -0.079035986128430047 -0.060701103526105284 0.20933130492849472 -0.053370439265795683 0.29790265548505129 0.00540180624367817 -0.029333459944376319 0.244824330128982 -0.0744041089293484 -0.033118466799310221 -0.057136239311293836 -0.065365278513411132 0.14640168774339316 0.13537975413004258 -0.013166699650742656 0.3642269930567455 0.015863653106611305 0.22587512161646159 -0.024809063570132104 0.086233332206969035 0.051681738977404072 -0.0011903297722488852 0.32878205906981162 0.21597281840528529 -0.035387724150511488 0.0033115270428708912 0.0010988321030169265
leaf_weight=39.878172196447849 12.89437145739794 4.919275835156439 16.283912852406502 21.185342863202095 10.478181153535841 2.9535484611988059 8.16584664583206 5.0404209196567598 3.0516282469034177 11.050534471869467 5.3047820776700974 13.740177407860754 197.34109798818827 5.4974801912903786 3.540620952844618 5.3771210685372353 11.500385716557501 14.019199773669241 2.6317559331655493 6.4677138179540616 3.7573090121150017 7.3712892010808018 53.974984474480152 20.115027472376823 3.2712782695889464 3.7845611646771413 3.2064178586006165 22.76812045276165 109.20678175985813 3.1792938858270645
leaf_count=424 106 30 143 200 92 18 66 29 21 80 34 122 1865 39 24 34 64 106 20 46 25 53 348 144 23 25 20 165 890 22
internal_value=0 0.0247635 0.0458521 0.00130206 0.0547176 0.0115754 0.0613948 0.109342 0.0495518 0.055683 0.157391 0.00798583 -0.0417896 0.0296088 0.141966 0.0623236 0.184905 0.0492859 0.0832858 0.148547 0.0930349 0.0490802 0.0564441 0.0312011 0.0842518 0.14406 0.19078 0.0054536 -0.00537374 0.108992
internal_weight=0 394.737 207.881 186.856 191.597 165.671 181.119 35.8753 145.244 137.078 8.35641 162.717 237.219 10.4168 25.4585 8.91774 16.5408 39.7703 25.7512 12.8568 10.225 128.722 117.671 63.696 20.8128 13.4416 10.1703 42.8831 122.947 6.38571
internal_count=5278 2989 1456 1533 1313 1333 1221 220 1001 935 55 1315 2289 69 151 58 93 303 197 91 71 880 800 452 143 90 67 309 1012 42
is_linear=0
shrinkage=0.1


Tree=17
num_leaves=31
num_cat=0
split_feature=80 44 79 80 22 25 71 26 26 2 63 50 0 104 103 69 2 55 47 22 100 99 23 60 70 38 73 107 7 26
split_gain=174.83 60.4928 44.808 28.2004 22.1052 15.5884 14.339 14.3283 13.9745 12.9041 11.1121 15.0609 13.696 9.68693 10.1515 8.82402 8.64199 8.53397 9.75211 9.59629 8.49566 8.37577 8.06863 7.98882 7.65847 7.58115 10.6631 7.55781 7.91997 7.44718
threshold=0.12185205891728397 0.010980307590216351 0.013227191288024151 0.41092875599861145 0.29060351848602295 0.018383895047008953 0.0031980519415810006 0.077235236763954163 0.35059994459152227 0.022116167470812752 0.0045593199320137006 0.8614872694015504 24.500000000000004 0.053608823567628812 0.00032097251096270004 0.011542454361915552 0.024574097245931553 0.0038772640982642505 0.00041154729842665005 0.16774637252092359 0.016444605775177455 0.00027516353293315007 0.022189294919371553 0.067563258111476857 0.22934588044881823 0.0083892308175563517 0.0016800493467598503 0.050981208682060207 0.0014286442892625501 0.04252220690250396
decision_type=2 2 2 2 2 2 2 2 2 2 2 2 2 2 2 2 2 2 2 2 2 2 2 2 2 2 2 2 2 2
left_child=1 5 4 6 10 -1 -4 15 29 22 11 17 -12 14 -9 -3 -11 19 -19 -2 23 -17 -8 -6 -14 -23 -27 -16 -29 -7
right_child=2 7 3 -5 20 8 9 13 -10 16 12 -13 24 -15 27 21 -18 18 -20 -21 -22 25 -24 -25 -26 26 -28 28 -30 -31
leaf_value=0.099174206434059442 0.084176704635278612 0.084239138282761541 -0.055390118913909617 -0.080510036727384091 -0.010935494911323732 0.09340009222025325 0.0034678821498317428 -0.12429549397242878 -0.080492980168959394 -0.10929289246706229 -0.080919629675682087 -0.12358427390640297 0.064044710037023098 -0.09515301905215659 -0.079356056811428599 -0.084137210360035214 -0.026762858946005132 -0.099078833499722171 0.0033339933669699383 -0.0033696802876649274 0.044233077549637824 0.06326737693700922 0.11150672225321433 -0.056574239423688437 -0.048821478930880818 -0.062450303433369263 0.057037386735532984 -0.042325296434424231 0.02628142971572572 0.05030665039478549
leaf_weight=106.84260931611061 26.553775131702423 22.586583375930786 148.1333512365818 148.637242436409 72.798428535461426 48.804384380578995 95.443669229745865 7.4190787374973288 7.4861669540405265 13.694763034582136 7.9475828111171714 9.0077743232250196 84.205538302659988 16.031168162822723 11.38653841614723 7.996231645345687 172.57252267003059 10.494978964328764 81.524613529443741 23.69183337688446 14.845671772956846 27.322999238967896 7.4523193538188925 81.063196867704391 6.474162518978118 16.821619808673862 13.432266443967817 23.199868947267532 61.24874159693718 224.9076863527298
leaf_count=378 88 77 479 489 235 171 308 24 24 44 26 29 277 52 37 26 557 34 264 77 48 90 24 262 21 55 44 75 200 763
internal_value=0 0.0433544 -0.0250292 -0.0428806 -4.21679e-05 0.0666583 -0.0300904 -0.000237294 0.0543037 -0.0171298 0.0188389 0.00181214 0.0449544 -0.022831 -0.0116023 0.0303333 -0.0328306 0.00975184 -0.00834635 0.0428968 -0.0280101 0.0117655 0.0112927 -0.0349806 0.0559865 0.0250844 -0.00939958 -0.00287815 0.00743367 0.0579905
internal_weight=0 595.486 1004.54 585.934 418.608 388.041 437.297 207.445 281.198 289.163 249.9 151.273 98.6273 119.285 103.254 88.1597 186.267 142.265 92.0196 50.2456 168.707 65.5731 102.896 153.862 90.6797 57.5769 30.2539 95.8351 84.4486 273.712
internal_count=5278 2016 3262 1901 1361 1336 1412 680 958 933 816 492 324 388 336 292 601 463 298 165 545 215 332 497 298 189 99 312 275 934
is_linear=0
shrinkage=0.1


Tree=18
num_leaves=31
num_cat=0
split_feature=24 82 84 17 14 91 100 66 78 23 51 103 49 18 102 8 37 58 49 89 84 14 93 19 10 9 16 11 47 21
split_gain=84.2962 19.3714 15.3366 12.1406 11.756 11.6597 10.5679 10.4349 9.62231 9.47747 11.7437 13.9624 13.9545 17.624 10.2297 10.7236 9.46428 9.41938 9.1791 10.8021 8.12492 11.1814 8.85194 7.69345 7.51745 8.07023 14.6292 8.34335 7.95295 7.48793
threshold=0.16730385273694992 0.31301245093345648 0.09922448918223381 0.0019736953545361506 0.029376731254160352 0.008178715594112802 0.0067398054525256009 0.067449599504470756 0.49629507958889013 0.044105811044573756 0.029999912716448255 0.0014182677841745003 0.0072662525344639505 0.11613300442695616 0.86040055751800548 0.11913793534040447 0.029974785633385102 0.027532158419489802 0.028090463019907402 0.037733487784862456 0.13336815685033795 0.018121806904673552 0.024452784098684753 0.0014929964672773502 0.069201283156871754 0.0080594387836754027 0.0055418093688785501 0.077916856855153968 0.0056164851412176505 0.012448321562260351
decision_type=2 2 2 2 2 2 2 2 2 2 2 2 2 2 2 2 2 2 2 2 2 2 2 2 2 2 2 2 2 2
left_child=2 5 -1 4 6 9 -4 -3 -9 10 12 -12 14 -14 15 24 20 -13 -7 -20 -8 22 -22 -6 25 26 -2 -28 -26 -15
right_child=1 7 3 -5 23 18 16 8 -10 -11 11 17 13 29 -16 -17 -18 -19 19 -21 21 -23 -24 -25 28 -27 27 -29 -30 -31
leaf_value=-0.060699571182318647 -0.0075525128823109751 0.11850765285120085 -0.076876419137771046 -0.044903176788231448 0.0073379505188603924 -0.039202036992102313 0.12959188756253734 0.026491109200149826 0.074752517072550428 -0.046344560488308463 0.25957987749591782 0.1884088889804813 -0.0020268805366721464 0.077920049019460549 0.18638356604885786 -0.079446457876570772 -0.093128880204557882 -0.0077018389063810873 0.16617978784691645 -0.064807568481438857 0.017657840862373535 -0.092968188944985319 0.18161112341007357 0.1881581619590105 0.073328607549402985 -0.029547533107581282 0.029738232432810791 0.2036903336997361 -0.07082562248600037 0.26102499821836295
leaf_weight=173.69730874150991 26.790593087673187 19.530684597790241 13.990604922175406 66.855848468840122 3.8912058770656568 63.435900993645191 8.4728907346725446 130.52385500073433 60.443262621760368 18.718263447284698 4.4935320168733623 3.518440604209899 8.6007602289319056 3.5006623566150648 3.1738689988851538 13.581112906336783 5.822830617427825 8.0590473711490613 4.9715591669082624 3.4154368191957474 13.495370030403143 6.8068481236696234 4.3559620529413214 5.9525740444660187 29.166000068187714 46.349659487605095 4.8610678613185865 6.371052548289299 4.405174955725669 6.1693087965250015
leaf_count=1474 179 115 106 499 24 432 54 779 311 119 26 21 54 23 18 86 39 51 31 22 90 46 28 34 183 296 32 40 29 37
internal_value=0 0.0263439 -0.0412738 -0.0152471 0.0163302 0.00806369 -0.0023276 0.0488867 0.0417664 0.0211717 0.028648 0.109966 0.0201047 0.102113 0.00898091 0.00469994 0.0244472 0.0518969 -0.0262032 0.0721148 0.0451114 0.0160827 0.0576646 0.116681 0.0143893 -0.00153573 0.0326106 0.128407 0.0544128 0.194738
internal_weight=0 470.079 303.341 129.644 62.7883 259.581 52.9445 210.498 190.967 187.759 169.04 16.071 152.969 18.2707 134.699 131.525 38.9539 11.5775 71.8229 8.387 33.1311 24.6582 17.8513 9.84378 117.944 84.3724 38.0227 11.2321 33.5712 9.66997
internal_count=5278 2884 2394 920 421 1679 363 1205 1090 1194 1075 98 977 114 863 845 257 72 485 53 218 164 118 58 759 547 251 72 212 60
is_linear=0
shrinkage=0.1


Tree=19
num_leaves=31
num_cat=0
split_feature=58 106 37 106 52 97 54 83 65 6 63 102 1 85 103 5 91 35 15 29 61 74 50 58 70 78 100 65 9 108
split_gain=54.5214 12.09 11.1118 10.7861 10.0786 8.61238 7.97498 12.0352 8.53807 14.2788 7.7911 13.7854 7.48355 14.847 8.43513 12.7236 6.52635 5.59203 5.99883 5.43572 11.6855 4.94972 6.66921 4.92276 15.7895 4.91658 4.82088 7.15648 6.50266 4.58621
threshold=0.053117729723453508 0.0062713332008570008 0.045995168387889855 0.098062261939048753 0.93474620580673229 0.0031098688486963003 0.67414397001266491 0.031457548961043309 0.021304439753293904 0.033005336299538605 0.014857035130262302 0.2759442925453186 0.022977591492235602 0.019454994238913004 0.0059162534307688015 0.0080911903642117509 0.034288248047232552 0.0024547181092202004 0.00082278426270925009 0.006675057346001251 0.0072840014472603009 0.79642984271049511 0.76627072691917431 0.0041027846746146011 0.035353176295757259 0.40219664573669434 0.03160478547215461 0.033334219828247962 0.051090130582451758 0.10439265146851537
decision_type=2 2 2 2 2 2 2 2 2 2 2 2 2 2 2 2 2 2 2 2 2 2 2 2 2 2 2 2 2 2
left_child=1 -1 3 -2 12 -3 7 23 9 -9 26 -12 13 14 15 17 -14 18 -4 20 -16 -8 -23 24 -7 -24 -10 -28 -29 -20
right_child=2 5 4 -5 -6 6 21 8 10 -11 11 -13 16 -15 19 -17 -18 -19 29 -21 -22 22 25 -25 -26 -27 27 28 -30 -31
leaf_value=-0.063249840193374748 -0.055215057626049752 0.21815240715212242 0.23502130530189028 0.23680881247911795 -0.015293832184924021 -0.083372756100959719 -0.049702767116126381 0.042773879880532238 -0.083889931036632406 0.41923791664216803 0.029514522458758258 0.4220696989285071 -0.085097245898367091 0.41962553049691032 -0.045660586269699023 0.41060422349280201 0.18195000120110316 0.23253032054528791 -0.048651554729128063 -0.051990491225546845 0.29301632925400306 0.26793331482437321 -0.083882856322773799 -0.018727033451955821 0.44465319767532113 0.15613604717537974 0.24433650571871501 -0.084326448584854857 0.13256309164436733 0.12395719946045265
leaf_weight=57.185707435011864 6.8508046269416791 1.6548848003149021 2.4066258296370595 1.5512144714593885 4.3072708845138541 1.4102979078888886 51.010021191090345 2.3368381299078491 4.2127226963639242 1.7710799090564249 2.6179503500461574 1.3589430823922155 2.3511835001409049 2.1536797583103171 1.9933037385344494 2.1623583398759356 1.4983622059226034 5.1267765238881102 2.7124917432665825 2.8819253519177437 2.0837828256189823 1.1311215199530114 2.6845063343644147 59.052699487656355 0.9463122971355914 1.251216188073158 1.5100015085190532 3.5550944171845913 2.2617942467331886 3.5590463057160378
leaf_count=1596 134 32 18 28 76 30 1220 37 86 20 45 12 40 24 23 17 27 43 43 43 22 18 52 1405 19 25 23 68 30 22
internal_value=0 -0.0245565 0.101445 -0.00130044 0.127418 -0.0086108 -0.0113478 0.00871488 0.0768879 0.205082 0.0429492 0.163654 0.148666 0.168592 0.14501 0.185054 0.0188458 0.149725 0.100806 0.0531303 0.127436 -0.0403392 0.0539273 -0.013071 0.12866 -0.0075778 0.0013506 0.0503611 7.212e-06 0.0493025
internal_weight=0 195.951 41.6388 8.40202 33.2368 138.765 137.111 81.0337 19.6244 4.10792 15.5165 3.97689 28.9295 25.08 22.9263 15.9673 3.84955 13.8049 8.67816 6.95901 4.07709 56.0769 5.06684 61.4093 2.35661 3.93572 11.5396 7.32689 5.81689 6.27154
internal_count=5278 4718 560 162 398 3122 3090 1775 321 57 264 57 322 255 231 143 67 126 83 88 45 1315 95 1454 49 77 207 121 98 65
is_linear=0
shrinkage=0.1


Tree=20
num_leaves=31
num_cat=0
split_feature=56 56 26 2 23 48 51 68 103 5 10 8 2 108 74 100 96 73 12 71 16 11 72 35 53 36 34 70 51 67
split_gain=55.3528 20.391 10.9233 11.9243 9.31565 10.6762 11.2355 9.19897 10.4557 7.70872 7.51533 11.4881 8.48057 9.8792 10.2049 10.7828 8.2724 10.2251 6.91722 8.80323 7.38548 8.66675 10.3358 6.9084 6.67762 6.58836 9.0991 6.17735 5.99684 5.89604
threshold=0.36749419569969183 0.87808126211166393 0.14718739688396457 0.0027065060567110504 0.0031789444619789004 0.0026485500857233502 0.0036983933532610002 0.015383797697722851 0.0036582386819645507 0.0079811913892626016 0.043252805247902856 0.069343969225883414 0.043457858264446259 0.0048571545630693011 0.17880863696336743 0.077995244413614204 0.15595671534538266 0.0027849954785778507 0.16737062484025952 0.012459132552561951 0.024064528755843601 0.156613364815712 0.012863353360444252 0.009442202746868052 0.2987187951803208 0.009371248073875852 0.009948218706995202 0.22934588044881823 0.0076476612593978513 0.052308531478047357
decision_type=2 2 2 2 2 2 2 2 2 2 2 2 2 2 2 2 2 2 2 2 2 2 2 2 2 2 2 2 2 2
left_child=7 4 -3 -4 -2 6 -6 -1 9 25 16 -12 13 -13 23 18 17 -5 20 -20 21 -16 -23 -15 -24 26 -9 -21 -25 -7
right_child=1 2 3 10 5 29 -8 8 -10 -11 11 12 -14 14 15 -17 -18 -19 19 27 -22 22 24 28 -26 -27 -28 -29 -30 -31
leaf_value=-0.056984411845374484 -0.031103562101438366 -0.082522020788471873 0.20749229603697633 0.13857136067734055 0.17691848615445305 -0.025913759317204174 -0.026475935113558446 -0.00097838640688236453 -0.053638188233684485 0.12784558131643356 -0.039209838102077454 -0.03209803527530887 0.0073649765373813977 0.22250782844449973 -0.066419900941730864 0.17722538558870282 0.19806286502136561 -0.029531878205653186 0.15889790407112839 -0.062717819382565945 -0.06707988554000209 -0.042897638993577708 0.064756968276837912 0.17653859181492529 0.22033011224339139 -0.017376058670814914 0.19376056418347873 0.09231889044831719 0.026955855863626078 0.011478703790698923
leaf_weight=139.27853894233704 62.282383099198341 6.4411194175481787 4.684347763657569 7.7732328474521655 7.570405110716818 47.001158028841019 4.2353677749633789 6.5440080463886243 48.672049231827259 4.9340353906154624 17.256150811910629 9.2081898301839811 35.760183170437813 6.8607975542545345 5.468881890177733 6.5824784189462653 6.2270221263170233 6.7695882618427277 9.153473302721979 4.5648942589759809 8.6435589194297773 4.8393601477146175 6.3945740312337858 4.8722376078367216 4.8527901023626328 49.458513766527176 3.7883294522762299 5.8808967471122742 5.9570448398590088 410.15575386583805
leaf_count=990 358 35 19 35 39 256 24 45 301 30 83 41 167 28 26 27 27 32 37 20 42 22 28 20 21 313 22 24 26 2140
internal_value=0 0.0148404 0.0451857 0.0502712 0.00523315 0.010059 0.10395 -0.0397678 -0.0186218 0.00770997 0.0455822 0.0370432 0.048097 0.0655873 0.0777312 0.05694 0.101617 0.0603204 0.0410404 0.0873036 0.0110155 0.042331 0.0793022 0.143996 0.131881 -0.00220381 0.0704222 0.0245666 0.0942551 0.00763431
internal_weight=0 699.436 168.191 161.75 531.245 468.963 11.8058 252.675 113.397 64.7249 157.065 136.296 119.039 83.2792 74.071 56.3809 20.7698 14.5428 49.7984 19.5993 30.1992 21.5556 16.0867 17.6901 11.2474 59.7909 10.3323 10.4458 10.8293 457.157
internal_count=5278 3577 760 725 2817 2459 63 1701 711 410 706 612 529 362 321 247 94 67 220 81 139 97 71 74 49 380 67 44 46 2396
is_linear=0
shrinkage=0.1


Tree=21
num_leaves=31
num_cat=0
split_feature=55 37 53 61 47 86 62 89 60 75 27 26 56 27 73 47 76 66 100 54 56 67 56 33 91 56 80 22 37 108
split_gain=52.6729 14.7877 15.631 15.1521 9.69883 8.97856 14.3345 10.4835 8.46452 9.22503 9.15286 8.40671 8.59655 8.25303 10.5049 10.8799 9.89432 9.41376 8.33157 8.20457 8.99284 10.1629 9.51562 15.8463 7.54965 7.50934 7.10543 7.07778 8.30818 6.90433
threshold=0.0088192210532724025 0.032223235815763453 0.44815389811992645 0.014175510499626351 0.0010138602810911502 0.013901314232498352 0.033945517614483812 0.021852120757102904 0.13412327319383624 0.0019420285243540501 0.0095956386066973019 0.044911516830325057 0.036271497607231105 0.094081774353981004 0.0037171022268011502 0.012593298684805602 0.079455643892288166 0.025362494401633701 0.042409332469105658 0.36004248261451727 0.6778152883052827 0.48246625065803533 0.64831033349037182 0.011909979861229601 0.0047246238682418515 0.37684339284896851 0.077817969024181324 0.2665401846170426 0.11905251815915106 0.012116156984120552
decision_type=2 2 2 2 2 2 2 2 2 2 2 2 2 2 2 2 2 2 2 2 2 2 2 2 2 2 2 2 2 2
left_child=11 2 4 5 8 -3 -7 13 9 10 -2 -1 -13 14 16 18 24 -15 -16 -6 22 -22 25 -24 26 -21 -8 -5 -29 -10
right_child=1 3 -4 27 19 6 7 -9 29 -11 -12 12 -14 17 15 -17 -18 -19 -20 20 21 -23 23 -25 -26 -27 -28 28 -30 -31
leaf_value=-0.083514411286467638 0.076224618666251853 0.20875278533610653 -0.068788706015481565 0.094840712867934523 -0.046704065679057973 -0.014501836465757943 0.15599263007458608 0.24106352067026771 0.15241461945820675 0.168695275864886 -0.081566640996056566 0.22918277804655096 -0.03230135169344725 -0.079322406287686567 0.11711368742926265 0.18502520415024926 0.23486910361702656 0.066952982039098205 -0.019247128487332173 0.16762704355898136 -0.017018936256452798 0.13199111243918366 0.01470718436250047 0.28543005424592205 0.22555256933319845 0.015517828502326428 0.034763140742242037 -0.038626883858256564 0.15218649785387819 0.053567574089838421
leaf_weight=35.599762424826622 5.4065986201167169 4.2378824129700652 24.63336156308651 5.8475610241293898 27.812924414873123 20.55967528373003 7.3172963336110177 3.7980403527617446 9.2307057455182058 2.6784052252769461 11.485530845820902 1.2657271921634663 188.49767657369375 6.9358949437737492 6.0608913600444856 4.5739401504397383 6.8174639344215384 12.031955748796461 17.186215288937092 3.4802294522523871 79.657004311680794 4.8560770601034156 4.717774383723734 3.9912869483232498 3.9950312972068778 48.134808897972107 14.250383511185644 30.751978434622288 2.4647454619407645 30.136867791414261
leaf_count=424 45 24 232 41 235 151 37 20 58 19 94 14 1851 50 36 26 35 70 111 27 621 32 36 32 22 389 82 248 19 197
internal_value=0 0.0214437 0.00694369 0.0467468 0.0149991 0.0660879 0.0602479 0.0787713 0.0500248 -0.00372427 -0.031063 -0.0389227 -0.0305572 0.0709855 0.0891088 0.044043 0.127829 0.0134651 0.0163043 0.00304229 0.012595 -0.0084569 0.0420884 0.138777 0.0992822 0.025774 0.0758928 -0.00660873 -0.0244682 0.0767447
internal_weight=0 403.051 256.222 146.829 231.588 107.765 103.527 82.9671 58.9381 19.5705 16.8921 225.363 189.763 79.1691 60.2012 27.821 32.3802 18.9679 23.2471 172.65 144.837 84.5131 60.3241 8.70906 25.5627 51.615 21.5677 39.0643 33.2167 39.3676
internal_count=5278 2989 2017 972 1785 664 640 489 413 158 139 2289 1865 469 349 173 176 120 147 1372 1137 653 484 68 141 416 119 308 267 255
is_linear=0
shrinkage=0.1


Tree=22
num_leaves=31
num_cat=0
split_feature=84 4 30 56 28 21 27 28 3 0 97 62 28 87 93 30 42 20 83 46 85 58 78 91 104 31 17 24 11 21
split_gain=137.75 45.4151 44.9065 23.8076 15.6818 15.8846 13.1465 9.94275 12.2966 11.4187 9.31936 9.0773 9.23219 8.17233 7.97426 7.51447 7.24578 9.34659 7.22409 8.65704 8.39835 11.7354 9.79647 7.09989 11.0064 7.00299 9.53558 8.23649 6.94507 6.58699
threshold=0.09922448918223381 0.10815960541367532 0.019261872395873004 0.8844498097896577 0.44763079285621649 0.039065830409526756 0.0021420158445834502 0.21214587986469269 0.0028083591023459506 45.500000000000007 0.0082779452204703504 0.032921181991696309 0.11734195426106452 0.00035318473237560009 0.0070323313120752009 0.0019027123926207003 0.046333191916346508 0.0030051697976887005 0.12676158547401428 0.70054450631141674 0.0023638319689780001 0.11760113760828966 0.29664704203605657 0.0026135735679417506 0.0046712213661521508 0.0024736119667068007 0.0026038008509203501 0.26691068708896643 0.039935370907187406 0.0044914048630744002
decision_type=2 2 2 2 2 2 2 2 2 2 2 2 2 2 2 2 2 2 2 2 2 2 2 2 2 2 2 2 2 2
left_child=1 10 3 6 5 18 -2 8 14 15 16 12 -3 -12 28 -9 -1 -18 19 20 -4 22 -22 -5 -25 26 -14 -27 -8 -17
right_child=2 11 4 23 -6 -7 7 9 -10 -11 13 -13 25 -15 -16 29 17 -19 -20 -21 21 -23 -24 24 -26 27 -28 -29 -30 -31
leaf_value=0.083730073456807913 0.047724537379502212 0.038777482555916405 -0.079217327237290219 -0.11506719558354413 -0.081373187208438155 0.049314557193416875 -0.035643185216487211 -0.12018380559154918 0.034312581926828685 0.089214740458151157 -0.051386790530749238 -0.031642784746193732 -0.015209781558541656 0.050685007415151972 -0.026297505588165005 -0.043940114081835846 0.095064755752112109 -0.073359517777160918 -0.10029759703844116 0.023436356479690348 -0.017962739873423634 0.099588354221842521 -0.059881059201269238 0.050238157542625853 -0.052316864717682543 0.081999849395165872 -0.16141208401359741 -0.064141385782512855 0.058022644716858841 -0.0059436324300297496
leaf_weight=212.19717174768448 63.772699445486069 78.598746836185455 47.60270032286644 13.711237788200377 89.357438564300537 21.293657809495926 11.432757288217543 7.0535216629505149 135.23781949281693 10.258021444082258 8.8906449079513532 50.07741305232048 14.668951958417894 66.625835806131363 85.206019699573517 60.910368919372559 6.3286202847957593 6.8735164403915405 18.638834297657013 22.561183899641037 123.29228958487511 6.479126811027526 101.77378144860268 12.232117533683775 72.428318172693253 10.313330560922624 6.4106523692607871 6.1599627137184134 25.736022859811783 181.80541822314262
leaf_count=778 214 267 156 45 302 69 38 23 446 33 31 164 48 230 277 197 22 23 62 73 399 21 333 40 238 34 21 20 85 589
internal_value=0 0.0458974 -0.0188242 -0.00281415 -0.0440757 -0.0343205 0.00488363 -0.000394329 0.0135297 -0.0141891 0.0690716 0.00394629 0.0192901 0.038668 -0.00943767 -0.0184359 0.0792579 0.0073769 -0.0398797 -0.0361472 -0.0409629 -0.0330983 -0.036918 -0.0483108 -0.0374993 -0.0214973 -0.0596723 0.0273523 0.0292119 -0.015479
internal_weight=0 467.145 1110.78 679.784 430.999 341.642 581.413 517.64 257.613 260.027 300.916 166.229 116.152 75.5165 122.375 249.769 225.399 13.2021 320.348 301.709 279.148 231.545 225.066 98.3717 84.6604 37.5529 21.0796 16.4733 37.1688 242.716
internal_count=5278 1638 3640 2225 1415 1113 1902 1688 846 842 1084 554 390 261 400 809 823 45 1044 982 909 753 732 323 278 123 69 54 123 786
is_linear=0
shrinkage=0.1


Tree=23
num_leaves=31
num_cat=0
split_feature=28 84 80 87 36 21 60 82 35 23 66 85 77 68 73 87 28 36 82 107 17 6 82 33 45 47 106 57 59 89
split_gain=68.1189 17.6157 11.6012 8.90152 8.8889 14.0341 11.8177 8.39566 8.36359 8.41262 8.25163 8.1151 9.41797 8.02391 7.56096 8.95662 8.64806 8.50805 8.42672 7.62582 9.2735 7.45082 7.1771 7.02355 6.93832 13.8185 7.39761 6.64177 9.83751 7.96492
threshold=0.14514974504709244 0.34557902812957769 0.3458467423915863 0.0062409115489572009 0.025601523928344205 0.0018363426206633002 0.74841040372848522 0.09456134214997286 0.017541361041367002 0.007092417683452301 0.066533375531434971 0.0034486148506402505 0.004074984462931701 0.061739066615700659 0.0037171022268011502 0.0066521232947706508 0.62552821636199962 0.2601285874843598 0.38442099094390875 0.55150508880615245 0.005181027110666001 0.12959254533052442 0.68900802731513988 0.0015407673781737002 0.00083932236884720005 0.00075091054895885009 0.0083388849161564523 0.0024873145157470506 0.00094797764904790019 0.0011349349515512002
decision_type=2 2 2 2 2 2 2 2 2 2 2 2 2 2 2 2 2 2 2 2 2 2 2 2 2 2 2 2 2 2
left_child=2 3 7 4 23 27 8 -1 -7 -10 13 12 24 -3 -12 18 19 -18 -16 22 -21 -5 -17 -2 25 26 -9 28 29 -6
right_child=1 10 -4 21 5 6 -8 11 9 -11 14 -13 -14 -15 15 16 17 -19 -20 20 -22 -23 -24 -25 -26 -27 -28 -29 -30 -31
leaf_value=-0.059723579519795324 0.017034733270669788 0.070276400321929638 0.10121144920917546 -0.018449106150000755 0.15750001462552388 0.0074511237521889193 0.16611074079205959 -0.078988705289963212 -0.011063040355028322 0.18944365297782711 -0.037826686972720888 -0.05235307520108029 0.17704195494352781 0.23485610190481385 0.012027976845845645 0.034043028336529717 0.18589358375413709 0.052474237787571501 0.19884205754818934 0.092821019611693437 -0.069564899184256068 0.14239116422516171 0.16333436043407601 -0.066375701340112198 -0.048068737486614548 0.18396386573954499 0.036080737425238152 -0.012368204827103518 0.20540411528264868 -0.06464640365145409
leaf_weight=152.05161054432392 21.573501214385033 10.031877011060713 5.5630556344985953 117.28093127161264 3.1660649031400707 128.34107679873705 5.296889752149581 8.5780383646488243 3.5016127526760084 5.2000520527362823 11.736021265387533 49.053129814565182 2.963480368256568 4.2036286890506736 3.7002231329679471 104.36580091714859 7.2622257769107845 13.981485426425932 6.9493268728256226 4.6707884818315533 14.234237506985663 2.9526556730270377 4.4776958376169196 18.974047139286995 22.458532020449638 4.6480442136526099 16.022256806492805 3.5723309218883506 9.1619998291134817 3.2923920452594757
leaf_count=1392 142 54 33 787 20 818 29 68 21 28 66 376 21 23 22 583 34 64 34 25 81 19 21 133 163 29 102 21 49 20
internal_value=0 0.0211779 -0.0416525 0.00704551 0.0198642 0.0303721 0.0195486 -0.0447598 0.0138837 0.108758 0.0457184 -0.0228239 0.0036712 0.118875 0.0396416 0.0453367 0.0390041 0.098084 0.133933 0.0291795 -0.0294449 -0.0144992 0.0393619 -0.0219968 -0.00626521 0.0258339 -0.00404358 0.110643 0.138775 0.0442542
internal_weight=0 507.927 261.338 322.314 202.08 161.532 142.34 255.775 137.043 8.70166 185.613 103.723 54.6704 14.2355 171.378 159.642 148.992 21.2437 10.6496 127.749 18.905 120.234 108.843 40.5475 51.7069 29.2483 24.6003 19.1928 15.6205 6.45846
internal_count=5278 3094 2184 2087 1281 1006 896 2151 867 49 1007 759 383 77 930 864 808 98 56 710 106 806 604 275 362 199 170 110 89 40
is_linear=0
shrinkage=0.1


Tree=24
num_leaves=31
num_cat=0
split_feature=86 52 57 106 4 52 54 97 31 98 70 4 20 76 72 90 80 80 85 89 4 2 92 98 50 71 16 10 70 84
split_gain=42.9158 11.6817 18.3075 8.61874 7.78618 7.77321 9.35866 9.56464 7.58181 18.3797 7.54121 8.09557 6.811 9.56872 6.49575 6.24027 5.86002 9.67339 6.02621 5.7105 11.3818 5.38224 4.6933 13.0699 5.05646 5.68803 4.64449 4.6326 9.0902 7.08942
threshold=0.042329790070652906 0.59068578481674205 0.073544032871723161 0.0062713332008570008 0.31376959383487707 0.46407547593116766 0.48127233982086187 0.0029404864180832507 0.010328369680792001 0.07337415963411327 0.21358665823936462 0.35384760797023779 0.027343227528035554 0.038081517443060854 0.29324333369731909 0.065516982227563816 0.46155184507369995 0.41092875599861145 0.025295125320553755 0.017563516274094554 0.80602410435676586 0.046799110248684862 0.22370640933513644 0.23248623311519623 0.79739433526992809 0.047516318038105909 0.030742762610316252 0.011252136435359701 0.009216931182891101 0.11075903847813606
decision_type=2 2 2 2 2 2 2 2 2 2 2 2 2 2 2 2 2 2 2 2 2 2 2 2 2 2 2 2 2 2
left_child=3 12 4 26 -3 6 7 -5 21 -10 11 -6 -2 -14 27 19 17 18 -13 -7 22 -9 -21 -24 25 -25 -1 -15 -29 -30
right_child=1 2 -4 5 10 15 -8 8 9 -11 -12 16 13 14 -16 -17 -18 -19 -20 20 -22 -23 23 24 -26 -27 -28 28 29 -31
leaf_value=-0.065004609531187696 -0.041073015232719917 -0.048345069335004105 0.42067042099138957 0.32168936812511079 0.2510825369561111 -0.053081222064076963 0.32906975064282495 -0.010781343962056837 0.49432435258466251 -0.082726148206223843 -0.084578390732113928 0.027118141515768291 0.32850787740407844 0.0073246000915278596 0.24449932136511518 0.13230658010561233 -0.084817053670266235 0.32084005846727781 0.24063932978600061 -0.0473893896546611 0.3559114278040918 0.18489729713013636 0.37831784745915709 0.27541120552666881 -0.083292069372015401 -0.020401458410324268 0.18792706595597644 0.31009080391859556 -0.032425203583855082 0.14389704326824068
leaf_weight=52.105625122785568 2.3223174475133446 11.281330302357672 1.1783342175185669 0.98407668992876907 2.3414821662008825 56.349409900605679 0.96064270474016566 38.574514197185636 1.0340066738426679 1.1839904114603994 3.4074644334614268 11.962192449718716 2.3786276467144516 4.71398368850351 3.3221886903047553 2.2404209412634364 2.6199418157339087 1.470650229603051 1.4859878160059441 11.184145048260694 0.9067852683365335 1.458806674927472 1.071955420076846 1.1043319292366507 3.3189788088202477 1.5800677314400671 0.73625021055340667 2.1620196439325801 3.4432911798357946 6.751545112580061
leaf_count=1581 46 239 14 16 33 1348 16 909 19 30 65 167 26 39 14 29 49 21 14 265 15 23 21 19 80 32 15 12 42 79
internal_value=0 0.0697671 0.0330544 -0.0277468 0.019842 -0.0131299 0.0203574 0.0134982 0.00632009 0.186289 0.052874 0.0764333 0.122066 0.138703 0.116564 -0.0321639 0.053117 0.07734 0.0507117 -0.0370435 0.0101079 -0.00365085 -0.00706509 0.0566765 -0.000755393 0.101293 -0.0614805 0.0916668 0.123842 0.0843445
internal_weight=0 60.8414 35.7474 174.794 34.569 121.952 44.196 43.2354 42.2513 2.218 23.2877 19.8803 25.094 22.7717 20.393 77.7561 17.5388 14.9188 13.4482 75.5157 19.1663 40.0333 18.2595 7.07533 6.00338 2.6844 52.8419 17.0708 12.3569 10.1948
internal_count=5278 860 602 4418 588 2822 1013 997 981 49 349 284 258 212 186 1809 251 202 181 1780 432 932 417 152 131 51 1596 172 133 121
is_linear=0
shrinkage=0.1


Tree=25
num_leaves=31
num_cat=0
split_feature=56 22 108 95 84 100 40 15 4 50 23 0 3 82 43 35 40 74 90 61 7 54 80 43 22 66 99 49 31 85
split_gain=44.027 16.3648 9.28546 9.21169 8.67975 7.60059 7.38033 8.36159 6.77221 8.31307 8.1195 6.72617 7.58835 9.06985 8.67798 9.46706 8.70797 8.47717 9.2938 13.1652 9.61961 7.65778 8.03228 7.51329 9.33294 8.55745 9.0514 7.51553 7.49548 7.40413
threshold=0.36749419569969183 0.46338091790676117 0.00194592511979855 0.012629187200218403 0.055103881284594501 0.0035834978334605503 0.011245661415159652 0.027161293663084455 0.38986124098300939 0.94020220637321494 0.06914160773158072 26.500000000000004 0.0013003827771171502 0.076734941452741609 0.0017117681563831501 0.0029998323880135506 0.036234799772500957 0.11218085139989846 0.020462066866457452 0.0017135544912889003 0.0010047320392913503 0.45643714070320129 0.081419762223958955 0.0024966693017631002 0.1124729067087173 0.044034583494067157 0.010782510973513052 0.0054855358321219015 0.0017024455592036002 0.0040180422365665011
decision_type=2 2 2 2 2 2 2 2 2 2 2 2 2 2 2 2 2 2 2 2 2 2 2 2 2 2 2 2 2 2
left_child=4 3 -3 -2 -1 -4 -5 11 -7 -10 -11 23 13 -13 15 16 -14 -15 20 -20 -19 -16 -23 24 -8 -25 27 -27 -26 -18
right_child=1 2 5 6 -6 8 7 -9 9 10 -12 12 14 17 21 -17 29 18 19 -21 -22 22 -24 25 28 26 -28 -29 -30 -31
leaf_value=-0.059911061124367372 -0.069745894312144327 0.14627833700920945 -0.072061474611958817 -0.037008772595624219 -0.021077411233425089 0.061067015877642787 0.24189430671047019 -0.026890227861942752 -0.059990149297385477 0.086646566050826587 -0.038626563164463099 -0.095960141997115403 -0.032608057874726905 -0.0050469078665503556 -0.03636719016999336 -0.092399320588841913 0.065295655210346915 0.19045240500295796 0.1226687118971352 -0.072041494973897599 0.03449545680402677 0.13989610193398269 0.01744610234906796 -0.02504461260960102 -0.049085352282187709 0.053013053699700864 0.012195240999554331 0.21739271003843363 0.11977502755364816 -0.049034724302448048
leaf_weight=95.247420981526375 15.620142966508864 8.5778544396162015 5.9053687900304785 34.073761843144894 145.44599840790033 76.104318588972092 3.8252939581871024 52.466035068035126 11.899626970291136 14.886950537562372 7.9297866821289054 4.0482785999774924 48.584740936756134 13.813520237803457 26.538617268204689 15.347707092761992 22.162192657589916 11.584626168012624 7.1271641999483091 6.7721448093652725 6.0051975548267356 5.4784328565001479 241.67344698309898 19.186210379004478 3.9992468804121 5.8537226319313067 15.017837852239607 5.2994233518838882 7.6706888824701309 7.6091539263725272
leaf_count=758 96 37 27 204 943 312 21 292 59 65 39 24 262 75 151 81 110 56 35 33 32 31 1202 105 21 30 76 25 38 38
internal_value=0 0.0130893 0.0458598 0.00600652 -0.0364447 0.0384803 0.00810399 0.011004 0.0443708 0.00776989 0.0431088 0.0151668 0.010632 0.0474497 0.00568639 -0.0205796 -0.00651222 0.0602649 0.0889156 0.0278003 0.137208 0.0146791 0.0201604 0.046223 0.10634 0.0256853 0.062876 0.131118 0.0619072 0.0360744
internal_weight=0 705.061 125.304 579.758 240.693 116.726 564.137 530.064 110.821 34.7164 22.8167 477.598 416.745 49.3509 367.394 93.7038 78.3561 45.3027 31.4891 13.8993 17.5898 273.69 247.152 60.8524 15.4952 45.3572 26.171 11.1531 11.6699 29.7713
internal_count=5278 3577 539 3038 1701 502 2942 2738 475 163 104 2446 2130 255 1875 491 410 231 156 68 88 1384 1233 316 80 236 131 55 59 148
is_linear=0
shrinkage=0.1


Tree=26
num_leaves=31
num_cat=0
split_feature=55 11 41 31 47 64 26 30 34 53 30 97 58 56 16 51 55 69 38 45 15 19 51 0 101 64 72 32 60 60
split_gain=42.4636 12.5434 12.9248 11.5652 9.57679 9.66901 8.08344 7.42242 8.91129 7.9871 7.32743 8.67121 13.721 6.52343 6.37679 6.33147 6.72772 6.15204 13.191 6.03236 8.60193 14.3554 14.2746 12.2911 9.2861 7.86835 5.99528 5.93317 5.83789 12.2247
threshold=0.0088192210532724025 0.75429999828338634 0.039222814142703961 0.032013455405831309 0.0010138602810911502 0.074589043855667114 0.044911516830325057 0.023255487903952553 0.042978718876838656 0.17876273393630979 0.0081756245344877018 0.0059096880722790011 0.0062723008450120011 0.036271497607231105 0.12065396830439566 0.03227743692696091 0.04753858223557466 0.014493690337985702 0.027829653583466955 0.0016069400007836002 0.0043209511786699009 0.0041849764529615007 0.023713372647762253 27.500000000000004 0.0033161292085423506 0.062071908265352256 0.16337269544601438 0.35032487925033579 0.13412327319383624 0.26087035238742834
decision_type=2 2 2 2 2 2 2 2 2 2 2 2 2 2 2 2 2 2 2 2 2 2 2 2 2 2 2 2 2 2
left_child=6 2 4 7 5 28 -1 -4 27 -10 -6 12 -12 -8 -3 -11 -17 -15 -19 -13 21 22 -21 -24 -23 -25 -18 -9 -2 -30
right_child=1 14 3 -5 10 -7 13 8 9 15 11 19 -14 17 -16 16 26 18 -20 20 -22 24 23 25 -26 -27 -28 -29 29 -31
leaf_value=-0.082494215692274775 -0.012566529116415795 -0.087840106754630803 -0.043903392456330521 -0.050504670758889869 -0.067685708831322564 0.19985579339954754 0.18051535829561163 0.083634628385820475 -0.091016327145113235 0.17506401190316112 -0.058673704850253132 -0.045697535317777926 0.21138410252699424 -0.034537526961211505 0.098166771805924077 -0.031825868624244025 0.076286624176524306 0.20818634314153306 -0.027549211818531934 -0.029071006782262172 -0.0045662645761730984 0.071706430980784205 0.26440130136117074 -0.065709646526941168 0.32285278619383695 0.13289624642384545 -0.021640263088130676 0.21898735983396592 0.095408835264595218 -0.006891585024154101
leaf_weight=32.024418532848358 19.201574571430683 15.024649009108545 6.287249580025672 10.171529382467268 14.777660347521303 3.7106429710984221 1.4877489283680905 7.1451388075947744 3.5323670357465735 4.713690645992755 3.0552116557955733 24.095782823860645 4.8966485485434532 169.74763292074203 2.100784718990325 7.8773349225521079 59.157016605138779 3.3472467288374892 8.1613302528858167 19.523423619568351 125.73882942646742 3.0393378287553778 3.6002091839909545 3.6758766546845418 2.8553767502307892 4.3618753999471664 6.9905831813812247 5.9233565777540207 27.960795074701309 20.062547795474529
leaf_count=424 157 154 48 88 146 23 14 42 28 27 24 186 32 1749 16 52 328 28 74 159 977 23 22 26 19 27 51 32 169 133
internal_value=0 0.0187515 0.0224081 0.0511598 0.0109508 0.0427112 -0.0361502 0.0613352 0.0682752 0.0560903 0.000203125 0.00535209 0.107624 -0.0280288 -0.0650226 0.0626898 0.0555341 -0.0297405 0.041014 0.0010006 0.00791253 0.0502556 0.0231848 0.110847 0.193361 0.0420685 0.0659376 0.144984 0.0340372 0.0526711
internal_weight=0 409.479 392.354 111.798 280.556 70.9356 214.768 101.627 95.3395 82.271 209.62 194.843 7.95186 182.744 17.1254 78.7386 74.0249 181.256 11.5086 186.891 162.795 37.0561 31.1614 11.638 5.89471 8.03775 66.1476 13.0685 67.2249 48.0233
internal_count=5278 2989 2819 696 2123 482 2289 608 560 486 1641 1495 56 1865 170 458 431 1851 102 1439 1253 276 234 75 42 53 379 74 459 302
is_linear=0
shrinkage=0.1


Tree=27
num_leaves=31
num_cat=0
split_feature=84 39 9 84 28 28 59 106 99 39 87 34 38 31 9 97 13 19 65 10 82 59 51 105 104 100 12 11 47 106
split_gain=107.857 37.6143 36.2404 21.1409 16.8933 11.9019 17.2171 14.5599 14.0334 10.4264 9.97803 9.54401 12.6971 9.28658 8.54918 8.13998 9.04074 9.19849 7.96332 7.83535 7.6366 7.68547 7.85478 7.85142 7.36911 7.61163 7.33087 7.27208 6.99143 6.89766
threshold=0.09922448918223381 0.074762638658285113 0.019344311207532855 0.49647805094718939 0.44763079285621649 0.24878968298435208 0.021442604420265656 0.013549981638789151 0.0040021862369030011 0.26038473844528204 0.015194403007626501 0.024743208661675401 0.015127499122172551 0.00049261646927330021 0.020151867531239955 0.061892054975032758 0.03277310729026791 0.024096542969346001 0.015716887079179256 0.10613296926021572 0.14199061691761017 0.0041010677814483009 0.010172126349061702 0.0057676567230373005 0.018928749486803953 0.0032500080997124006 0.028175451792776505 0.68853494524955761 0.010631196666508901 0.0039597174618392515
decision_type=2 2 2 2 2 2 2 2 2 2 2 2 2 2 2 2 2 2 2 2 2 2 2 2 2 2 2 2 2 2
left_child=1 -1 3 5 9 7 26 8 24 14 18 12 13 -3 -4 16 19 -18 -9 28 -20 22 -22 -23 25 -2 -7 -11 -16 -14
right_child=2 11 4 -5 -6 6 -8 10 -10 27 -12 -13 29 -15 15 -17 17 -19 20 -21 21 23 -24 -25 -26 -27 -28 -29 -30 -31
leaf_value=0.068539719239645025 0.045651994977794798 0.016358373563291763 -0.099353759473532241 -0.069466247721899271 -0.077038304698581694 -0.11569306679207095 0.043554994381060363 -0.040925119103130889 0.055035402243363722 -0.051506205837940092 -0.085006372985584902 -0.020774373631538206 -0.074341234566446798 0.082647151700333682 -0.0068004590526382878 -0.078184571301622097 0.011596081965190136 0.11624495800374413 0.094129326365700428 -0.05952400349160776 0.056198473410755671 0.13489522987550426 -0.077941623283415806 -0.0087385873114651774 0.11514901489013037 -0.010256212065055267 -0.021326152230868478 -0.00098510836798850767 0.089521622101920995 0.0077259940311619523
